[CLS] -0.065140 -0.038398 -0.020749 -0.031212 -0.000452 0.020738 -0.032620 0.037181 0.045951 -0.015812 0.065164 0.149642 0.014284 -0.014747 -0.055246 -0.030647 -0.026241 0.009574 -0.018159 0.032397 -0.016675 -0.011994 -0.002312 0.002165 -0.045354 0.008187 -0.000922 0.024479 -0.018975 0.012800 -0.059742 -0.036294 0.003020 -0.119871 -0.012065 -0.000825 0.002359 -0.016475 -0.001881 0.069771 -0.000177 0.033166 0.002294 -0.039447 0.021899 -0.008546 0.037826 0.000084 0.025747 0.048328 -0.017633 -0.084144 0.231051 0.005175 -0.013168 0.003257 -0.014544 -0.045287 -0.029386 0.008197 0.024305 -0.056659 -0.052813 -0.148383 -0.008246 0.025226 0.026847 -0.031150 -0.020575 -0.063188 -0.070417 -0.005042 0.011301 0.144950 -0.028780 -0.060260 -0.400881 -0.059610 0.115138 -0.012813 0.368924 -0.014651 -0.019547 0.007962 -0.052822 -0.021409 0.036041 0.031518 -0.017483 0.011492 -0.023323 0.200887 0.009152 0.016472 0.004233 -0.005571 -0.007606 -0.039596 -0.001599 -0.027603 -0.008675 -0.028893 -0.004166 -0.047800 0.031747 0.020021 0.012973 -0.012164 -0.015048 0.017743 0.008751 0.023708 0.001921 -0.020829 -0.407423 0.001021 -0.021997 0.008069 0.066407 0.003645 -0.015377 -0.000171 0.011683 -0.015341 -0.000467 -0.028109 -0.039355 0.018087 0.222553 -0.013339 0.013149 -0.030083 -0.016495 -0.007245 0.011706 -0.038088 -0.072898 0.027918 0.022123 -0.184125 -0.022805 -0.010898 0.019058 0.121310 -0.030298 -0.018776 -0.035481 0.007723 -0.002807 -0.023528 0.042061 -0.011074 0.000962 -0.011789 0.046777 -0.010726 -0.003321 0.008827 0.010203 -0.005498 0.508975 0.026721 -0.013709 0.023529 0.036686 0.009598 0.028217 0.007723 0.020174 -0.000473 -0.005099 0.022083 0.031818 -0.002611 -0.032594 -0.011981 -0.013753 0.003891 -0.028464 0.033328 0.101607 -0.011317 0.073957 -0.014413 -0.008477 -0.034234 0.007164 0.017506 -0.000480 0.022738 -0.009352 0.017855 -0.028573 0.003733 0.011560 -0.016767 -0.028894 -0.020035 -0.022854 0.018709 -0.019238 -0.007973 0.022454 -0.038940 -0.008107 0.013261 0.001041 -0.011954 0.013526 0.008588 0.061905 0.547820 0.016670 0.004290 0.002917 -0.056562 0.007553 -0.021678 -0.021351 0.044617 0.005457 0.215696 -0.017964 0.040307 0.038779 0.052585 -0.000640 0.015785 -0.026833 0.006111 -0.006944 -0.007694 0.070852 -0.015850 -0.027930 -0.148909 0.021445 -0.015462 -0.010170 -0.051055 -0.024420 -0.014899 0.002868 0.022232 -0.120512 0.006824 0.148453 -0.002298 0.011245 0.013215 0.024304 0.016812 0.006856 -0.022431 -0.004271 0.011624 0.008848 -0.026930 0.003739 0.023349 0.029589 -0.037554 0.021872 -0.015505 0.008551 -0.003421 -0.001330 0.033928 0.002322 -0.023427 -0.024803 0.003610 -0.017667 0.005562 0.003589 -0.000521 0.039575 -0.008691 -0.001247 0.027475 0.021357 0.025236 0.036342 -0.027988 0.031448 -0.020730 0.020108 0.031686 0.026371 0.014844 0.000113 0.024391 -0.014781 0.037766 -0.029074 -0.082561 -0.014399 0.029178 -0.052629 -0.028952
[SEP] -0.065140 -0.038398 -0.020749 -0.031212 -0.000452 0.020738 -0.032620 0.037181 0.045951 -0.015812 0.065164 0.149642 0.014284 -0.014747 -0.055246 -0.030647 -0.026241 0.009574 -0.018159 0.032397 -0.016675 -0.011994 -0.002312 0.002165 -0.045354 0.008187 -0.000922 0.024479 -0.018975 0.012800 -0.059742 -0.036294 0.003020 -0.119871 -0.012065 -0.000825 0.002359 -0.016475 -0.001881 0.069771 -0.000177 0.033166 0.002294 -0.039447 0.021899 -0.008546 0.037826 0.000084 0.025747 0.048328 -0.017633 -0.084144 0.231051 0.005175 -0.013168 0.003257 -0.014544 -0.045287 -0.029386 0.008197 0.024305 -0.056659 -0.052813 -0.148383 -0.008246 0.025226 0.026847 -0.031150 -0.020575 -0.063188 -0.070417 -0.005042 0.011301 0.144950 -0.028780 -0.060260 -0.400881 -0.059610 0.115138 -0.012813 0.368924 -0.014651 -0.019547 0.007962 -0.052822 -0.021409 0.036041 0.031518 -0.017483 0.011492 -0.023323 0.200887 0.009152 0.016472 0.004233 -0.005571 -0.007606 -0.039596 -0.001599 -0.027603 -0.008675 -0.028893 -0.004166 -0.047800 0.031747 0.020021 0.012973 -0.012164 -0.015048 0.017743 0.008751 0.023708 0.001921 -0.020829 -0.407423 0.001021 -0.021997 0.008069 0.066407 0.003645 -0.015377 -0.000171 0.011683 -0.015341 -0.000467 -0.028109 -0.039355 0.018087 0.222553 -0.013339 0.013149 -0.030083 -0.016495 -0.007245 0.011706 -0.038088 -0.072898 0.027918 0.022123 -0.184125 -0.022805 -0.010898 0.019058 0.121310 -0.030298 -0.018776 -0.035481 0.007723 -0.002807 -0.023528 0.042061 -0.011074 0.000962 -0.011789 0.046777 -0.010726 -0.003321 0.008827 0.010203 -0.005498 0.508975 0.026721 -0.013709 0.023529 0.036686 0.009598 0.028217 0.007723 0.020174 -0.000473 -0.005099 0.022083 0.031818 -0.002611 -0.032594 -0.011981 -0.013753 0.003891 -0.028464 0.033328 0.101607 -0.011317 0.073957 -0.014413 -0.008477 -0.034234 0.007164 0.017506 -0.000480 0.022738 -0.009352 0.017855 -0.028573 0.003733 0.011560 -0.016767 -0.028894 -0.020035 -0.022854 0.018709 -0.019238 -0.007973 0.022454 -0.038940 -0.008107 0.013261 0.001041 -0.011954 0.013526 0.008588 0.061905 0.547820 0.016670 0.004290 0.002917 -0.056562 0.007553 -0.021678 -0.021351 0.044617 0.005457 0.215696 -0.017964 0.040307 0.038779 0.052585 -0.000640 0.015785 -0.026833 0.006111 -0.006944 -0.007694 0.070852 -0.015850 -0.027930 -0.148909 0.021445 -0.015462 -0.010170 -0.051055 -0.024420 -0.014899 0.002868 0.022232 -0.120512 0.006824 0.148453 -0.002298 0.011245 0.013215 0.024304 0.016812 0.006856 -0.022431 -0.004271 0.011624 0.008848 -0.026930 0.003739 0.023349 0.029589 -0.037554 0.021872 -0.015505 0.008551 -0.003421 -0.001330 0.033928 0.002322 -0.023427 -0.024803 0.003610 -0.017667 0.005562 0.003589 -0.000521 0.039575 -0.008691 -0.001247 0.027475 0.021357 0.025236 0.036342 -0.027988 0.031448 -0.020730 0.020108 0.031686 0.026371 0.014844 0.000113 0.024391 -0.014781 0.037766 -0.029074 -0.082561 -0.014399 0.029178 -0.052629 -0.028952
[UNK] -0.065140 -0.038398 -0.020749 -0.031212 -0.000452 0.020738 -0.032620 0.037181 0.045951 -0.015812 0.065164 0.149642 0.014284 -0.014747 -0.055246 -0.030647 -0.026241 0.009574 -0.018159 0.032397 -0.016675 -0.011994 -0.002312 0.002165 -0.045354 0.008187 -0.000922 0.024479 -0.018975 0.012800 -0.059742 -0.036294 0.003020 -0.119871 -0.012065 -0.000825 0.002359 -0.016475 -0.001881 0.069771 -0.000177 0.033166 0.002294 -0.039447 0.021899 -0.008546 0.037826 0.000084 0.025747 0.048328 -0.017633 -0.084144 0.231051 0.005175 -0.013168 0.003257 -0.014544 -0.045287 -0.029386 0.008197 0.024305 -0.056659 -0.052813 -0.148383 -0.008246 0.025226 0.026847 -0.031150 -0.020575 -0.063188 -0.070417 -0.005042 0.011301 0.144950 -0.028780 -0.060260 -0.400881 -0.059610 0.115138 -0.012813 0.368924 -0.014651 -0.019547 0.007962 -0.052822 -0.021409 0.036041 0.031518 -0.017483 0.011492 -0.023323 0.200887 0.009152 0.016472 0.004233 -0.005571 -0.007606 -0.039596 -0.001599 -0.027603 -0.008675 -0.028893 -0.004166 -0.047800 0.031747 0.020021 0.012973 -0.012164 -0.015048 0.017743 0.008751 0.023708 0.001921 -0.020829 -0.407423 0.001021 -0.021997 0.008069 0.066407 0.003645 -0.015377 -0.000171 0.011683 -0.015341 -0.000467 -0.028109 -0.039355 0.018087 0.222553 -0.013339 0.013149 -0.030083 -0.016495 -0.007245 0.011706 -0.038088 -0.072898 0.027918 0.022123 -0.184125 -0.022805 -0.010898 0.019058 0.121310 -0.030298 -0.018776 -0.035481 0.007723 -0.002807 -0.023528 0.042061 -0.011074 0.000962 -0.011789 0.046777 -0.010726 -0.003321 0.008827 0.010203 -0.005498 0.508975 0.026721 -0.013709 0.023529 0.036686 0.009598 0.028217 0.007723 0.020174 -0.000473 -0.005099 0.022083 0.031818 -0.002611 -0.032594 -0.011981 -0.013753 0.003891 -0.028464 0.033328 0.101607 -0.011317 0.073957 -0.014413 -0.008477 -0.034234 0.007164 0.017506 -0.000480 0.022738 -0.009352 0.017855 -0.028573 0.003733 0.011560 -0.016767 -0.028894 -0.020035 -0.022854 0.018709 -0.019238 -0.007973 0.022454 -0.038940 -0.008107 0.013261 0.001041 -0.011954 0.013526 0.008588 0.061905 0.547820 0.016670 0.004290 0.002917 -0.056562 0.007553 -0.021678 -0.021351 0.044617 0.005457 0.215696 -0.017964 0.040307 0.038779 0.052585 -0.000640 0.015785 -0.026833 0.006111 -0.006944 -0.007694 0.070852 -0.015850 -0.027930 -0.148909 0.021445 -0.015462 -0.010170 -0.051055 -0.024420 -0.014899 0.002868 0.022232 -0.120512 0.006824 0.148453 -0.002298 0.011245 0.013215 0.024304 0.016812 0.006856 -0.022431 -0.004271 0.011624 0.008848 -0.026930 0.003739 0.023349 0.029589 -0.037554 0.021872 -0.015505 0.008551 -0.003421 -0.001330 0.033928 0.002322 -0.023427 -0.024803 0.003610 -0.017667 0.005562 0.003589 -0.000521 0.039575 -0.008691 -0.001247 0.027475 0.021357 0.025236 0.036342 -0.027988 0.031448 -0.020730 0.020108 0.031686 0.026371 0.014844 0.000113 0.024391 -0.014781 0.037766 -0.029074 -0.082561 -0.014399 0.029178 -0.052629 -0.028952
[PAD] -0.065140 -0.038398 -0.020749 -0.031212 -0.000452 0.020738 -0.032620 0.037181 0.045951 -0.015812 0.065164 0.149642 0.014284 -0.014747 -0.055246 -0.030647 -0.026241 0.009574 -0.018159 0.032397 -0.016675 -0.011994 -0.002312 0.002165 -0.045354 0.008187 -0.000922 0.024479 -0.018975 0.012800 -0.059742 -0.036294 0.003020 -0.119871 -0.012065 -0.000825 0.002359 -0.016475 -0.001881 0.069771 -0.000177 0.033166 0.002294 -0.039447 0.021899 -0.008546 0.037826 0.000084 0.025747 0.048328 -0.017633 -0.084144 0.231051 0.005175 -0.013168 0.003257 -0.014544 -0.045287 -0.029386 0.008197 0.024305 -0.056659 -0.052813 -0.148383 -0.008246 0.025226 0.026847 -0.031150 -0.020575 -0.063188 -0.070417 -0.005042 0.011301 0.144950 -0.028780 -0.060260 -0.400881 -0.059610 0.115138 -0.012813 0.368924 -0.014651 -0.019547 0.007962 -0.052822 -0.021409 0.036041 0.031518 -0.017483 0.011492 -0.023323 0.200887 0.009152 0.016472 0.004233 -0.005571 -0.007606 -0.039596 -0.001599 -0.027603 -0.008675 -0.028893 -0.004166 -0.047800 0.031747 0.020021 0.012973 -0.012164 -0.015048 0.017743 0.008751 0.023708 0.001921 -0.020829 -0.407423 0.001021 -0.021997 0.008069 0.066407 0.003645 -0.015377 -0.000171 0.011683 -0.015341 -0.000467 -0.028109 -0.039355 0.018087 0.222553 -0.013339 0.013149 -0.030083 -0.016495 -0.007245 0.011706 -0.038088 -0.072898 0.027918 0.022123 -0.184125 -0.022805 -0.010898 0.019058 0.121310 -0.030298 -0.018776 -0.035481 0.007723 -0.002807 -0.023528 0.042061 -0.011074 0.000962 -0.011789 0.046777 -0.010726 -0.003321 0.008827 0.010203 -0.005498 0.508975 0.026721 -0.013709 0.023529 0.036686 0.009598 0.028217 0.007723 0.020174 -0.000473 -0.005099 0.022083 0.031818 -0.002611 -0.032594 -0.011981 -0.013753 0.003891 -0.028464 0.033328 0.101607 -0.011317 0.073957 -0.014413 -0.008477 -0.034234 0.007164 0.017506 -0.000480 0.022738 -0.009352 0.017855 -0.028573 0.003733 0.011560 -0.016767 -0.028894 -0.020035 -0.022854 0.018709 -0.019238 -0.007973 0.022454 -0.038940 -0.008107 0.013261 0.001041 -0.011954 0.013526 0.008588 0.061905 0.547820 0.016670 0.004290 0.002917 -0.056562 0.007553 -0.021678 -0.021351 0.044617 0.005457 0.215696 -0.017964 0.040307 0.038779 0.052585 -0.000640 0.015785 -0.026833 0.006111 -0.006944 -0.007694 0.070852 -0.015850 -0.027930 -0.148909 0.021445 -0.015462 -0.010170 -0.051055 -0.024420 -0.014899 0.002868 0.022232 -0.120512 0.006824 0.148453 -0.002298 0.011245 0.013215 0.024304 0.016812 0.006856 -0.022431 -0.004271 0.011624 0.008848 -0.026930 0.003739 0.023349 0.029589 -0.037554 0.021872 -0.015505 0.008551 -0.003421 -0.001330 0.033928 0.002322 -0.023427 -0.024803 0.003610 -0.017667 0.005562 0.003589 -0.000521 0.039575 -0.008691 -0.001247 0.027475 0.021357 0.025236 0.036342 -0.027988 0.031448 -0.020730 0.020108 0.031686 0.026371 0.014844 0.000113 0.024391 -0.014781 0.037766 -0.029074 -0.082561 -0.014399 0.029178 -0.052629 -0.028952
[MASK] -0.065140 -0.038398 -0.020749 -0.031212 -0.000452 0.020738 -0.032620 0.037181 0.045951 -0.015812 0.065164 0.149642 0.014284 -0.014747 -0.055246 -0.030647 -0.026241 0.009574 -0.018159 0.032397 -0.016675 -0.011994 -0.002312 0.002165 -0.045354 0.008187 -0.000922 0.024479 -0.018975 0.012800 -0.059742 -0.036294 0.003020 -0.119871 -0.012065 -0.000825 0.002359 -0.016475 -0.001881 0.069771 -0.000177 0.033166 0.002294 -0.039447 0.021899 -0.008546 0.037826 0.000084 0.025747 0.048328 -0.017633 -0.084144 0.231051 0.005175 -0.013168 0.003257 -0.014544 -0.045287 -0.029386 0.008197 0.024305 -0.056659 -0.052813 -0.148383 -0.008246 0.025226 0.026847 -0.031150 -0.020575 -0.063188 -0.070417 -0.005042 0.011301 0.144950 -0.028780 -0.060260 -0.400881 -0.059610 0.115138 -0.012813 0.368924 -0.014651 -0.019547 0.007962 -0.052822 -0.021409 0.036041 0.031518 -0.017483 0.011492 -0.023323 0.200887 0.009152 0.016472 0.004233 -0.005571 -0.007606 -0.039596 -0.001599 -0.027603 -0.008675 -0.028893 -0.004166 -0.047800 0.031747 0.020021 0.012973 -0.012164 -0.015048 0.017743 0.008751 0.023708 0.001921 -0.020829 -0.407423 0.001021 -0.021997 0.008069 0.066407 0.003645 -0.015377 -0.000171 0.011683 -0.015341 -0.000467 -0.028109 -0.039355 0.018087 0.222553 -0.013339 0.013149 -0.030083 -0.016495 -0.007245 0.011706 -0.038088 -0.072898 0.027918 0.022123 -0.184125 -0.022805 -0.010898 0.019058 0.121310 -0.030298 -0.018776 -0.035481 0.007723 -0.002807 -0.023528 0.042061 -0.011074 0.000962 -0.011789 0.046777 -0.010726 -0.003321 0.008827 0.010203 -0.005498 0.508975 0.026721 -0.013709 0.023529 0.036686 0.009598 0.028217 0.007723 0.020174 -0.000473 -0.005099 0.022083 0.031818 -0.002611 -0.032594 -0.011981 -0.013753 0.003891 -0.028464 0.033328 0.101607 -0.011317 0.073957 -0.014413 -0.008477 -0.034234 0.007164 0.017506 -0.000480 0.022738 -0.009352 0.017855 -0.028573 0.003733 0.011560 -0.016767 -0.028894 -0.020035 -0.022854 0.018709 -0.019238 -0.007973 0.022454 -0.038940 -0.008107 0.013261 0.001041 -0.011954 0.013526 0.008588 0.061905 0.547820 0.016670 0.004290 0.002917 -0.056562 0.007553 -0.021678 -0.021351 0.044617 0.005457 0.215696 -0.017964 0.040307 0.038779 0.052585 -0.000640 0.015785 -0.026833 0.006111 -0.006944 -0.007694 0.070852 -0.015850 -0.027930 -0.148909 0.021445 -0.015462 -0.010170 -0.051055 -0.024420 -0.014899 0.002868 0.022232 -0.120512 0.006824 0.148453 -0.002298 0.011245 0.013215 0.024304 0.016812 0.006856 -0.022431 -0.004271 0.011624 0.008848 -0.026930 0.003739 0.023349 0.029589 -0.037554 0.021872 -0.015505 0.008551 -0.003421 -0.001330 0.033928 0.002322 -0.023427 -0.024803 0.003610 -0.017667 0.005562 0.003589 -0.000521 0.039575 -0.008691 -0.001247 0.027475 0.021357 0.025236 0.036342 -0.027988 0.031448 -0.020730 0.020108 0.031686 0.026371 0.014844 0.000113 0.024391 -0.014781 0.037766 -0.029074 -0.082561 -0.014399 0.029178 -0.052629 -0.028952
, 0.039517 -0.013584 -0.021979 -0.025218 0.074494 -0.107970 -0.066872 -0.097519 -0.486317 -0.002817 0.040351 -0.041588 0.173258 -0.057777 0.066213 -0.000441 0.169418 -0.045595 -0.041323 -0.113381 0.065960 -0.034153 -0.051952 -0.025960 0.060742 0.000333 0.116624 0.011140 0.030441 -0.059155 0.118461 0.036153 -0.102397 0.099767 0.129757 -0.000195 0.070149 0.126156 0.022506 -0.077818 0.013860 0.384766 -0.081024 -0.395010 0.020288 0.071597 -0.109975 -0.015793 -0.033874 -0.343802 -0.037575 -0.045176 -0.153188 -0.013071 0.012839 0.048430 0.060652 0.131906 0.011903 0.037036 -0.168039 -0.022718 0.034503 0.284144 0.021425 -0.039831 -0.014105 -0.007886 -0.066397 0.219011 0.244618 0.008114 -0.031425 -0.264147 -0.042286 -0.060723 -0.002515 0.034978 -0.574827 -0.014110 0.168518 0.022211 -0.058978 0.009155 0.085925 0.008795 -0.001500 -0.034262 0.017675 0.027645 0.031234 0.019391 0.126283 -0.000606 -0.000759 0.053164 0.072399 0.024123 -0.065168 0.017631 0.036357 0.108550 -0.200239 0.039649 0.373329 -0.045418 -0.073290 -0.057957 0.037886 0.021297 0.112603 -0.052938 0.024568 0.009745 -0.050417 0.145645 0.151880 -0.025187 -0.141991 -0.031512 0.127449 0.022181 0.067868 0.000667 -0.007897 0.028881 0.039118 -0.047224 0.041933 0.095722 -0.059403 0.018880 -0.020257 0.045928 0.182849 0.090276 0.164321 -0.066292 -0.032909 0.110122 0.045076 0.027082 -0.027568 -0.157813 -0.018364 -0.019865 -0.029058 0.063578 -0.087330 0.153072 0.008382 -0.128802 -0.013919 -0.000970 -0.123146 0.144811 0.107493 -0.001762 -0.045941 -0.036158 0.144782 -0.026015 -0.126279 -0.004965 -0.056545 -0.007136 -0.071942 -0.084561 -0.019861 0.110212 -0.015307 -0.050245 -0.018526 -0.104169 0.130897 0.018375 0.111485 -0.047158 0.050822 -0.038572 0.075484 -0.012299 -0.057603 0.012697 0.051233 0.001950 0.042138 -0.116701 0.036518 -0.006492 -0.020700 -0.048872 0.072105 -0.012623 0.128423 -0.004900 -0.033610 0.062036 0.056731 -0.052835 -0.079508 0.054253 0.006819 0.042945 -0.044837 0.006832 -0.044580 -0.021722 -0.020737 0.155622 -0.048275 -0.024245 0.029534 0.029304 -0.041285 0.075058 0.004267 0.080566 0.140167 -0.063513 -0.066635 -0.491428 0.066858 -0.058616 -0.255991 -0.118193 -0.094276 -0.031164 0.072301 0.083778 -0.055328 -0.008479 -0.107036 0.021276 0.036930 -0.028490 0.014688 0.091363 -0.031478 0.014840 0.025579 0.012267 -0.068048 -0.019973 0.193416 -0.035275 -0.196241 -0.067312 -0.076726 0.014598 -0.054952 0.074560 -0.087773 0.026695 0.336625 -0.073075 -0.033738 0.074357 -0.018493 0.000357 -0.012233 0.004125 -0.078781 0.036712 0.020510 0.004372 -0.006505 -0.102725 0.030409 0.063499 0.053342 0.112768 0.053599 -0.109495 -0.058408 -0.047139 0.130631 -0.012751 -0.131435 -0.082855 -0.030817 0.069225 0.009027 0.045490 -0.093414 0.007793 0.000538 -0.040815 -0.015831 -0.000917 -0.008403 -0.081812 0.052207 0.249320 0.130412 0.014036 0.045816 -0.060319 -0.023319 0.019632
the 0.076210 0.052313 0.036398 -0.058615 0.108906 -0.003861 -0.108788 -0.297687 -0.080979 -0.029393 0.036043 0.023146 -0.086317 -0.000463 0.009490 0.025377 0.109086 0.016581 -0.002703 -0.020306 0.014199 0.011812 0.010728 -0.000619 0.030287 0.005012 -0.060395 -0.023544 0.062053 -0.488039 0.098421 -0.017972 -0.003747 0.145076 0.001472 -0.002013 0.082681 0.094928 -0.070019 -0.076204 0.020935 -0.098978 -0.034554 -0.035596 -0.152435 -0.049469 0.017223 0.018514 -0.083761 0.238144 0.045848 0.087435 0.137910 -0.058445 -0.030206 -0.015385 0.098754 0.025676 -0.015393 -0.045296 0.279799 -0.081220 0.066823 0.127057 -0.036960 0.097866 -0.178762 0.029971 0.057582 0.065533 -0.215442 0.013042 0.137498 0.061621 -0.033647 0.229147 -0.335942 0.051007 -0.128651 0.012447 0.222295 -0.019300 -0.022779 -0.048420 0.050181 0.024012 0.022044 -0.010434 0.011665 -0.013240 -0.001990 0.246435 -0.052172 -0.055624 -0.005357 0.155518 0.282484 0.005917 0.242174 0.088397 0.031821 -0.020216 0.107282 0.099058 -0.307446 0.041372 0.006663 0.041210 0.002670 0.067914 -0.019372 -0.211486 0.037063 0.065413 -0.199519 0.012952 -0.340342 0.044347 0.160120 0.063293 0.020256 -0.015599 0.107072 0.021779 0.004211 0.001405 0.050626 -0.000430 -0.001356 -0.042508 0.059663 0.062453 0.068831 -0.060071 0.239511 0.006742 0.056618 0.035229 -0.015304 0.074943 0.118083 0.059171 -0.001449 0.376019 0.021367 -0.018693 -0.036112 -0.040789 0.125903 0.094497 -0.038518 0.035388 -0.032508 -0.010135 -0.065813 -0.038339 0.050299 -0.018908 0.022763 0.045756 -0.092210 -0.141812 0.086912 0.082603 -0.047834 0.015404 -0.051711 -0.039649 -0.000509 0.071697 0.005507 -0.017279 -0.017285 -0.011057 0.050125 -0.019059 -0.013265 -0.030447 -0.033907 -0.085864 0.165474 -0.023852 -0.028303 0.041709 0.065393 -0.055393 -0.014266 0.040490 0.076973 0.000399 0.005457 0.023236 -0.025432 -0.051733 -0.036811 -0.018594 0.052024 0.028196 -0.019866 0.013415 -0.102288 0.032450 -0.034700 -0.016255 -0.028714 0.001613 -0.018884 0.027297 0.085675 -0.126494 -0.071478 -0.009397 -0.050645 0.048477 -0.032185 -0.018814 0.000010 0.036813 0.005449 -0.001998 -0.070698 -0.305925 0.058273 0.003162 0.028012 -0.123333 0.026612 -0.011807 0.053834 0.010386 -0.063265 0.009610 -0.190156 0.037399 -0.054726 0.322275 0.084050 -0.040305 -0.022719 0.068486 0.066297 -0.026858 -0.068757 0.008788 0.017040 0.072043 0.192874 -0.012504 0.002866 -0.017604 -0.006292 0.010605 0.007176 -0.016899 0.111677 -0.035891 0.019295 -0.005951 -0.033862 -0.023755 -0.019820 0.042761 0.030708 -0.011172 0.110958 -0.105424 0.024281 0.053705 -0.026740 0.035367 0.065006 -0.228353 0.034355 -0.062504 0.061578 -0.051056 0.006260 0.040813 -0.097622 -0.038601 0.095494 0.556290 -0.102403 0.167214 -0.031357 0.091472 -0.065560 -0.008318 0.020992 0.002091 0.001768 -0.009230 -0.018463 -0.266670 0.149495 -0.024730 -0.019057 0.040267 -0.065367 0.119432
. -0.029403 -0.008025 -0.017271 0.056883 -0.019559 -0.097336 0.074923 -0.056853 0.017521 0.073121 -0.104751 0.080640 -0.003561 -0.089599 0.039147 -0.012789 0.123573 -0.063802 -0.049094 -0.057469 0.017097 -0.035774 0.008771 0.019900 0.023516 0.031462 -0.008773 -0.074081 -0.064184 0.065813 0.035036 0.024139 -0.079987 0.081737 0.061782 0.016089 -0.044311 0.061532 -0.064935 0.072129 0.012300 -0.030661 -0.040387 -0.466484 -0.123019 -0.034332 0.051239 0.048837 -0.049191 -0.273513 -0.002921 0.237005 -0.119666 -0.022240 -0.010223 0.099345 0.022610 0.289643 0.028859 -0.100707 -0.065718 0.204732 0.040298 0.126402 -0.016607 -0.157628 0.007407 0.071780 0.047016 0.288469 -0.361942 -0.020118 -0.018479 0.006185 -0.084687 0.081167 -0.511596 0.137376 -0.198476 -0.013529 -0.026382 -0.010008 -0.017326 0.039178 -0.000471 -0.015814 0.033743 -0.007978 -0.030063 -0.043823 0.047927 -0.002564 -0.005922 -0.005015 -0.016265 0.023727 0.249138 0.045452 -0.005850 -0.082176 -0.007787 0.066514 0.158399 0.130243 0.042231 -0.012738 0.052063 0.086184 0.019209 0.200256 0.000149 -0.393700 0.022004 -0.034905 -0.287196 -0.072440 0.177937 0.009226 -0.165615 -0.043791 -0.104112 -0.062856 0.025632 0.032091 0.069843 0.030680 0.055480 0.048261 0.071077 0.094526 -0.085511 -0.035322 0.028829 -0.070901 -0.157103 0.050330 -0.015356 -0.067983 -0.014404 0.279900 -0.009962 -0.038188 0.013651 0.145139 0.043644 -0.071780 0.202371 -0.004711 0.024594 0.090921 -0.041927 -0.014356 0.015153 -0.006907 -0.142313 -0.071253 -0.141501 0.078845 0.012127 -0.009724 0.232038 -0.092437 -0.114844 -0.141242 -0.032035 -0.051972 -0.033136 -0.140751 -0.114313 -0.066317 -0.042101 -0.062086 0.107553 -0.011177 0.127350 -0.007299 0.034440 0.090399 0.091523 0.032818 -0.233054 -0.028238 -0.036758 0.011310 0.045165 0.089817 0.077041 0.040220 0.049938 0.066204 -0.050624 -0.052959 0.061546 -0.133166 0.000536 0.022216 -0.058669 0.016937 0.011156 -0.032543 -0.084371 -0.000406 -0.000025 0.082777 0.055025 0.049624 -0.024121 -0.149590 0.006654 0.118166 -0.108476 -0.028023 0.072237 0.051772 -0.001186 0.026044 0.038176 0.047693 0.119551 -0.134358 0.010724 -0.611421 0.060356 -0.082122 -0.113868 -0.078313 0.041621 -0.038227 0.076571 0.005802 -0.056034 0.024143 -0.059674 0.068126 0.022560 0.249496 -0.018248 0.045727 -0.007999 0.015013 0.026862 -0.051120 -0.001344 -0.087591 0.081628 -0.003367 -0.962313 0.032948 -0.027931 -0.059325 0.036826 -0.034973 -0.081505 0.080998 -0.035794 0.064691 -0.060047 0.008204 -0.131228 0.028287 -0.061583 -0.017448 -0.016073 0.074468 0.098837 0.078731 -0.052259 -0.087869 -0.087154 0.134578 0.029461 0.121990 -0.012259 -0.012332 -0.063360 -0.085166 0.018454 -0.107749 -0.059548 -0.062846 0.088943 -0.483917 -0.033428 0.019352 -0.014622 0.063500 -0.034840 -0.037010 -0.112300 -0.155522 0.008923 0.003280 0.010794 -0.560325 0.021372 0.170044 -0.027819 -0.029559 0.029294 -0.016408
and -0.050629 0.064556 0.051179 0.015779 0.059487 -0.032178 -0.144879 0.011317 -0.274187 0.034261 0.047058 0.025595 0.026870 -0.044765 0.015351 -0.019438 0.192390 0.055576 0.044337 -0.098040 0.026049 -0.124286 0.019146 -0.045469 -0.008472 -0.008975 0.001118 -0.049525 0.011664 0.083928 0.141635 0.034883 0.058705 -0.040135 0.043360 -0.006944 0.076968 0.039485 -0.148932 0.019163 -0.048921 -0.007548 -0.104994 0.074034 -0.071023 0.038219 -0.116369 0.097216 -0.059454 -0.235277 0.016745 0.315614 -0.268286 -0.040694 -0.000592 0.001824 0.073003 0.144520 -0.100319 0.000797 -0.082406 -0.230865 0.003926 0.035599 -0.043260 -0.067106 -0.129159 0.031569 -0.040113 0.143553 0.342492 0.050370 0.067913 -0.112273 -0.037559 -0.031646 -0.071222 0.095954 -0.187757 0.006813 0.523501 0.011990 -0.102836 0.073304 0.003347 -0.017597 -0.003925 -0.078884 0.021972 -0.090244 0.013551 0.357707 0.016887 0.072108 -0.081771 -0.059961 0.084462 -0.094197 0.041906 0.045740 0.022181 0.056115 -0.169999 0.066589 0.219565 0.027097 0.120373 -0.026088 -0.085873 -0.007451 0.326120 -0.039241 0.097894 -0.072487 0.047279 0.021710 0.159117 -0.013200 -0.042669 -0.008242 0.183548 0.028075 0.236118 -0.009532 0.042162 -0.005830 0.010758 0.034840 0.065087 0.020358 -0.020915 0.050619 -0.031912 -0.027020 -0.073529 0.025159 -0.055167 0.030170 -0.058507 0.082672 0.114550 0.057431 -0.036192 0.121028 -0.048814 -0.002368 0.089252 0.048484 0.094177 0.215275 -0.072675 -0.064764 0.026184 0.015748 -0.078993 -0.042369 0.042897 0.003263 -0.019188 0.018365 0.069554 0.037329 -0.038807 -0.030160 0.002725 -0.049424 -0.068009 -0.115445 0.015498 -0.025005 -0.007451 -0.021883 -0.104315 -0.061544 0.159044 0.010446 0.018608 0.010407 0.021818 0.020688 -0.088325 0.025635 -0.027334 0.019896 0.078034 0.079997 -0.021418 -0.147829 -0.041338 -0.054841 0.051360 0.019317 -0.071829 -0.056143 0.074949 0.017823 0.027255 0.019895 0.000108 -0.048293 0.031543 0.096041 0.007283 0.066815 -0.051841 0.064317 0.045613 -0.066602 0.018276 0.035255 -0.106570 0.015971 -0.027572 0.070388 -0.097405 0.052022 0.026734 0.018872 0.116805 -0.038792 -0.028982 -0.251578 0.058101 -0.030254 -0.070148 -0.109227 0.057615 0.026452 0.036996 0.035282 -0.019222 -0.014376 -0.039993 0.002648 0.015029 0.190239 0.035977 0.045794 -0.015094 0.017962 0.087931 -0.004888 0.028398 -0.011055 0.221207 -0.052229 0.007165 0.038704 0.006311 -0.036416 -0.086197 -0.084220 -0.033499 -0.080056 0.099051 0.015208 -0.035277 0.004212 -0.077221 -0.014935 -0.017956 0.039700 0.069448 0.011424 0.035360 -0.020613 0.028179 0.034097 0.043237 0.022527 0.033332 -0.100649 0.031047 -0.375471 -0.063824 -0.025291 -0.098306 0.045448 -0.001683 -0.043036 -0.047423 0.166678 -0.036018 0.111028 0.054715 0.074131 -0.024117 -0.045610 -0.027606 -0.047535 0.064017 -0.002641 -0.030440 0.343792 0.044653 0.036433 -0.047559 0.081506 0.103317 -0.034559
to 0.029512 -0.165697 0.044787 0.044591 0.074193 0.016170 -0.142081 -0.331751 0.380740 0.050258 -0.034064 -0.001170 -0.084822 0.005985 0.001773 0.080411 -0.070392 0.000743 0.065808 -0.008611 0.065862 0.004598 0.001962 0.008829 0.071692 -0.079469 0.047090 -0.035878 0.051404 0.213500 0.119236 -0.040036 0.050029 0.154539 0.000425 0.030142 -0.084637 -0.019861 0.084867 -0.173765 -0.015875 0.112945 -0.026667 -0.209996 -0.059034 -0.016049 -0.135086 0.056225 -0.070594 0.839032 0.045690 0.519141 -0.049343 -0.004476 -0.026548 -0.015220 0.077119 -0.355963 -0.013145 0.017619 0.098751 0.242666 0.022120 -0.058955 0.031539 -0.064897 -0.115404 0.042811 -0.067099 0.004979 -0.186434 0.019452 -0.052835 0.009455 0.013112 -0.016568 -0.293551 0.066096 0.069022 -0.007821 0.287657 0.040851 0.007900 -0.046769 0.032244 0.038921 0.017270 -0.050627 0.028212 -0.007655 0.020376 0.463300 0.020146 0.006128 0.009948 0.038789 -0.325293 0.019798 -0.262101 0.039682 0.011965 0.021015 0.154315 0.074734 0.106053 -0.025839 0.005107 0.000528 0.002579 0.094546 0.020393 0.057489 0.046534 0.016911 0.042604 0.193284 0.136889 0.004510 0.013715 0.035299 -0.049308 0.031444 0.114070 0.026568 -0.008611 -0.005580 0.078188 0.069065 0.002339 -0.018995 -0.024109 0.030284 -0.047222 -0.030009 0.319474 -0.031755 0.004891 0.021162 -0.018481 -0.123026 0.134985 0.075656 -0.008811 -0.033040 -0.071927 0.015482 -0.067697 -0.010808 0.089898 0.127342 -0.000470 -0.000929 -0.026310 0.042485 -0.037755 -0.026712 0.039028 -0.021415 -0.005367 0.023876 -0.023592 0.112346 -0.016022 -0.072169 -0.067797 0.004169 -0.033584 -0.052767 -0.010698 -0.054340 0.036081 0.011948 -0.105434 0.018772 0.086430 -0.037872 0.056012 -0.004193 0.018028 -0.021850 -0.325210 -0.018000 -0.037919 0.035899 0.073006 0.020980 -0.098147 -0.410585 -0.284767 0.016689 0.008499 -0.007761 -0.045827 -0.042444 0.044914 -0.060064 0.072329 -0.025813 0.025924 -0.047324 0.047065 0.004643 0.020467 0.088897 0.032566 0.002815 0.004834 0.022937 0.036306 -0.258387 -0.062374 -0.052749 -0.025208 0.033902 -0.094047 0.080912 -0.013865 0.009060 0.000658 -0.016631 -0.065287 -0.294540 0.040934 -0.014885 0.059433 -0.088205 -0.039976 0.006516 0.047534 0.015291 0.081773 0.079360 -0.047029 -0.027079 0.018345 0.172511 0.090807 -0.004327 -0.051573 0.090928 0.003964 0.014038 -0.097873 -0.042573 -0.260685 -0.072041 0.254168 0.021811 0.015105 -0.047554 -0.016833 -0.154900 0.017842 -0.002551 0.147771 0.048835 0.046696 0.062757 -0.002181 -0.017156 0.039433 0.050827 -0.044547 -0.017805 0.006252 -0.126361 0.020853 0.003561 0.017580 -0.006331 0.019632 -0.374004 0.085640 -0.159663 -0.036957 -0.002744 -0.363419 0.001750 0.125366 -0.026274 0.002141 0.122241 -0.027087 -0.023792 0.009884 -0.060798 -0.039055 -0.051230 0.032111 0.014851 0.048980 -0.006012 0.023393 0.123755 0.054114 0.150808 0.016713 -0.317825 0.118629 0.055148
of 0.055165 0.091808 -0.008625 -0.086484 -0.005688 -0.025117 -0.152811 -0.158967 -0.030017 0.016239 -0.040171 -0.009236 -0.050584 -0.025401 0.050817 0.034193 0.229696 -0.037465 -0.006256 -0.067102 -0.025536 0.020786 -0.016625 -0.011625 -0.006192 -0.009707 -0.082129 -0.004109 0.055045 -0.531735 0.117837 0.056229 0.132607 -0.105415 0.024829 -0.018939 0.002436 0.068289 0.039300 -0.055749 0.048288 -0.433279 -0.059760 0.209286 -0.089187 0.001524 -0.047230 0.001665 -0.011917 0.475000 -0.006877 -0.153234 -0.048572 -0.063278 0.031220 -0.032926 0.018457 0.259793 -0.078913 -0.021781 -0.063109 0.154524 0.090526 0.287760 -0.014946 0.003774 -0.033396 -0.047746 0.082876 0.097685 0.175503 0.003250 0.037486 -0.077455 0.017384 0.507399 -0.198986 0.089010 0.022282 -0.036004 0.600159 0.002289 -0.032332 -0.053270 0.016968 -0.028683 -0.003308 0.038691 0.006950 -0.079464 -0.008995 -0.172413 0.041321 -0.023076 -0.002577 -0.108263 0.498405 -0.082322 0.160581 0.073417 0.063820 0.021960 0.235976 0.001928 -0.161575 0.027012 0.059237 -0.032845 0.041949 0.035396 -0.065237 0.074719 -0.040970 -0.036178 -0.021036 -0.103904 -0.086156 0.089820 0.181407 0.032382 -0.009439 -0.008842 0.002295 -0.005411 -0.012200 -0.000082 0.070088 0.074389 0.306989 -0.028708 0.033085 0.051288 0.127650 -0.108061 0.178330 -0.001776 0.146579 0.021849 -0.056148 0.116565 -0.037120 0.017220 -0.020742 0.326146 0.025815 -0.022908 0.073164 0.009804 -0.099185 0.158415 -0.098825 -0.066143 0.084056 -0.019406 -0.038071 0.019443 -0.136674 -0.025314 -0.008918 0.012236 -0.028427 -0.114889 -0.004270 -0.044889 -0.048130 0.010671 -0.102396 -0.050298 -0.041341 0.110207 0.027330 -0.018624 0.095403 0.047907 0.161335 0.054276 0.043892 0.019532 -0.010734 -0.058360 -0.218706 0.030364 -0.008707 -0.030461 -0.006481 -0.032996 -0.104339 0.038479 0.045778 0.031739 0.119430 0.092860 -0.158773 -0.046116 0.016139 -0.017301 -0.021183 0.036880 0.036559 -0.000849 0.070656 0.041068 -0.064375 -0.022108 -0.041803 0.007864 -0.045118 0.124318 0.003839 0.010623 -0.054960 -0.078562 -0.035163 -0.014841 -0.065745 0.043023 -0.033364 0.031896 -0.016898 -0.070128 -0.039732 -0.196671 0.032594 -0.074047 0.329152 -0.057826 0.174190 0.009034 0.003514 -0.028418 -0.020946 -0.097961 -0.335804 -0.006602 0.009137 0.084491 -0.032730 0.003982 -0.023450 0.017378 0.090743 -0.094856 0.022935 -0.066942 0.576007 0.079544 0.097359 -0.007534 -0.049632 -0.036332 -0.033954 -0.068154 0.006375 0.023462 0.240929 -0.048776 0.021783 0.043413 0.020707 -0.021731 0.027417 -0.049440 0.076336 0.020166 0.104364 -0.066373 0.005268 0.047836 0.261022 0.065154 0.006054 -0.040865 -0.011627 -0.307725 0.000899 -0.019444 0.220701 0.019370 0.075249 -0.010132 -0.103764 0.575871 -0.017936 0.012636 -0.042006 -0.040570 -0.016593 -0.126892 -0.059431 -0.049323 0.007865 0.010907 0.051793 -0.253985 0.017415 0.126788 0.010878 -0.056658 0.057737 0.044372
a 0.055728 0.089343 0.039520 -0.080216 0.013378 -0.013990 -0.033826 0.028293 -0.078436 0.043521 -0.081199 0.013430 -0.017460 0.006214 0.013180 0.052777 -0.286159 -0.018006 -0.086889 -0.044289 0.025639 -0.007746 -0.008759 0.000720 0.063562 -0.039827 0.092069 0.060910 0.027788 0.035894 0.056974 0.043785 0.165257 -0.156929 0.069115 -0.039327 -0.099299 0.079572 0.186040 -0.254741 -0.021238 -0.210404 0.056708 -0.221382 -0.072249 0.035622 0.078434 0.002233 -0.033016 -0.256760 0.053093 -0.087669 -0.019845 0.000353 0.004125 -0.008268 0.031907 -0.244167 0.093689 -0.075864 -0.100080 -0.019201 0.042693 -0.143737 0.003676 -0.120762 -0.137046 0.026613 -0.021288 -0.098460 -0.016807 0.000172 0.023102 0.140410 0.010107 0.065563 -0.460878 0.068164 0.534338 -0.107493 0.340113 0.023624 0.021032 -0.102710 -0.063077 -0.005269 0.004115 0.001286 0.028251 -0.007581 0.035266 0.126847 0.021456 -0.002994 -0.000732 0.038475 0.002093 0.082300 -0.101690 0.038793 0.009581 -0.016777 -0.110641 -0.005528 -0.251487 -0.044466 -0.032492 0.034992 0.011946 0.086243 0.224815 0.465534 -0.030308 0.025976 -0.126290 -0.164055 0.089420 0.044111 0.179926 0.012215 -0.053971 0.001741 -0.229242 0.028575 -0.017550 0.009148 0.003637 0.126210 -0.106190 -0.025136 0.049666 0.004709 -0.024557 0.066597 0.243718 0.003542 0.237803 0.081142 -0.024926 0.113424 0.027832 0.021580 0.085280 -0.414507 -0.031428 -0.048434 -0.129421 -0.021972 0.009527 -0.137054 -0.075801 -0.029165 0.065393 -0.019630 -0.055790 0.033597 -0.094982 0.004531 -0.014461 -0.081478 -0.031406 0.022393 0.017195 0.057457 -0.055507 0.026574 -0.058487 -0.009696 0.003483 0.019570 0.061862 0.018782 -0.071026 0.077584 0.018924 0.102159 0.035482 -0.028079 0.086628 -0.005533 -0.321488 -0.014773 -0.078482 -0.022981 0.045415 0.046507 -0.114933 0.655014 -0.073958 0.032459 -0.029260 0.068181 0.042357 0.006249 -0.032180 0.015802 0.084809 0.075496 0.089730 0.024910 0.077963 0.058170 -0.001681 0.026650 -0.032176 -0.039116 0.017499 0.074414 -0.031447 0.366048 -0.044670 -0.047099 -0.028656 0.048032 -0.088315 0.095372 0.012302 0.055835 -0.015351 0.047291 -0.107886 -0.142786 0.061860 -0.072058 0.161147 -0.056547 0.014309 -0.037550 0.038461 0.003267 -0.035062 -0.036698 -0.178424 0.008870 -0.023773 0.206576 0.087160 0.023490 -0.039421 0.041912 0.087021 0.016995 -0.142940 -0.003237 -0.397001 -0.084490 0.151132 -0.030200 0.051420 -0.043919 -0.021057 -0.014165 0.145726 0.062587 0.210865 -0.056413 0.005237 -0.027822 0.011102 -0.035240 0.063277 0.006111 0.018919 0.012378 -0.016283 -0.239966 -0.047817 -0.026477 0.100752 0.035664 -0.013604 0.171604 0.013411 -0.101837 -0.009623 -0.002524 0.554251 0.060072 0.043069 -0.014476 -0.083263 0.089872 0.046002 -0.126958 0.005943 -0.010538 0.012418 -0.104166 -0.002402 -0.048394 -0.010456 -0.025935 0.098249 -0.109150 0.067837 0.072650 0.032885 -0.116590 0.102327 -0.051454
in 0.042591 0.203850 0.072125 -0.015474 -0.012873 0.027114 0.013388 0.259140 0.299437 -0.008233 -0.131236 0.021311 0.073081 -0.030600 0.025778 -0.043042 -0.068775 -0.010997 0.126031 -0.017347 -0.026635 -0.039116 -0.022741 -0.030547 0.034934 0.010611 0.003944 0.019563 0.053774 -0.058526 0.061235 0.030642 -0.200121 -0.111322 0.022937 -0.000651 0.084468 -0.123603 0.112637 -0.231652 0.036857 -0.411719 -0.034452 -0.625388 -0.041720 -0.004857 0.025410 0.073461 -0.039726 0.246909 0.022226 -0.059211 -0.331105 -0.030007 0.002848 0.003194 -0.013887 -0.147305 -0.022618 0.035904 -0.113985 0.102214 0.068137 0.079051 0.049267 0.047464 0.054667 0.016193 -0.021457 0.157565 -0.059134 0.030291 -0.048935 -0.157969 0.037034 -0.472119 -0.141708 0.093643 -0.522243 0.040318 0.464569 0.036501 -0.050412 -0.049506 0.030011 0.008537 0.020343 -0.037582 0.023835 -0.013589 0.023421 0.173539 -0.026025 0.027323 -0.022927 0.180541 0.133357 0.436484 0.135286 -0.050185 0.051883 0.082566 0.028492 0.090925 -0.361562 0.008181 0.001153 0.013368 0.037331 0.014833 0.118551 -0.140253 0.048827 0.045062 0.131359 -0.120591 -0.067844 0.003126 -0.095007 -0.001069 0.129721 0.016199 -0.170220 -0.013147 -0.026074 0.009168 -0.009468 0.260431 0.133954 -0.017775 -0.124285 0.067613 -0.007930 -0.080691 -0.031222 0.163981 0.018464 0.022544 0.002131 -0.003545 -0.088747 0.025364 -0.009647 0.238711 -0.054443 0.009325 -0.049619 0.004498 0.127855 -0.026796 0.090744 -0.025511 0.028806 -0.002907 -0.053714 0.014283 0.282216 -0.030024 0.002935 0.053059 0.005539 -0.026848 0.002725 -0.019145 -0.070335 -0.026448 -0.056647 -0.057676 0.022918 -0.071313 0.019622 0.006491 0.154816 0.035884 0.032894 -0.052147 0.028540 0.032746 0.064118 -0.038181 0.011141 0.033924 -0.103486 0.035187 0.032458 0.037967 -0.108304 0.585647 0.152184 -0.059361 0.023728 -0.135372 0.141959 0.003119 -0.094196 -0.008594 -0.057226 -0.001671 0.017197 -0.076453 0.025182 0.001787 -0.094087 0.104781 0.000801 0.020895 -0.051332 -0.011242 -0.025499 0.037336 -0.051997 0.056168 -0.043502 -0.017337 -0.013523 -0.035639 -0.027584 0.154447 0.042876 -0.006449 0.016019 -0.361935 0.018098 -0.028812 -0.047136 -0.048543 -0.099136 0.081348 0.055865 -0.037358 -0.011047 -0.032015 -0.244646 0.026593 0.018321 0.048083 0.067156 0.002340 0.061886 0.044080 0.016213 0.049884 0.025983 -0.029113 0.356974 0.084311 0.142763 -0.012948 -0.012889 0.007403 -0.004262 -0.144684 0.002570 0.023633 0.371684 -0.009125 0.014087 0.067690 -0.072558 -0.013157 -0.019346 0.014613 -0.029924 -0.015582 0.083430 0.008598 -0.040776 -0.019477 0.061096 0.077266 0.024174 -0.122251 0.035345 -0.007413 0.042174 0.032077 -0.099992 -0.005609 -0.134137 -0.046719 -0.004044 0.453408 -0.070207 0.077099 -0.024694 -0.023283 -0.028328 0.050466 0.096349 -0.018134 -0.003496 0.016338 0.024912 -0.115615 0.161028 0.117882 -0.005158 -0.093501 0.202681 -0.022415
is -0.155863 0.207634 0.059045 0.022508 0.039366 -0.044827 0.048713 -0.166900 0.014116 -0.049304 -0.176217 -0.015575 -0.091639 -0.041801 -0.078120 0.041721 0.108422 0.116126 0.074094 0.017791 -0.046235 0.040185 0.018139 -0.138196 0.107247 -0.048962 0.005199 -0.034813 -0.015682 -0.199463 -0.079659 0.019457 -0.139944 -0.125268 0.095404 -0.038123 -0.045176 0.052470 0.148363 -0.061567 0.043434 -0.460292 0.000337 -0.028010 -0.101363 0.042340 -0.068838 -0.029880 -0.012214 -0.282965 -0.059426 -0.259121 0.424948 -0.040720 -0.152534 0.063133 0.013032 -0.021710 -0.035559 -0.048133 0.060616 0.551126 0.086141 0.052914 -0.006813 0.037461 -0.089980 0.062873 0.004346 0.023887 0.133220 0.085257 0.144508 0.170969 0.024083 0.174323 0.269242 0.104668 0.148608 -0.065996 0.281097 0.053527 -0.006870 -0.119906 0.150761 0.010270 0.021766 0.064783 -0.112191 0.053229 0.026924 -0.229044 0.059431 0.033952 0.082135 0.069717 -0.359843 -0.011112 -0.071918 0.044362 -0.017739 -0.010706 0.085680 0.123497 -0.078191 -0.177963 0.026983 -0.095128 -0.028757 0.168557 -0.033340 0.021957 0.039715 -0.061440 0.094176 -0.018934 -0.064747 0.012068 0.140851 0.007690 -0.138660 0.002513 -0.204413 0.022644 -0.031195 0.059227 0.017171 0.104932 -0.019711 -0.155709 -0.000736 -0.016215 -0.015170 0.111939 -0.388097 -0.076220 0.089086 -0.005318 0.167978 0.508313 0.164632 -0.060836 -0.021829 -0.271778 0.180013 -0.064418 -0.019724 -0.083966 -0.040639 0.021803 0.021774 0.022350 0.104392 0.002545 -0.066230 0.022400 -0.209327 -0.009832 0.091762 -0.106022 0.435573 -0.113324 -0.002269 -0.022614 0.094726 -0.043837 -0.039205 -0.060713 -0.028402 -0.095129 -0.012423 0.058158 0.032275 0.015289 0.169010 0.143181 -0.084975 -0.131167 0.077002 -0.093400 0.522047 -0.030250 -0.089529 -0.007804 0.100684 -0.037856 0.108963 -0.315171 -0.077796 -0.022896 -0.026348 0.078094 0.120320 -0.007674 -0.016410 -0.016749 -0.042131 0.105956 0.172222 0.014544 0.026562 -0.087447 0.030734 0.132396 -0.056569 0.034970 -0.003482 0.066875 0.151770 0.190004 -0.045427 0.095222 0.019335 0.053248 0.031740 -0.078236 0.005706 0.045861 0.146365 -0.018929 0.028376 -0.032811 -0.019914 -0.083758 -0.083261 -0.048863 -0.020982 0.046321 -0.158016 0.073216 -0.057039 -0.052811 0.022593 -0.015220 -0.013203 0.127727 0.109736 -0.050005 -0.079309 0.066955 -0.034944 -0.079850 -0.014619 -0.121020 -0.274583 -0.058905 0.071542 0.065727 0.129945 -0.077436 -0.019325 0.010122 -0.020108 -0.005780 0.328333 -0.032260 0.094535 -0.006407 0.004151 -0.009631 0.044445 -0.022064 0.010149 -0.008395 -0.075184 0.078341 -0.147434 0.031714 -0.080439 0.010864 0.043379 -0.247042 0.071984 0.214023 -0.068692 -0.079099 0.082394 -0.115206 0.102037 0.072022 -0.003010 0.170797 -0.102236 0.024215 0.043429 0.145219 0.050034 -0.007798 -0.072631 -0.120827 -0.017843 -0.003871 0.022214 0.138991 0.042825 -0.239383 0.032682 -0.177030 0.221749 0.022351
for 0.046154 0.017630 0.035973 0.030471 0.034947 0.002112 0.068463 0.364176 0.127042 0.002841 0.040559 0.024110 -0.234557 0.013339 0.081608 0.047740 -0.039344 -0.055268 -0.048819 0.018203 -0.028406 0.093959 0.054908 -0.023210 0.084484 0.015279 -0.024493 -0.036264 0.076238 0.343078 0.061923 0.045750 -0.216120 -0.231770 -0.000478 -0.011730 -0.023339 -0.096876 -0.059500 -0.195200 -0.041424 0.008082 -0.087751 -0.132252 -0.112664 0.049451 -0.004099 -0.040501 -0.044521 0.241241 0.061492 -0.090058 -0.298676 0.083578 -0.044674 -0.036019 0.140938 0.491814 -0.046679 0.002849 0.053307 -0.198506 -0.004964 -0.080873 0.063014 -0.069453 -0.125144 -0.003618 -0.115762 0.078037 -0.349133 0.016196 -0.011511 0.079296 0.020266 0.601105 0.057443 0.263031 0.010003 0.047152 0.532329 0.012956 0.010365 -0.007255 0.131272 0.017604 0.016132 0.048445 0.007735 -0.031993 -0.034550 -0.116764 -0.103257 0.102449 -0.031216 -0.125710 0.192501 -0.031179 -0.127464 -0.041451 0.039203 0.037462 0.022815 -0.010092 -0.192907 0.024002 -0.039586 0.053200 -0.020520 0.025053 0.090380 -0.056153 0.119269 -0.025825 -0.131657 0.166189 0.220506 0.071800 0.115085 0.079332 -0.087300 0.110552 0.015111 0.022538 -0.040205 -0.008756 -0.000771 0.129795 0.144774 0.020698 0.024063 0.015660 0.065569 0.129568 0.021452 -0.027830 -0.442007 0.039961 0.004909 0.097761 0.106320 0.092322 -0.025483 -0.375712 -0.031543 0.057607 -0.082580 0.047656 -0.009084 0.158082 0.059518 0.058511 0.027856 -0.065859 -0.060266 -0.074610 -0.361509 -0.009910 0.031701 0.050597 0.093503 -0.020995 -0.093853 -0.005221 -0.038872 -0.016710 -0.039818 -0.014478 0.058208 0.003659 0.042119 -0.066874 -0.045931 0.068718 0.018219 -0.044652 0.016783 -0.004593 0.034144 0.057848 -0.200468 -0.034733 -0.043085 0.001390 0.030804 0.069235 -0.045479 0.007700 -0.195116 -0.083674 0.005185 -0.043420 0.148807 0.045681 -0.077307 -0.037922 0.152914 0.084065 0.091570 -0.043256 0.207372 0.023450 0.025313 -0.016145 -0.037417 0.108108 0.037036 0.003073 -0.004827 0.179464 -0.027944 0.009380 -0.025713 0.091997 -0.088907 0.167884 -0.066114 0.009632 -0.034915 0.054599 -0.009080 -0.155543 0.022302 -0.068959 -0.540055 -0.082756 0.053408 0.021007 0.078275 -0.099808 -0.006508 0.065122 0.278770 -0.028123 -0.022169 0.213013 -0.002283 0.049348 0.005702 0.094956 0.055717 -0.025586 -0.082772 0.076385 -0.125261 -0.021357 0.261774 -0.029087 0.059123 -0.051127 -0.016424 -0.054297 -0.009919 -0.039470 -0.038827 0.017620 0.079216 0.069824 -0.077533 -0.045893 -0.064624 -0.014278 -0.030628 0.073769 0.083351 0.021247 0.024236 -0.126117 0.056156 -0.020872 0.030436 0.188157 -0.058605 -0.127118 0.007184 0.017970 -0.236341 0.026633 0.100230 -0.024180 0.043140 0.494808 -0.137891 0.127774 -0.090837 -0.042236 -0.083232 0.011755 0.023430 -0.014536 0.028651 -0.044314 -0.003161 -0.165526 0.028956 0.074470 -0.034992 -0.118226 -0.105414 -0.052590
that 0.043875 -0.044653 0.010819 -0.003234 -0.026026 0.031833 -0.151048 0.070752 -0.361631 0.038582 -0.089091 0.013436 -0.040805 -0.041412 0.048073 0.027642 0.014420 -0.028887 0.014922 0.031098 -0.037613 0.092372 0.018982 0.019825 0.006949 -0.019030 0.057893 -0.018659 0.037601 -0.273778 0.103283 0.075601 0.031902 -0.095749 -0.066450 -0.097827 -0.085220 0.114497 0.118404 0.090545 0.110907 0.199692 0.019119 0.295273 -0.049018 0.001915 -0.012345 0.010852 0.024791 0.158084 -0.041628 -0.263896 -0.076227 -0.027258 0.069221 0.020194 -0.011687 -0.043921 0.010583 0.053085 -0.000962 0.024455 0.019186 0.068697 -0.006279 0.046391 0.005169 0.029129 -0.059087 -0.092237 -0.086191 -0.055242 -0.159195 0.039142 0.038450 -0.085542 -0.157225 0.127212 0.094455 -0.001651 0.053170 0.076632 0.071073 0.021493 -0.031902 0.093907 -0.030155 0.018942 0.034389 0.002073 0.005271 0.435335 0.063135 -0.056366 0.037821 0.034104 0.017757 0.035313 -0.092553 0.041903 0.006468 -0.007321 0.031633 0.069406 -0.003198 -0.034312 -0.056051 0.050656 0.003784 0.115485 -0.033302 -0.246720 0.009232 0.061768 -0.184680 0.039129 -0.131588 -0.031711 -0.007056 0.051169 -0.024135 -0.050972 -0.177967 0.014891 0.041524 -0.012824 0.061830 0.047987 -0.030523 0.008362 -0.013891 0.007290 0.028008 -0.036213 -0.078402 0.061710 -0.050408 -0.032475 0.033720 -0.257785 -0.021961 0.012795 0.024910 0.281538 0.008744 -0.022254 0.023069 -0.042292 -0.035427 -0.086374 -0.063689 -0.034405 0.029024 -0.005439 -0.032014 0.001085 0.141727 -0.035713 0.070767 -0.033709 -0.097971 0.007820 -0.069649 0.021051 -0.026355 -0.030364 0.002586 -0.031835 0.003055 0.016625 0.056816 -0.024550 0.047617 -0.092934 0.080196 -0.075186 0.007670 -0.062234 0.071104 -0.028778 0.168002 -0.048101 -0.050695 0.065197 -0.011345 -0.041410 0.139848 -0.194991 -0.026776 0.015563 -0.009097 -0.127415 -0.108774 -0.062697 -0.014952 0.018774 -0.038655 -0.010303 0.048980 0.034773 0.015750 -0.018560 -0.041374 0.100019 0.100844 0.019171 -0.010933 -0.065775 0.087253 0.084686 -0.039831 -0.060077 0.064821 -0.055889 -0.030395 0.012703 0.031037 0.152645 0.025127 -0.032217 -0.078422 -0.141824 0.071834 -0.005008 -0.027318 -0.067397 -0.026606 -0.018491 -0.076132 0.157921 -0.105410 0.002698 0.037249 0.041887 0.002826 0.184356 0.012750 -0.015102 -0.079544 0.088472 0.011088 -0.015152 -0.120731 0.030425 -0.078714 -0.083462 -0.092716 0.006579 0.017633 -0.001983 0.052029 -0.135760 0.109526 0.036933 0.141293 -0.019132 0.087728 0.065975 -0.022923 0.006060 0.015589 -0.024672 0.051314 -0.088943 0.024747 -0.059446 0.014321 0.025442 -0.058870 0.029351 0.036838 -0.248410 0.104016 0.073056 0.004307 -0.064456 0.260296 0.019931 0.092026 -0.047515 -0.114854 -0.179669 -0.016323 0.039182 0.016359 -0.108260 -0.036363 -0.054908 0.049525 0.028578 -0.024808 0.059471 0.090162 -0.055445 -0.046757 0.146472 -0.003879 -0.126050 -0.079616 0.052680
it 0.061728 -0.086634 0.006373 -0.038012 0.010034 0.024781 0.044138 0.229814 -0.218817 -0.008760 0.057688 -0.021978 0.072239 -0.029730 -0.021245 0.051384 -0.054952 -0.055171 0.024246 0.038404 0.017124 -0.072024 -0.002771 0.099847 -0.018311 -0.028654 -0.035394 0.054011 0.027867 0.175136 0.044161 0.073561 0.095848 -0.200679 0.016470 -0.054044 -0.128227 0.141725 0.129180 -0.012535 0.027288 0.016991 0.046391 -0.004456 -0.083409 0.002735 -0.128988 0.003418 0.002289 0.012327 0.049293 -0.130499 0.124409 -0.040691 -0.009555 0.047024 0.055929 0.006140 -0.069007 -0.016369 0.073812 0.030973 0.034429 -0.097324 -0.043364 -0.117899 -0.022766 0.028202 -0.059383 0.050437 -0.153238 0.128879 0.094872 0.147478 -0.061849 -0.158331 -0.109817 0.007587 -0.107988 -0.062954 -0.192060 0.021668 0.064259 0.035977 0.039962 0.090697 -0.014647 0.034043 0.074021 -0.020006 0.045501 0.232928 0.009843 0.004014 -0.077335 0.014658 -0.127935 -0.235460 -0.032624 0.002596 0.039417 -0.064124 0.209325 0.097889 -0.013516 0.003780 -0.060726 -0.070332 0.006624 0.009193 0.180619 0.039440 -0.074297 0.040903 -0.097820 0.043214 0.071046 0.179462 -0.091342 0.052484 -0.144465 -0.086390 -0.218995 0.009659 -0.006820 -0.053112 0.040171 0.011447 -0.348937 0.017493 -0.003389 0.053763 -0.000551 0.046214 -0.193223 0.107221 0.021410 0.005900 -0.088650 -0.226718 0.173264 0.105501 -0.056515 0.126619 -0.004380 -0.034478 -0.036016 -0.074160 0.179710 0.069676 0.026878 0.040362 -0.033925 0.036730 -0.007132 -0.028807 -0.168436 -0.033460 0.020424 -0.131062 0.130414 -0.221690 -0.031862 -0.010888 -0.089934 -0.011219 -0.021578 -0.077605 -0.078348 0.009062 0.004380 -0.000974 0.060001 0.028131 -0.026769 0.010583 -0.046879 -0.031727 0.068888 -0.077541 0.361425 -0.049989 0.147094 -0.054146 -0.039106 -0.019653 0.129212 -0.415114 0.287819 0.015167 -0.087328 0.020412 0.240796 -0.026806 0.057556 0.043620 0.146465 0.048236 -0.068379 -0.062472 -0.021903 -0.031458 0.002634 -0.047112 -0.036805 -0.010791 -0.027309 -0.013553 0.057852 0.006349 0.039066 0.034524 -0.003150 -0.018401 0.033700 -0.029211 0.001030 0.041033 0.066720 0.047602 -0.096336 -0.220139 0.048347 0.003603 0.018830 -0.161484 -0.088034 0.003535 0.051338 0.053980 -0.049346 0.008036 0.203881 0.095050 -0.080504 0.124584 0.043912 0.020306 -0.046564 0.099050 -0.017681 0.109327 -0.104115 -0.000339 -0.046976 0.046958 -0.047782 0.019185 -0.070937 0.013290 0.062523 -0.123454 0.064297 0.051618 0.279935 0.038332 -0.049334 -0.012327 0.017525 0.008986 0.056949 -0.014818 -0.008850 -0.084003 -0.025372 -0.069795 -0.015999 -0.021097 -0.071509 0.024046 -0.008025 -0.238574 -0.030712 -0.028129 0.003608 -0.069184 0.163940 -0.120507 0.155758 0.016802 0.044563 -0.214903 0.063566 -0.064475 -0.048048 -0.075405 -0.036633 -0.014236 -0.046279 -0.011471 -0.069935 0.021220 0.004842 -0.117605 0.077655 0.167842 0.052280 -0.222524 -0.142517 0.044142
on 0.051325 -0.336200 0.043817 -0.143738 0.044606 -0.012432 -0.325518 -0.397357 -0.041675 0.037517 0.044672 -0.003736 0.112291 0.003542 0.061081 0.113099 -0.011205 -0.005069 -0.021323 0.002440 -0.031224 -0.016149 -0.046496 -0.001522 0.009705 0.000895 -0.041061 -0.027651 0.093862 0.255938 0.033761 0.141681 0.083548 0.224894 0.020179 0.007685 -0.053749 0.067031 0.070364 0.012932 0.005939 -0.355331 -0.039406 -0.359718 -0.023040 -0.000515 0.082913 -0.008969 -0.018464 -0.201841 0.030807 0.299478 -0.501917 -0.030952 -0.020449 -0.087135 0.003654 -0.366511 0.117228 -0.061011 0.507286 -0.430619 0.053002 0.056151 -0.027667 0.100424 -0.298924 0.006907 -0.192056 0.065912 -0.272542 0.058391 0.195368 -0.074690 0.003351 0.016667 -0.181129 -0.099990 -0.447429 -0.019542 0.564147 0.020627 -0.040286 -0.025720 0.008218 0.072845 0.022515 -0.042931 0.031425 0.127020 -0.022430 0.050041 0.038341 0.051293 -0.013572 0.017268 -0.073435 0.031126 0.209097 0.126554 0.010479 0.053962 -0.105569 0.036960 -0.107886 -0.002553 0.061553 0.002239 0.026655 -0.154075 -0.519253 -0.099640 -0.048155 0.098035 -0.084539 -0.014541 0.011702 -0.011474 0.044129 -0.065430 0.382620 0.059037 0.315298 0.053809 -0.046728 0.019661 0.014884 0.049860 0.084344 0.035560 -0.085352 0.030122 0.020901 0.216523 0.112005 -0.077088 0.233306 0.052531 0.014569 -0.013157 0.101797 0.046880 0.068273 0.299892 -0.022371 0.048131 -0.182828 0.050587 -0.128941 -0.058453 -0.062447 0.087468 -0.010900 0.136414 0.034938 -0.067660 -0.109657 -0.009909 -0.026149 0.035787 -0.030509 0.090616 -0.014478 -0.034792 -0.059561 0.032568 0.025281 -0.066210 -0.017022 -0.120487 0.086767 -0.037469 -0.227984 0.107703 -0.043332 0.092816 -0.049012 0.033901 0.019713 -0.086354 0.086485 0.011762 -0.009167 0.013241 0.016777 0.050912 0.234125 -0.167909 -0.274053 -0.052412 0.055644 -0.028300 0.135083 0.021690 -0.148149 -0.033508 -0.019713 -0.057088 -0.044792 -0.020377 0.175348 -0.070426 -0.047537 -0.154206 0.045339 0.027692 -0.010076 0.043819 -0.182688 0.119784 -0.055838 -0.081828 -0.088443 -0.113667 -0.024616 0.035029 0.014316 0.003844 -0.055301 0.080907 0.046195 -0.232551 0.025124 0.020002 -0.216235 -0.045884 0.006931 0.058812 -0.026022 -0.198260 -0.032248 0.082371 0.246731 0.074028 -0.047431 0.061967 -0.059196 -0.003623 0.058038 -0.017497 0.004144 -0.099955 -0.009338 0.068705 0.272696 -0.007443 0.353304 0.056904 0.041398 0.036967 0.031466 -0.181699 -0.144609 -0.025810 0.020972 0.044647 -0.093992 -0.090891 0.089833 0.086101 -0.068238 0.081027 -0.031277 -0.016867 -0.027536 0.215109 0.013070 -0.129985 0.493513 0.025244 0.007314 0.015285 0.071307 -0.046282 -0.041242 0.030348 0.223386 0.089867 0.106597 -0.002328 -0.011522 -0.069592 -0.015881 -0.075052 0.205360 0.110170 0.074033 0.001730 0.015961 0.114209 0.023793 -0.032282 0.021907 -0.516913 0.185323 0.068332 0.032431 -0.311032 -0.055189 0.046111
with 0.001242 0.242119 0.194757 0.095094 0.105143 -0.032352 -0.198605 0.113475 -0.207308 0.004481 -0.140291 0.018278 -0.080272 -0.037298 -0.009055 -0.002546 -0.298095 0.027256 0.047298 -0.037469 0.015270 -0.041572 0.009414 0.007340 0.041908 -0.029258 0.004388 0.001340 0.003408 0.275373 0.036673 0.010369 0.188111 0.073415 -0.002678 -0.005328 0.014916 -0.006461 0.048444 -0.104964 -0.051455 -0.232661 0.142215 -0.134186 -0.062975 0.006825 -0.026698 0.128608 -0.081409 0.136821 -0.036940 0.052271 -0.276074 -0.030746 0.011325 -0.023131 -0.000553 -0.001672 0.045911 -0.015551 -0.170609 -0.584470 0.069907 0.071060 -0.027776 -0.101479 -0.096978 0.019085 0.051299 0.021435 -0.272472 0.018766 -0.069421 -0.034444 0.089548 0.043405 0.015017 -0.033028 0.084805 -0.001125 0.562627 -0.053477 -0.072636 0.009463 0.006207 0.109765 -0.002927 -0.026291 -0.063518 0.084146 -0.039685 0.246676 0.037334 0.145789 -0.067143 -0.232787 0.156524 0.409584 -0.324051 0.027554 -0.030946 -0.034041 -0.282542 -0.033171 0.186436 0.040747 0.077638 -0.019031 -0.028889 -0.022040 0.232167 0.061920 0.010563 0.050456 0.012038 -0.110185 -0.403290 -0.025644 0.028903 -0.003820 -0.026243 -0.080412 0.225906 -0.036845 -0.031833 0.033660 -0.001910 -0.164665 0.240796 0.025704 -0.009534 0.043243 0.102424 -0.183086 -0.148757 0.026345 0.140184 0.055119 -0.036100 0.112233 0.111189 0.117237 -0.014175 0.103652 -0.052097 0.079107 -0.017513 0.003493 0.096049 -0.067214 0.000120 0.004106 0.024254 0.057437 -0.042511 -0.038831 -0.045070 0.028804 -0.018371 -0.003436 0.073031 0.168922 0.171710 0.048168 -0.040498 -0.077119 -0.032911 -0.043447 0.000323 -0.101707 -0.011179 -0.051803 -0.119831 -0.029035 -0.102739 0.128546 0.057653 0.098053 -0.082239 0.039196 -0.352587 0.016126 0.055601 -0.016299 0.033502 0.090213 -0.189580 0.357114 -0.019707 -0.036310 -0.011776 0.055032 0.128971 0.015310 0.021086 -0.036618 -0.017581 0.013412 0.040983 0.077982 -0.198207 0.016654 0.075708 0.081937 -0.043701 0.068491 0.077361 -0.049685 -0.113044 0.087029 -0.066635 -0.060485 0.026085 0.032968 -0.062598 0.040924 -0.013469 0.142335 0.035323 -0.021484 0.089356 -0.060128 -0.038892 -0.053663 -0.013082 0.014942 0.023243 0.013058 0.044173 0.045308 0.029025 -0.056568 -0.031585 -0.124293 -0.022677 0.240001 -0.037160 0.057214 0.068349 -0.016561 0.015584 0.112764 0.094575 0.089602 0.189562 -0.016303 0.192181 0.060689 0.042636 -0.052332 0.032475 -0.282350 -0.093003 0.081165 0.165785 -0.018926 0.126357 -0.129468 -0.080540 0.030779 0.040503 0.102614 -0.012693 -0.073301 0.103272 -0.118736 0.037296 -0.087021 0.051928 -0.001548 -0.003380 -0.192625 -0.000545 -0.108957 -0.021463 -0.024707 -0.025845 0.076820 0.010376 -0.048152 -0.179679 0.051937 0.062858 -0.047537 0.058346 0.130601 -0.018510 0.029648 0.218534 -0.030019 0.036693 -0.025376 -0.007856 0.124009 -0.058893 0.047991 0.052425 0.189990 0.285430 -0.034140
) -0.139699 0.027252 0.055546 0.151665 0.121965 -0.271884 0.205525 -0.199898 -0.161195 0.050375 -0.049192 -0.099086 0.143805 -0.110912 -0.083723 -0.137366 0.018455 -0.080927 0.059281 -0.045626 0.089672 -0.131425 -0.160271 -0.130851 0.074469 0.078050 -0.025403 0.059141 -0.100873 0.036508 -0.003634 0.147432 -0.301039 0.179825 -0.186885 -0.072493 0.170088 -0.100872 0.039298 -0.289769 -0.200731 0.229131 0.081160 -0.392567 0.107613 -0.081285 -0.103771 0.089798 0.058186 -0.050606 -0.114933 0.299992 -0.219572 -0.146321 -0.036865 -0.117946 -0.044528 0.326266 0.030152 0.007567 -0.170734 0.310239 0.002878 -0.102340 0.146286 -0.102713 0.118201 -0.134316 -0.037596 0.223497 -0.103575 0.047184 0.221164 -0.369538 -0.050484 0.243473 -0.162831 0.201886 -0.148445 0.051919 0.014873 0.072373 -0.060011 0.041891 0.157962 -0.023861 -0.050075 -0.121711 0.033387 0.001377 0.088230 0.067556 -0.062132 -0.091105 0.126911 -0.076893 0.005077 0.088722 0.041283 0.077904 -0.062744 0.284318 -0.065484 0.057822 0.110398 0.085829 -0.038812 0.056920 -0.116474 0.017361 -0.085913 0.050725 -0.053425 0.029954 -0.034895 -0.113144 0.141796 0.078658 -0.250993 -0.072916 0.043071 -0.074292 -0.066968 -0.119842 0.000900 0.272874 0.112818 -0.041249 0.099410 -0.032820 0.038718 0.096790 0.037845 -0.076928 -0.306886 0.070576 0.341940 0.050663 0.047078 0.086355 0.041177 -0.137629 -0.031289 -0.325607 0.048365 -0.003254 0.151092 -0.055652 -0.051686 0.115764 -0.198392 -0.000240 -0.134305 -0.005606 -0.069193 -0.046196 -0.033405 0.087150 0.158955 0.027455 0.169911 -0.220077 0.019805 0.167774 -0.118599 0.201503 -0.175296 -0.181987 0.052778 0.086694 -0.107490 0.088687 -0.030448 0.014880 0.030179 0.134398 -0.076732 -0.013061 0.131499 -0.179515 -0.084527 0.120689 0.039278 0.036045 0.039673 0.038940 -0.075593 -0.027332 0.232086 0.097675 0.009089 -0.086539 0.113081 -0.123680 0.148776 0.102038 0.019979 0.175426 0.062091 -0.048199 -0.098598 0.113737 -0.045101 0.021065 0.126317 -0.023334 -0.088882 -0.057833 -0.011720 0.022070 0.025814 -0.109467 -0.113093 0.103740 0.133574 0.286928 -0.138278 -0.053017 0.112464 -0.035794 -0.089554 -0.505191 -0.040149 -0.019705 -0.154581 -0.107865 0.007781 0.029548 -0.167497 -0.169405 0.006731 0.025742 -0.173289 -0.049267 0.071007 -0.057660 -0.079630 0.012843 0.022507 -0.007653 0.120523 0.026710 -0.064263 0.079287 0.081027 0.040071 -0.483152 0.014205 0.060382 -0.017022 -0.054443 0.003832 -0.078333 -0.071446 0.090058 0.005462 -0.189603 -0.026390 -0.043128 0.087381 -0.205955 -0.223563 -0.080585 0.023627 0.086961 -0.123738 -0.128984 0.225456 0.132677 -0.104278 0.005481 0.201060 -0.165603 0.044311 0.040380 -0.004373 0.078645 -0.068772 0.009265 -0.159857 0.016682 -0.439153 -0.133989 0.026878 -0.085989 0.014028 -0.101954 -0.023959 -0.138825 0.022886 0.053331 -0.130686 -0.070467 -0.034737 -0.041661 -0.003900 -0.005709 0.091248 0.023803 0.158358
( -0.131848 0.123092 0.050589 0.098452 0.106729 -0.258943 0.273353 -0.073746 -0.158639 0.043337 -0.073437 -0.045960 0.160953 -0.103028 -0.072825 -0.123111 -0.088176 -0.068308 0.097329 -0.047909 0.066275 -0.107109 -0.172941 -0.136080 0.066762 0.083624 -0.052323 0.020920 -0.062732 -0.009022 0.005449 0.133265 -0.251130 0.228027 -0.167721 -0.096651 0.143491 -0.089087 0.054609 -0.337124 -0.177310 0.195175 0.104386 -0.099725 0.101207 -0.084285 -0.076899 0.093679 0.042221 -0.110984 -0.090783 0.239916 -0.282600 -0.177896 -0.029664 -0.109126 -0.055602 0.301317 0.023866 0.032793 -0.206148 0.308561 0.027006 -0.213848 0.166131 -0.059492 0.091637 -0.121135 -0.032452 0.237621 -0.007399 0.056853 0.167307 -0.383283 -0.012781 0.300619 -0.139145 0.260327 -0.449390 -0.033124 0.205628 0.026419 -0.055462 0.069180 0.140160 -0.006463 -0.052357 -0.120079 0.064309 0.011612 0.075490 0.055141 -0.029462 -0.083736 0.125871 -0.069582 0.090890 0.052897 0.058291 0.072865 -0.042046 0.264109 -0.107237 0.023122 0.112072 0.100700 -0.004147 0.053723 -0.102766 -0.006672 -0.141491 -0.114300 -0.053783 0.023003 0.147322 -0.013900 0.036500 0.074472 -0.171725 -0.076842 0.047901 -0.046842 -0.004060 -0.126649 0.007899 0.256256 0.098237 -0.061486 0.241049 -0.032787 0.051106 0.107860 0.024884 -0.087408 -0.273659 0.080892 0.394371 0.039445 0.054813 0.125386 0.088220 -0.133215 -0.057349 -0.306510 0.058396 0.012489 0.103702 -0.029019 -0.059269 0.038054 -0.178080 -0.014659 -0.127926 0.012262 -0.071788 -0.043815 -0.010859 0.063639 0.164844 0.027848 0.136534 -0.199098 -0.003627 0.157822 -0.146190 0.181994 -0.151989 -0.142899 0.057369 0.068024 -0.095697 0.109012 -0.024486 0.020050 0.027193 0.139510 -0.102156 0.016177 0.123883 -0.174280 -0.141093 0.112881 0.038218 0.003230 0.033337 0.012272 -0.100128 -0.132199 0.200214 0.115518 0.026023 -0.086718 0.090568 -0.130941 0.161706 0.096395 0.074117 0.152326 0.059752 -0.054551 -0.129795 0.137366 -0.068592 0.002227 0.142769 -0.038254 -0.091268 -0.036215 -0.032805 0.002382 0.042548 -0.007913 -0.107657 0.094487 0.132240 0.294933 -0.138052 -0.012504 0.099434 0.019977 -0.083889 -0.398243 -0.056676 0.031986 -0.115243 -0.109300 0.019578 0.059208 -0.211366 -0.222635 0.038298 0.019401 -0.115834 -0.034618 0.075963 0.026871 -0.075472 0.012320 0.000972 -0.018353 0.132470 -0.045569 -0.053024 0.104373 0.161262 0.022282 -0.181833 0.030073 0.047780 0.004150 -0.012855 0.012979 -0.086303 -0.056554 0.127310 -0.001573 -0.176779 -0.011851 -0.031766 0.118485 -0.195726 -0.194109 -0.095703 0.001005 0.105503 -0.137637 -0.127604 0.283573 0.125051 -0.106578 -0.010591 0.162383 -0.143138 0.094033 0.050412 0.004107 0.077361 -0.012637 0.041778 -0.167960 -0.035525 -0.304166 -0.132532 0.030738 -0.043993 -0.010276 -0.095584 -0.014499 -0.129528 0.020383 0.018162 -0.112905 -0.050627 0.186140 -0.067130 -0.024034 0.003416 0.047061 0.094426 0.173780
you -0.009693 -0.041487 0.387765 0.165551 0.058352 -0.071324 -0.078145 0.103252 0.008837 -0.041130 0.080408 -0.003588 -0.001295 -0.146595 0.011607 -0.120231 -0.027822 -0.120363 -0.040330 0.026492 0.223441 0.011708 -0.195533 0.084482 0.162980 -0.186860 0.192014 0.060585 0.024687 0.067696 -0.091879 0.014435 0.170373 0.093815 -0.010733 -0.249564 0.142649 0.077822 0.015476 -0.045505 0.008421 0.518894 0.052010 0.291022 -0.088494 0.194561 -0.032572 0.062164 -0.048251 0.398475 0.127592 -0.351125 0.352177 0.099955 -0.036976 0.066970 0.004058 -0.054180 -0.056133 0.060471 -0.057552 -0.224523 0.046228 -0.098566 0.086047 0.155871 -0.031225 -0.115578 0.045845 -0.175176 -0.108231 0.019436 0.082774 0.125267 0.112129 -0.179728 -0.349631 -0.048372 0.058737 -0.038915 0.110590 0.037227 -0.004096 -0.122573 -0.062628 -0.025550 0.047025 -0.005739 -0.030543 -0.047178 0.126219 -0.017269 0.093444 -0.051172 0.105088 -0.114413 -0.191025 0.017056 0.020786 0.096583 -0.070508 -0.136777 -0.031469 -0.037634 0.061716 -0.302218 -0.033276 -0.183680 0.043840 0.019031 0.088390 -0.341945 0.063172 0.116631 0.101635 -0.130793 0.141238 -0.114452 0.099189 -0.060384 0.103016 -0.133855 -0.306383 0.177907 -0.174409 0.092673 0.002768 -0.095257 -0.575669 0.018515 -0.106177 -0.025161 0.180849 0.053929 0.202943 0.106130 -0.180501 0.135680 0.123031 -0.514494 -0.224690 0.217246 0.053401 0.085281 -0.033358 0.030769 0.020543 0.187146 0.064607 0.020548 -0.069951 0.000508 0.102724 -0.128565 -0.038667 0.144373 -0.149963 -0.111947 0.114216 -0.061522 0.060818 -0.000659 0.055793 -0.064940 0.153128 -0.175056 -0.047614 -0.191583 0.085059 -0.231054 0.040234 0.153460 -0.064878 -0.104528 -0.041518 -0.041246 0.023285 -0.104756 0.048224 0.076331 0.176336 -0.196038 -0.128417 -0.025921 0.093810 -0.096570 0.058403 -0.179168 -0.189889 -0.164696 0.190350 -0.078085 -0.078138 -0.118504 0.056290 0.034852 0.058618 0.001593 -0.086747 -0.254089 -0.009227 -0.055645 0.100437 -0.046623 0.018166 -0.048013 0.010067 -0.075952 -0.069087 -0.116720 0.026780 -0.065047 0.027626 0.095765 0.079089 -0.156530 -0.176326 0.159651 0.098939 -0.088078 -0.125651 -0.079822 0.044409 -0.213266 -0.081179 -0.150821 -0.052429 0.041018 0.051292 -0.004879 0.033151 0.030828 -0.109013 0.087132 -0.029500 0.272434 -0.059605 -0.167237 0.075793 0.032967 0.133854 0.074876 -0.151546 -0.001610 0.017511 -0.109487 0.001750 0.033100 0.039243 0.069353 -0.089361 -0.010001 0.081209 -0.047652 -0.165262 -0.095488 0.150808 0.089027 0.030933 0.082966 -0.051136 0.060337 0.064199 -0.136960 0.046988 0.010315 -0.041967 -0.197282 0.074775 0.007250 0.171959 0.001863 -0.185080 0.147037 0.020946 -0.181290 0.054750 -0.047746 0.011626 0.286872 -0.017679 -0.168330 -0.023227 0.035341 -0.073127 0.010020 -0.010032 -0.054685 0.066441 0.082862 -0.060447 0.072383 0.187417 0.047678 -0.020689 -0.159648 0.089593 -0.072639 -0.007049 0.057217
was 0.216341 0.010478 0.025661 0.034707 0.000469 0.132430 0.032163 -0.168281 0.032159 0.013825 -0.182436 0.039260 -0.061956 -0.078773 -0.154742 -0.017954 0.036589 -0.164645 0.109314 0.055937 0.102631 0.090710 0.047004 0.118299 -0.152868 0.019057 -0.026005 0.079377 0.070016 -0.015798 0.225753 0.076098 -0.100702 0.036289 0.017127 -0.063772 -0.071908 0.123716 0.074438 -0.094592 0.021443 -0.280629 -0.009109 -0.009181 -0.067014 -0.022370 0.129896 -0.078149 -0.024080 -0.438751 -0.061768 -0.302227 0.575156 -0.095512 0.235139 -0.052387 0.002413 -0.200253 0.074465 -0.096521 0.090939 0.370397 -0.127447 0.120397 -0.084591 -0.099013 -0.076235 -0.037123 0.050649 0.081005 0.067381 -0.161308 -0.019107 0.048180 -0.143321 0.061402 0.363652 0.087397 0.121776 -0.073983 0.266177 0.041509 0.026745 -0.103310 0.022711 -0.016195 -0.124166 -0.217834 0.079379 0.049756 -0.143214 -0.277477 0.006785 0.073946 0.041520 0.083697 -0.323059 -0.031219 0.024496 0.024024 0.025804 0.022627 -0.041077 0.183836 -0.033408 0.434608 0.011840 0.108409 -0.011384 0.129471 -0.098226 0.098670 -0.081951 -0.031039 0.084005 -0.231983 -0.063099 0.078112 -0.163543 0.053096 0.045435 -0.023105 -0.180160 -0.159814 0.302511 -0.215812 0.027737 0.131977 -0.117154 0.194796 0.092769 0.177108 0.073921 -0.126349 -0.391976 0.018803 0.030488 0.111733 -0.484937 0.586928 0.042987 0.092032 -0.072987 -0.142180 -0.191344 0.002613 -0.101820 0.057349 0.009073 0.166641 0.066685 -0.047173 -0.122691 0.148874 -0.124631 -0.137780 -0.003199 0.080273 -0.195995 -0.004045 0.395531 -0.158630 -0.096757 0.080807 -0.333096 -0.014848 -0.098743 -0.027063 -0.090052 0.043110 0.006731 -0.081574 -0.015842 0.046764 0.071161 0.060802 0.155359 0.285609 0.051455 0.141453 0.528884 -0.038609 0.047806 0.227650 -0.021927 0.146301 0.192179 -0.297644 0.036474 0.097580 -0.096855 -0.092070 0.177045 -0.013682 -0.096469 -0.011845 0.232109 -0.009608 0.025718 0.196093 0.052098 0.219536 -0.140387 0.172879 -0.027274 -0.017459 -0.035784 0.017014 -0.096785 0.208834 -0.014231 0.183659 -0.127093 0.048621 -0.127512 -0.119358 -0.078935 -0.047095 -0.116790 -0.007383 0.028576 -0.047079 0.049451 0.071401 -0.065187 -0.101389 0.037155 0.013199 -0.029102 0.023679 0.003360 -0.088364 -0.287262 -0.031859 0.005761 0.019896 0.060559 -0.032361 -0.031809 0.046875 -0.078289 0.082777 0.004275 0.093609 -0.383312 -0.043132 0.049982 -0.051543 0.013194 -0.020071 -0.015307 0.037657 0.064638 -0.082233 0.155696 0.067020 0.018801 -0.083681 -0.046990 0.090217 0.053297 0.002882 -0.007342 -0.022324 0.239036 0.067955 0.143081 0.139537 -0.153005 0.001405 0.052868 -0.150264 0.002151 0.030319 0.011989 -0.047225 -0.071531 -0.207312 0.096450 -0.125168 0.137164 0.238989 -0.036490 0.009681 0.177119 0.043226 -0.027362 0.039776 -0.046777 0.000672 0.063252 0.152682 -0.054487 0.171679 0.006309 -0.288271 -0.075394 -0.125842 0.086865 0.013294
are -0.038382 0.137763 0.089585 0.319174 0.027056 -0.059991 -0.122592 -0.480353 0.709681 -0.023405 -0.084654 -0.058186 -0.123285 -0.042306 0.046213 -0.005753 0.306397 0.084242 0.127305 -0.003718 -0.199951 -0.042865 0.026212 -0.069002 0.056339 -0.062859 -0.149385 0.031558 -0.033924 -0.176136 -0.083971 0.037071 0.002920 0.010082 0.040405 0.013427 0.112746 -0.094267 0.079125 0.058709 -0.064317 0.127345 -0.175454 -0.021674 0.039219 0.053408 -0.069564 0.001233 0.032831 -0.295696 -0.024808 -0.612396 0.537488 0.089778 -0.174678 0.044746 -0.027967 0.509466 -0.180765 0.113934 -0.105214 0.138796 0.068016 0.117105 -0.015795 0.265978 -0.056650 -0.039690 0.001921 -0.036044 0.217376 0.029201 -0.044645 0.068366 0.052989 -0.344040 0.867259 -0.022368 0.232371 0.055506 0.193166 0.076063 0.038047 -0.074456 0.122625 0.018383 0.028575 0.084663 -0.161959 0.025219 0.075411 -0.359326 0.057506 -0.040565 0.168808 -0.115356 -0.385296 0.056128 -0.050349 0.134504 -0.018859 0.029965 -0.102182 -0.002657 0.007964 -0.229991 0.091789 -0.030832 -0.047910 0.013958 -0.023493 -0.154474 -0.027449 -0.008590 -0.444663 -0.067612 -0.037615 -0.081253 0.033586 -0.136507 0.069576 -0.048370 0.254302 0.036961 -0.160688 0.108719 0.056731 -0.191491 0.043130 -0.157369 -0.047909 -0.017984 0.058214 0.001837 -0.608685 -0.127560 -0.174716 -0.063516 0.247503 0.484478 -0.112670 -0.046196 -0.007241 -0.010972 0.079324 -0.097453 0.035271 0.089909 -0.051809 -0.085177 -0.195092 0.044847 0.067970 -0.041436 0.019318 0.074911 0.179561 0.053221 0.083751 -0.099922 0.369120 0.081760 -0.024568 -0.165224 0.198537 -0.022106 -0.094125 -0.067218 0.071776 -0.237290 0.024744 0.075853 -0.108927 -0.163855 0.239114 0.021930 -0.164741 -0.182756 -0.024796 -0.044229 0.429130 -0.002797 -0.160938 -0.067560 0.167897 -0.041337 -0.082100 -0.246152 -0.296617 -0.085561 0.143848 -0.011018 -0.092070 -0.046212 0.006659 0.038756 -0.049473 0.061031 0.089227 -0.047310 0.130191 -0.043566 -0.054506 -0.049478 -0.049548 0.061655 -0.057396 0.006757 -0.057353 -0.322635 -0.010686 0.311632 0.085942 -0.048134 0.078567 0.043180 0.032668 0.063997 0.088331 0.026824 -0.146151 0.057184 0.007796 -0.089005 -0.133804 0.000174 0.013528 0.065304 -0.145115 -0.060256 -0.061357 0.063259 -0.073930 0.047401 0.001639 0.306349 0.103316 0.027662 -0.066943 -0.002910 0.010336 -0.028435 -0.182643 -0.219098 0.234325 0.028682 0.190646 0.053840 -0.042212 -0.014502 -0.062105 -0.222838 -0.001754 -0.035515 -0.199943 -0.154461 0.056993 0.042132 -0.052032 0.001383 -0.108011 0.019622 -0.025499 0.053758 -0.044389 0.202026 -0.031195 0.102400 -0.175739 -0.021415 0.121470 0.473457 0.138100 -0.055624 -0.042198 -0.054870 -0.198192 0.014047 -0.046863 0.168042 -0.138525 0.285067 -0.257754 0.017009 -0.019495 0.196804 -0.021668 -0.010372 -0.086442 -0.187672 -0.064982 0.005382 0.127872 0.275539 -0.011241 -0.250962 -0.001089 -0.187826 0.175268 0.056022
this -0.107001 -0.079985 0.130705 0.026683 0.054468 0.051310 0.169046 0.333370 -0.176276 -0.066378 -0.101666 -0.110374 -0.105733 -0.044137 0.092003 0.156654 0.026840 0.038624 -0.022474 0.006850 -0.022114 -0.023433 0.071933 -0.038637 -0.052789 -0.079062 -0.007216 -0.009886 0.097830 -0.122363 0.113402 0.023586 0.038679 -0.191065 0.022183 -0.083291 -0.071617 -0.062042 0.174967 0.014883 0.053660 -0.021063 0.071434 -0.138779 -0.080004 -0.002201 0.011336 0.114550 0.052933 0.016134 0.006104 0.012023 0.299632 0.023324 -0.106654 -0.144358 0.004779 -0.318385 -0.023328 0.007662 0.088801 0.081260 0.093721 0.314964 -0.068771 0.114217 0.095921 -0.068810 0.014980 -0.023455 -0.314436 0.018019 0.119629 0.101787 0.022586 0.156189 -0.233716 -0.091782 0.114430 0.081465 0.059485 0.003743 0.026266 0.068506 -0.043811 0.074278 -0.015337 0.067235 0.061891 -0.116240 -0.030708 0.112390 0.015909 0.013460 0.014550 0.096447 0.145586 0.034432 -0.096408 0.043440 0.042951 -0.003415 0.113635 -0.056312 -0.012344 0.013464 0.071496 -0.048016 0.088054 -0.150309 -0.203213 -0.142851 0.045675 -0.010562 -0.285286 -0.065017 -0.253131 0.031431 0.103753 -0.028520 -0.282072 0.007186 -0.417441 -0.047101 -0.056436 -0.011234 0.032533 0.011038 -0.146366 0.019180 -0.041854 0.145847 0.170581 0.044138 0.139988 -0.032327 -0.050171 -0.064779 0.057149 -0.095593 0.053289 0.166082 -0.041825 0.249502 0.092103 0.014075 -0.124116 -0.026736 0.021833 0.045602 -0.035289 0.079516 0.069823 -0.023631 -0.031407 -0.090258 0.038631 -0.054385 0.008840 0.000689 -0.173086 -0.112585 0.022860 -0.086352 -0.013662 -0.023639 -0.098350 -0.100304 0.005535 0.017529 -0.095578 -0.080202 -0.046169 -0.010773 -0.041946 -0.048039 -0.097133 0.022557 0.082012 -0.020619 0.087594 0.037297 -0.037212 0.069894 0.050401 -0.053115 0.147220 0.014107 -0.017118 0.002758 -0.024057 0.018872 0.037763 -0.016581 -0.027898 -0.106188 0.058809 -0.021597 -0.003472 -0.048598 0.174555 -0.032416 -0.067355 -0.055716 -0.040498 -0.024419 -0.040371 0.159320 -0.036898 0.204221 -0.030576 -0.095186 0.080533 0.064815 -0.054224 -0.043055 0.005542 0.008008 0.022536 0.025843 -0.039218 -0.148187 0.001744 0.008594 -0.022851 -0.007665 0.039662 0.031984 0.056203 -0.000413 -0.127074 0.098196 -0.147625 0.037687 0.001745 0.315612 0.047473 -0.019135 0.088169 -0.069141 -0.069358 0.038313 -0.072433 -0.121187 -0.287927 0.081597 0.142697 0.048239 -0.037252 -0.148485 0.063332 0.069619 0.104280 -0.020142 0.377687 -0.064358 0.010024 0.086076 0.103422 0.084214 -0.018131 0.048348 -0.037218 -0.048738 0.047851 0.074624 0.111202 -0.140984 -0.021896 0.019256 0.008416 -0.175033 0.077410 0.160042 -0.043050 -0.098505 -0.022405 0.024289 0.175439 0.026960 -0.088322 -0.086486 -0.031755 -0.005753 -0.186797 -0.137320 -0.112755 -0.030372 0.102316 -0.036936 -0.030016 0.031971 0.052135 -0.505769 -0.112341 0.191094 0.059576 0.017265 0.184546 0.071287
have -0.038668 -0.011545 0.114496 0.064596 0.124278 0.031631 -0.108014 0.058789 -0.161683 0.072980 -0.058343 0.012255 -0.027728 -0.050518 0.151260 -0.014739 -0.249623 0.098896 -0.016730 0.077607 -0.117841 -0.041332 -0.066258 0.054620 -0.004556 -0.080497 -0.029934 -0.028174 -0.020922 0.044426 -0.054572 -0.064954 0.264828 -0.077540 0.021240 -0.050483 0.025854 0.024599 -0.002132 -0.040691 0.001398 0.389804 0.007215 0.050306 0.034432 0.102413 -0.042317 0.081516 0.069158 0.440603 -0.070686 -0.073248 0.216497 -0.014748 -0.108739 0.029958 -0.026849 -0.155142 -0.052412 0.109922 -0.306851 -0.318733 -0.017746 0.156801 -0.019660 0.114502 0.014524 0.022577 0.051500 0.034093 0.503437 0.111271 -0.124685 0.134213 0.046189 -0.142568 0.406427 -0.142058 0.280545 0.062769 0.082361 0.028848 0.109811 -0.033221 0.055112 -0.011310 0.017669 0.047870 -0.050257 -0.099698 0.033099 -0.031834 -0.006026 -0.106642 0.065734 -0.007538 -0.398492 0.289561 -0.197763 -0.052711 0.052001 0.017464 0.111570 -0.004852 -0.217986 -0.108265 -0.006243 0.022191 -0.027795 0.114104 -0.075982 0.199360 0.018674 0.047761 -0.324004 0.252654 0.103132 0.000706 -0.041270 -0.026481 -0.043449 0.021121 0.463485 0.034792 -0.078114 0.051591 0.072435 -0.069171 0.111287 -0.087227 -0.102987 0.009601 -0.003433 -0.123598 0.235407 -0.020861 -0.038668 0.010161 0.158776 0.055343 -0.057314 0.051705 -0.055687 0.158988 -0.006303 -0.115982 0.006838 0.081107 -0.059898 0.155042 -0.101126 0.073742 0.072409 -0.068184 0.019780 -0.016586 0.049188 0.038454 0.044290 -0.028254 0.175673 0.116975 -0.006258 -0.197021 0.011787 -0.000726 -0.034769 -0.060988 0.026448 -0.048378 0.009073 0.028400 0.019027 0.004747 -0.051240 -0.024239 0.040226 -0.067216 -0.099283 -0.017050 0.142434 -0.018117 -0.026020 -0.059394 0.046845 -0.113760 -0.113406 0.406770 -0.101874 -0.050620 0.035968 0.044864 0.117488 -0.061044 0.032380 0.045042 -0.145420 -0.019670 0.052457 0.036979 -0.056435 -0.028234 0.004753 -0.089874 -0.001590 0.068750 -0.046906 -0.035568 -0.025751 -0.034042 -0.012627 0.030754 0.024283 0.048443 0.051629 -0.068060 0.022021 0.050205 0.056964 0.040014 -0.014425 0.075341 0.016486 -0.055889 -0.173355 0.043729 -0.010702 0.046188 0.124751 0.013573 -0.036915 0.073299 -0.068364 -0.057307 -0.083861 0.365002 0.042566 -0.017977 -0.077092 -0.031154 0.045356 0.088825 -0.104140 -0.080125 0.051149 0.011974 -0.067537 0.090149 0.008854 0.050391 0.027703 0.005818 -0.066341 -0.046993 -0.421424 0.056708 -0.027718 0.077505 -0.064810 0.006666 -0.048238 -0.001550 -0.005572 -0.040550 -0.006067 0.096062 0.013978 0.131630 -0.003917 -0.050843 -0.104707 0.302101 0.088718 -0.089928 0.040871 -0.003780 0.130023 0.068596 -0.055688 0.100047 -0.041706 -0.632781 0.092876 -0.039563 -0.046765 -0.041586 -0.046727 -0.002795 0.033031 0.094525 -0.159443 0.057087 0.103963 -0.023497 -0.065089 -0.075085 -0.018563 -0.203723 0.081195 0.006300
! -0.046217 -0.234709 0.067806 0.176070 -0.095511 0.095550 0.160320 0.014022 0.122984 -0.062742 0.078304 0.154256 -0.060620 -0.021748 -0.026152 -0.020136 0.029201 -0.100170 0.079774 -0.008319 0.052997 -0.028824 0.032312 -0.059395 0.104031 -0.009088 0.004593 -0.179602 -0.088714 0.240104 -0.035980 0.058394 0.013065 -0.018122 0.006154 -0.008792 0.009359 0.035970 -0.167373 0.216023 -0.093613 -0.077093 0.113005 -0.229767 -0.036470 0.140283 0.053335 0.125596 -0.017913 -0.237179 -0.206899 0.258728 0.007848 0.188636 0.129636 -0.151722 0.144634 0.333452 -0.101304 -0.069054 -0.083941 0.294333 -0.106840 0.227008 -0.011379 -0.110977 0.160271 -0.090861 -0.096675 -0.025145 -0.347740 0.049194 0.035927 0.156872 0.001327 0.143965 -0.319866 -0.013899 -0.224801 0.043305 0.012365 -0.024448 0.106062 0.014706 0.056875 -0.017996 -0.087611 -0.103712 0.071158 -0.119641 0.009461 0.067782 -0.000101 -0.176733 0.095289 -0.080473 0.015906 0.111706 -0.246892 0.015199 0.003612 0.177179 0.120273 -0.128947 0.106866 -0.119588 0.073851 -0.128468 -0.189715 -0.066869 -0.070334 -0.306730 0.136020 -0.141829 -0.261575 -0.127480 0.130436 -0.026816 -0.127329 -0.150627 0.027713 0.039720 -0.225579 0.083776 -0.101639 0.023706 0.013661 -0.014402 0.051551 0.089231 -0.156645 0.174898 0.038334 0.011929 -0.169839 -0.051464 0.143124 -0.019749 0.109289 0.262006 -0.156941 0.205092 -0.155071 -0.193404 -0.060269 0.192744 0.265774 0.112064 0.104661 -0.040216 -0.246579 0.143074 -0.022288 -0.050324 -0.086022 -0.018668 -0.098690 -0.038171 -0.052232 0.058395 0.176988 -0.054423 0.070652 -0.132201 0.009602 -0.113424 0.141889 -0.098513 -0.082646 -0.058353 0.018190 -0.039438 0.082410 0.019526 0.000351 0.062933 0.016919 -0.016187 0.052661 -0.106249 -0.094192 0.079915 0.012096 0.102983 0.105854 0.025153 0.087781 0.060058 0.002604 0.009615 0.045344 0.020335 0.165875 -0.166267 0.004607 0.084158 -0.037516 0.177013 0.022885 -0.063741 -0.031891 -0.025048 0.059230 -0.000192 0.051025 0.010340 0.060129 -0.183919 -0.025997 0.058056 0.065072 -0.116675 -0.180336 0.133563 -0.200553 -0.160669 -0.097466 -0.081724 -0.057976 -0.047504 -0.130799 -0.252946 -0.077560 -0.226479 -0.006699 -0.102289 0.104374 -0.098705 0.178562 -0.077064 -0.066447 0.174045 -0.069312 -0.108581 0.123502 0.179635 -0.173214 0.166007 0.215922 0.100452 -0.103702 0.161985 0.182015 -0.184418 0.168936 0.075147 -0.440240 0.013441 -0.035722 0.177764 -0.005490 -0.041442 0.012367 0.052769 -0.199556 0.049789 0.058010 0.012061 -0.121220 0.059768 0.084538 -0.007957 0.067552 -0.073374 -0.083165 0.139090 0.056250 -0.325839 -0.194510 0.139914 0.007822 -0.070520 -0.279424 0.176448 -0.110933 0.034779 0.077899 0.034494 -0.105558 0.162201 0.120559 -0.434223 -0.264439 -0.036832 -0.202512 -0.116873 -0.001628 0.026749 -0.168238 -0.076678 -0.084592 -0.002580 -0.077502 -0.403961 -0.067578 0.140068 -0.046479 -0.013404 -0.108455 -0.066597
but -0.034899 -0.058829 -0.032183 -0.027911 -0.053040 0.024905 -0.043814 0.070491 -0.282708 0.018109 -0.031244 0.005776 0.369511 -0.024770 -0.017356 0.001688 0.042845 -0.030167 -0.017871 0.103423 -0.061488 -0.004731 -0.029586 -0.036252 -0.029652 0.052755 0.006235 0.034329 -0.011758 -0.097824 -0.036104 0.114317 -0.108847 -0.260789 0.054271 -0.048305 0.047067 0.014935 -0.021787 0.075470 0.052003 0.349989 0.028703 -0.132408 0.189470 -0.097359 -0.108744 0.053865 -0.010032 -0.127679 0.020312 -0.130417 -0.311429 0.006473 -0.031918 0.010492 0.079562 0.037806 0.174407 0.053295 -0.149992 0.025023 0.006912 -0.078263 -0.052434 0.036693 -0.069766 0.079598 -0.064132 0.200007 0.029468 0.023387 -0.151297 0.189219 -0.108543 -0.059350 0.114113 -0.060886 -0.144942 -0.208068 0.423449 0.069401 0.035069 0.011108 0.045954 0.095190 -0.019269 -0.048971 0.079266 0.017222 0.025250 0.370955 0.074460 0.027741 0.027493 -0.050497 0.172049 -0.045042 -0.123654 -0.105779 0.030297 0.068602 0.031281 -0.013312 0.041241 0.030891 -0.039407 0.064092 0.000594 0.024953 0.073206 -0.252308 -0.113190 0.011397 0.229182 0.098373 0.182522 0.065166 -0.054368 -0.001529 -0.304422 0.027345 0.035460 -0.024543 -0.036497 0.046173 0.022963 -0.019279 0.120100 0.041236 -0.109583 0.018446 -0.053716 -0.028595 0.016508 0.013630 0.014656 -0.016643 0.007938 -0.341516 0.016081 -0.007329 0.010401 0.244455 0.009438 0.054488 0.007956 0.037619 -0.036058 -0.040022 -0.024186 0.071028 -0.044345 -0.067270 -0.041137 -0.069188 0.105968 0.045189 0.011228 -0.016629 0.154666 -0.005221 -0.096037 -0.049010 -0.123458 -0.041543 -0.098573 -0.042824 -0.091353 -0.103141 -0.012556 0.014679 -0.051641 0.059729 -0.048319 0.093036 0.007346 0.082369 0.017992 -0.069298 0.170804 -0.065446 0.011855 -0.090397 0.030364 -0.023819 0.029480 -0.263490 0.071283 -0.060299 0.010119 -0.058490 0.112883 -0.063174 0.033420 0.094972 0.019380 -0.077256 0.065361 0.000185 -0.225044 -0.003385 -0.068992 0.002213 0.006608 0.014192 -0.036595 0.013956 0.053426 0.150130 -0.006666 -0.091199 -0.035725 -0.045861 -0.025426 -0.020932 -0.043812 -0.075363 0.015334 0.099739 -0.227946 0.044017 0.054381 0.015564 -0.179904 0.053920 -0.004204 -0.008566 -0.021006 0.018221 0.052207 -0.054625 0.088572 -0.008878 -0.086857 0.103163 0.041117 0.051897 -0.121966 -0.073122 -0.013289 -0.047914 -0.099264 0.045095 -0.125343 0.064773 -0.208727 0.091232 -0.086522 -0.050243 0.084934 -0.014152 -0.028669 -0.012955 0.236000 0.057162 -0.128307 -0.043341 0.060319 -0.010265 -0.036002 -0.035855 -0.197768 0.020525 0.035597 0.064353 0.081805 0.177543 -0.096183 -0.027294 0.009541 -0.032127 0.108410 -0.019633 -0.014471 -0.058839 0.155778 -0.013529 0.160516 -0.074201 0.031822 -0.011782 -0.034964 0.009397 -0.058585 -0.126297 -0.013134 -0.110069 -0.040177 -0.075540 0.047723 -0.041700 0.020063 0.231436 0.106495 0.213124 -0.049280 -0.110581 -0.041126 -0.003753
by -0.018770 -0.084081 -0.043573 0.152672 -0.100154 -0.049580 0.171322 -0.500070 -0.644668 0.005708 -0.124156 0.007495 0.066778 -0.068785 -0.037435 0.083227 -0.492021 0.014505 0.116064 -0.054916 0.028761 -0.120351 0.016653 -0.002294 -0.145649 -0.021603 -0.075582 0.041301 0.001471 0.196419 0.044636 0.008030 0.311915 0.546756 -0.056673 0.013295 -0.142284 0.027669 0.030053 -0.438955 -0.036900 -0.141531 -0.050480 -0.105659 -0.180459 -0.088233 -0.045005 -0.026397 -0.083910 0.015476 0.095598 -0.259640 -0.586355 -0.072678 0.048498 -0.012201 0.060584 0.206403 0.113306 -0.045940 0.162329 -0.292786 0.042342 -0.050807 -0.031201 -0.068235 0.150766 -0.084458 -0.043992 0.120964 -0.387202 0.026125 0.029031 -0.547161 -0.094948 0.257653 0.349769 -0.142274 -0.228074 -0.028137 0.624897 0.023040 -0.035864 -0.071390 0.176626 -0.052700 0.018890 0.009835 -0.015833 -0.011145 0.079274 0.317201 -0.050462 0.063831 0.011775 0.239996 0.044602 0.049607 -0.336966 0.062006 0.001150 -0.080606 0.187007 0.233474 0.146669 -0.017997 0.098818 0.038525 0.128870 0.024538 -0.240275 -0.118128 -0.080806 0.031312 -0.259247 -0.175304 -0.243368 0.014584 0.033137 0.038969 0.088272 0.026789 -0.158073 0.002008 -0.073369 -0.054809 -0.021466 0.161017 -0.018510 -0.140965 0.066097 -0.003280 0.122948 0.062309 -0.145761 0.018729 0.114231 -0.096464 0.038050 0.239449 -0.061983 0.058691 -0.060822 0.064909 0.003894 0.040914 -0.070345 -0.060870 -0.056540 0.046356 -0.085021 -0.017100 -0.009447 0.115672 -0.080422 0.109174 0.065028 -0.086447 -0.018411 -0.044856 0.208355 -0.029494 -0.154767 -0.060952 -0.049655 0.013222 -0.101721 -0.089210 0.029638 0.031353 -0.087551 -0.025101 -0.035816 0.071074 0.350753 -0.045946 0.042787 -0.082971 0.202520 -0.084550 -0.038316 0.043654 -0.065879 0.031003 0.115038 -0.020581 0.024214 0.073813 -0.031187 0.043018 0.070677 -0.044223 -0.111850 -0.007105 -0.234114 -0.096362 0.253804 0.045034 0.040727 -0.168551 0.008096 0.008461 0.007584 0.163136 -0.025095 -0.062737 -0.103003 0.149693 -0.115903 -0.084843 0.005038 -0.088952 -0.065547 -0.064268 -0.016532 0.112638 -0.005128 0.056816 0.075439 -0.013933 -0.158312 -0.045182 -0.102350 0.035270 0.146503 -0.067118 -0.125415 0.120966 -0.057954 -0.017676 0.006904 0.008811 -0.241627 0.045005 0.003378 -0.071958 0.013467 -0.003681 -0.089628 0.083156 -0.104666 0.095883 0.001879 -0.073424 0.113580 -0.050454 0.049225 -0.001847 0.034528 -0.019374 -0.052215 0.166354 0.053741 -0.069297 -0.494169 -0.099002 -0.116158 0.004324 0.046668 -0.051299 0.130828 0.054797 -0.011173 0.007182 -0.045923 0.167106 -0.019025 0.066972 0.049686 0.044826 -0.019562 0.427318 0.101686 0.419293 0.040047 0.029206 -0.502098 0.074390 -0.032861 0.039434 -0.020810 0.487149 -0.151978 -0.185049 -0.008122 -0.192371 -0.043547 0.007129 -0.039904 -0.139745 -0.041317 -0.012592 -0.001233 0.342411 -0.023630 0.040732 0.067986 0.344391 0.214666 0.041977
? 0.416279 0.021058 0.263748 -0.039372 -0.132868 0.079834 0.180172 0.022056 0.110795 0.026838 0.005615 0.166588 -0.077714 -0.011081 0.262032 -0.028776 0.107700 -0.017201 0.138317 0.250017 -0.139106 0.112045 0.021027 0.349852 0.048809 -0.002500 -0.103262 0.043485 -0.068318 0.172871 -0.036513 -0.028312 -0.130587 0.077543 -0.234367 -0.023836 -0.159480 -0.104991 0.010834 0.194427 -0.050243 0.009723 -0.033517 -0.329664 0.010158 0.186531 0.082328 -0.060376 0.232296 -0.263442 -0.051247 0.290613 -0.136287 0.222308 0.030689 -0.219275 -0.264369 0.300072 -0.150129 0.002311 -0.181104 0.294033 -0.004486 -0.061585 -0.099410 0.134134 -0.031213 -0.270405 0.210518 0.063305 -0.269024 0.181644 0.016986 0.036462 0.114077 0.150736 -0.295722 0.162125 -0.428567 0.078598 -0.026381 -0.146508 -0.094246 -0.149636 0.047770 -0.066121 -0.452818 0.102447 -0.107719 -0.102114 0.189050 0.111892 -0.080930 -0.210338 0.039747 -0.093684 0.074108 -0.002633 0.039528 -0.017030 -0.053342 -0.113116 0.163481 0.034315 -0.083815 -0.034060 0.000920 -0.102739 0.108296 -0.051816 -0.095784 -0.345759 0.117770 0.098681 -0.217759 -0.078890 0.071026 -0.068789 -0.181824 -0.002127 0.042021 -0.118599 -0.117217 0.149443 -0.632028 0.291923 0.137283 -0.078413 0.105079 -0.222656 -0.208241 0.162335 -0.055042 0.091311 -0.131583 -0.099605 -0.090869 0.116812 -0.310594 0.280465 -0.033058 -0.070148 -0.033969 -0.027123 0.395759 -0.131849 0.115315 0.096845 -0.016946 0.008603 -0.322986 0.225968 0.123695 -0.124221 0.079478 0.081826 -0.243185 0.011709 0.164503 0.009482 0.132306 -0.059707 0.112847 -0.029581 0.180069 -0.090597 0.028166 0.178069 -0.001906 -0.120456 -0.012938 0.379689 -0.088839 -0.051230 -0.098543 -0.020550 0.183023 -0.012483 0.147162 -0.063167 -0.125222 -0.080422 -0.106326 0.096504 -0.043100 -0.012106 0.109349 0.056285 -0.084536 0.087002 -0.134371 -0.007770 0.106239 0.022773 -0.051444 0.020189 0.034473 0.103482 -0.032403 0.092356 -0.055910 -0.269408 0.123958 0.154577 0.166369 -0.168680 0.021258 0.068527 0.008063 0.031902 -0.125647 -0.151270 -0.127096 0.066346 -0.116732 -0.173656 -0.266474 0.144206 -0.180063 0.107135 0.040017 -0.215353 0.109664 -0.046878 0.089832 0.152104 -0.051139 0.063217 0.053305 0.027558 -0.008706 -0.018236 -0.074182 0.013524 -0.062238 0.149842 -0.179791 -0.068253 0.088066 0.183169 -0.028190 0.172092 -0.038360 0.032599 0.196905 0.007736 -0.447700 -0.158710 0.025720 0.093310 0.077280 0.196955 0.044218 0.089598 -0.030372 0.105715 0.111512 0.008750 0.227047 -0.212361 -0.059452 0.131106 -0.100369 -0.112680 -0.062562 0.043720 -0.087138 -0.128281 -0.082224 0.072728 -0.015922 -0.010864 -0.117313 0.224795 -0.009865 0.114192 -0.034103 -0.009332 -0.035956 0.064717 0.077643 -0.442412 -0.032900 -0.167633 -0.038504 0.056582 -0.053859 0.237397 -0.106985 0.208623 -0.065879 0.045748 0.074658 -0.361673 -0.194625 -0.098068 0.101533 -0.096060 -0.030245 0.015709
my -0.207039 0.033343 -0.007201 -0.061600 0.054172 0.080269 0.302477 -0.356345 0.108580 0.146326 -0.007558 0.159360 0.077333 -0.066192 0.286065 -0.202689 0.013251 -0.097101 0.020928 0.118349 -0.046722 0.065554 -0.167086 0.084754 -0.014201 -0.018044 0.179918 -0.041277 -0.075505 -0.023818 -0.081527 0.060430 -0.104507 -0.287031 0.152327 -0.119738 0.139230 -0.016639 -0.056072 -0.250787 0.033521 -0.224861 0.166890 0.357918 -0.044552 -0.060031 0.052534 -0.073134 0.182943 0.022587 -0.060130 0.168434 0.425296 -0.164954 -0.242755 -0.258568 -0.032555 -0.375576 -0.077417 0.017297 -0.033065 -0.245609 -0.002364 0.198588 0.122082 -0.067764 0.091874 -0.194124 -0.070638 0.080670 -0.113368 0.042767 -0.100366 0.069215 0.106301 0.458209 -0.269130 0.099621 -0.019940 -0.092052 0.245986 0.130680 0.097297 -0.042076 -0.038744 0.025292 -0.220021 -0.079260 0.099511 0.082359 -0.176807 0.071585 0.095183 -0.045906 0.023249 -0.093645 0.336960 -0.020195 -0.179705 0.085947 0.131002 0.073412 -0.156925 -0.049631 -0.264380 0.293681 0.112551 -0.118484 -0.094556 0.002781 0.209287 0.147528 0.310796 0.042770 -0.307457 -0.143973 -0.000787 0.025080 -0.242825 0.018839 0.021047 0.044181 0.361261 -0.102467 0.155525 -0.132968 -0.031848 -0.128509 -0.257981 0.192693 -0.107368 0.361207 0.037372 0.122374 0.223199 0.025544 0.007025 0.096586 0.054098 -0.163683 -0.066281 0.163805 -0.046522 0.115401 -0.340721 -0.028183 -0.093453 -0.079958 0.084029 -0.117695 -0.004451 0.013254 -0.178662 0.010111 0.023968 0.023001 0.045301 0.123818 -0.105595 -0.012190 -0.359277 0.047794 0.121373 0.067242 -0.176845 0.117837 0.190445 -0.011401 -0.022851 -0.090290 -0.093832 0.096935 -0.111270 -0.031790 -0.164399 -0.038883 -0.008763 0.316284 -0.044830 0.030486 0.379530 0.067796 0.100861 -0.056777 -0.124308 -0.093889 -0.115011 -0.056466 -0.087537 0.018016 0.101702 0.007045 -0.003882 -0.072672 -0.059196 -0.080204 -0.057942 -0.047976 0.028716 0.030873 0.173823 0.062730 0.049648 -0.024492 -0.020755 -0.009291 -0.148883 -0.074804 0.008287 -0.412691 0.150496 -0.088201 -0.003668 0.227409 0.030430 -0.171303 0.098293 -0.017212 0.096586 0.144537 -0.048471 0.020832 -0.054831 0.115652 0.075428 0.129036 0.218392 -0.063443 0.164318 0.042957 0.048433 -0.031587 0.089828 -0.197792 0.021847 0.488780 -0.201861 -0.005802 0.026364 0.079444 0.037102 0.129895 0.100217 0.071589 0.090975 -0.076544 0.185216 0.112473 0.097970 -0.036614 0.174394 -0.139517 -0.051114 0.106454 0.173276 0.232133 -0.025449 0.044178 -0.127412 -0.068906 0.030001 -0.063365 -0.169486 0.014317 -0.082228 -0.055530 0.152753 0.038398 0.275109 -0.035322 -0.451389 -0.158115 0.169834 0.088806 -0.077139 0.139383 -0.344292 0.099047 -0.175159 -0.058502 -0.031831 0.105040 0.123676 0.188461 -0.003130 0.012670 0.041473 0.005827 -0.011697 0.084629 -0.192906 0.130694 0.127474 -0.517614 -0.002805 -0.313934 0.038567 0.243944 0.205857 -0.096497
one 0.002991 -0.006934 -0.013080 -0.254215 -0.021751 -0.060282 0.279150 -0.152899 0.204921 -0.034319 -0.021431 -0.065099 0.039745 -0.019286 0.040278 -0.035423 0.275398 -0.020236 -0.082355 0.029009 -0.052677 -0.000428 -0.037356 0.020684 -0.024387 -0.009092 0.010280 0.020116 -0.132606 -0.222210 -0.002540 0.013562 -0.305139 0.103542 -0.105350 0.030361 -0.039544 0.155641 -0.172373 -0.157142 -0.027073 0.073326 -0.037340 0.162567 0.082206 -0.052992 -0.063540 0.136954 -0.000590 0.051638 -0.017627 -0.248839 -0.000202 -0.097749 0.033132 0.022122 -0.036026 -0.170732 -0.060002 -0.099623 0.128142 -0.100825 0.039312 -0.033730 0.041258 -0.027175 0.003595 0.017704 0.100675 0.113994 0.009474 -0.080317 -0.083112 0.041745 0.007904 0.278345 0.022475 0.006583 -0.008102 -0.084619 -0.094532 -0.058724 -0.015482 -0.082760 0.053890 0.016917 -0.027207 -0.004259 -0.040574 0.009123 0.030066 0.155698 0.042912 -0.031102 -0.071170 0.000069 0.041838 0.236903 -0.113381 0.067531 0.046664 0.057612 0.260370 0.063245 0.074255 -0.007318 0.092767 -0.079987 -0.057037 0.147731 0.170121 0.201423 0.067060 0.066619 -0.191806 0.199360 -0.337316 0.029968 0.240003 -0.005648 0.060969 -0.058601 -0.004735 -0.033578 -0.029577 -0.062565 0.069812 0.027632 -0.049380 0.008789 -0.014900 0.070826 0.047958 0.130296 0.019757 -0.068297 -0.214696 0.108193 0.032641 -0.045357 0.029709 -0.021862 -0.038682 0.105049 -0.006760 0.031327 0.014943 0.009621 -0.001022 -0.152383 -0.126867 -0.039158 0.029740 -0.006231 0.051577 -0.001309 0.013362 -0.103110 0.004924 0.004687 -0.102697 0.079014 0.068642 0.009508 -0.108120 0.020619 -0.079876 -0.055938 -0.023112 0.029001 -0.030902 -0.028584 0.224721 0.005878 0.026813 0.059380 0.087305 -0.002629 -0.024373 -0.037845 0.096607 -0.028400 0.037839 -0.062813 0.114411 -0.061698 -0.115280 0.084908 0.110328 0.074970 0.001968 -0.046910 -0.076052 -0.017854 0.102764 0.032232 -0.057112 0.095944 0.053697 0.021242 -0.021004 -0.020461 -0.043720 0.025970 0.036598 0.011784 -0.052475 0.037113 -0.048498 0.204496 0.002139 0.027683 -0.043562 0.029657 -0.053540 -0.120734 0.018098 -0.043957 -0.027290 -0.010992 -0.057941 -0.045380 0.031655 -0.016164 0.438265 -0.104608 0.088535 -0.011017 -0.073232 0.148685 0.068850 0.011773 0.083263 -0.047359 0.003402 0.157034 -0.003790 -0.015274 0.008908 0.059328 0.076949 -0.116189 0.159690 -0.141493 -0.275257 0.064227 0.002842 0.013960 -0.105354 0.009149 -0.014754 0.140566 -0.019856 -0.116024 0.323670 -0.063155 -0.078761 0.053602 -0.033393 -0.052053 0.039150 -0.067173 -0.030464 0.064113 0.048900 -0.088248 0.037244 0.011773 0.062445 -0.008637 0.019711 0.176696 0.019592 -0.115191 -0.006913 -0.037951 0.505618 -0.075155 -0.037484 0.046149 -0.221123 0.053005 -0.007144 -0.078445 -0.145341 -0.104374 0.018371 0.019336 0.153401 0.028511 0.047302 0.046692 0.073784 -0.212499 -0.089426 0.084757 0.023201 -0.237976 0.132196 0.149573
so -0.034354 -0.100072 -0.093229 0.052990 -0.013467 0.020791 0.002457 0.142972 -0.016933 -0.059403 0.127526 0.028187 0.057573 0.002927 0.021131 -0.006909 0.048517 -0.054524 0.032500 0.044403 -0.048448 0.022755 -0.061678 0.039179 0.028029 -0.154264 0.110835 0.032495 0.011321 0.059815 -0.053983 -0.076931 -0.045802 -0.161933 -0.041427 -0.048837 0.007891 0.053503 -0.011120 -0.051379 -0.029197 0.326217 -0.018744 -0.246054 0.030596 -0.076037 0.032808 0.095179 -0.042420 -0.448791 -0.217839 -0.008779 -0.230702 0.028412 0.019355 0.024018 0.017790 -0.048736 -0.121623 -0.079311 0.004833 -0.018154 -0.070372 -0.172112 -0.032395 0.084188 -0.029367 0.020491 0.014332 0.006793 0.168596 0.011146 0.022442 0.092612 -0.081064 -0.246665 0.061219 -0.018031 -0.050785 0.069880 0.168351 0.070466 0.027737 0.071901 0.002024 0.100352 0.006574 -0.043531 -0.041013 -0.025099 0.044554 0.344706 -0.062458 0.024383 -0.001098 -0.084065 0.102889 -0.037314 -0.086551 0.105517 -0.019910 0.034890 0.024289 -0.002868 0.075464 0.007049 -0.039210 -0.015528 -0.126401 -0.019984 0.112940 -0.104378 0.076002 0.079958 0.078961 0.028460 0.167250 0.028558 0.064194 -0.014375 -0.201085 -0.009487 0.007142 0.017607 -0.005793 0.035786 0.049571 -0.009098 0.056558 0.002877 -0.012052 0.084423 -0.015637 0.126523 -0.067439 0.009030 -0.027744 -0.107605 -0.006531 -0.120133 -0.016247 0.101895 -0.026057 0.236363 -0.073670 -0.003827 -0.012789 -0.111306 -0.019294 -0.101829 -0.049794 0.031392 0.024768 -0.062252 -0.069132 -0.096949 0.052883 -0.031588 0.080396 -0.036588 0.134774 -0.046770 0.004217 -0.057269 -0.009709 -0.029953 0.071176 -0.002308 -0.028378 0.051743 0.087128 0.006911 0.064745 0.024200 -0.054957 -0.046721 0.057657 0.025708 -0.000117 -0.046258 0.103886 -0.036437 0.058161 0.014843 0.039219 -0.134990 0.153586 -0.493784 -0.105139 -0.011548 0.008394 -0.085638 0.106992 -0.080973 0.056567 0.008616 0.021326 -0.001687 -0.005352 -0.010031 0.069878 0.024359 -0.048124 -0.068929 -0.010076 -0.011391 0.004735 -0.037873 -0.086468 -0.077991 0.033878 -0.023740 -0.024431 0.046249 -0.053162 -0.039927 -0.059046 -0.045060 0.025618 0.004661 0.044010 -0.148218 0.051417 -0.011818 -0.040641 -0.036991 0.009401 -0.005552 0.070775 0.071107 -0.068217 0.090146 0.095534 -0.022075 0.063535 0.138902 0.040205 -0.101771 -0.015345 0.049589 -0.043550 0.097708 0.007072 -0.175348 -0.251401 0.035787 -0.230027 -0.053743 -0.065850 -0.030397 0.081936 -0.092249 -0.036674 -0.097526 -0.042632 0.113548 -0.048349 0.025300 -0.038216 -0.074809 0.018225 -0.014570 -0.097064 -0.081449 -0.088740 0.070187 0.086015 0.002596 -0.065377 -0.043308 -0.104176 -0.026464 -0.024048 -0.071380 0.061294 -0.073536 0.145403 -0.037933 0.036272 0.040221 0.058146 -0.074758 -0.020791 0.050587 -0.120762 0.050934 0.040355 0.026283 -0.005384 -0.062955 -0.090343 0.039616 0.123740 0.326147 -0.068971 0.169517 0.013205 0.043842 0.003113 -0.109392
has -0.178382 -0.063190 -0.023041 -0.112987 0.027195 -0.032538 -0.148446 -0.232629 -0.826697 -0.007591 -0.143911 -0.037664 -0.187539 -0.032648 -0.127436 0.094149 -0.084382 0.247509 0.002666 0.085007 0.003631 -0.036561 0.044402 -0.172996 0.067524 -0.051886 0.000172 -0.051737 0.007093 0.052538 -0.037141 0.003146 -0.183460 -0.197868 0.143928 0.169915 -0.070798 -0.049329 0.083346 0.068146 0.099855 -0.505000 -0.043925 0.389702 -0.055089 0.022904 -0.058798 0.090733 0.008066 0.360993 0.057325 -0.013349 0.418596 -0.158386 -0.087156 0.061305 -0.014644 -0.398425 0.037467 -0.002991 0.071476 -0.147978 0.004804 0.144561 -0.070367 -0.000313 -0.051724 0.195626 0.033164 0.169069 0.336774 0.099493 -0.048360 0.086656 0.067523 -0.068194 0.144769 0.009910 0.021601 0.017662 0.295267 0.041870 -0.002116 -0.069981 0.201147 0.072295 0.017192 0.230552 -0.023145 -0.115281 -0.013903 0.036905 -0.075776 0.093865 -0.077873 0.182227 -0.570450 0.113637 -0.064436 -0.156980 0.064031 -0.043535 0.147114 0.148276 -0.476432 -0.226862 0.035812 -0.083379 -0.001665 0.189101 -0.204694 0.244810 0.043927 -0.052829 0.180613 0.271501 0.079163 0.015546 0.086152 0.114746 -0.290764 0.061935 0.146067 -0.021266 0.083314 0.061235 -0.031062 0.033901 0.103864 -0.126755 0.017872 -0.106896 -0.054864 -0.181649 -0.359943 0.085030 0.056622 -0.031542 0.172307 0.402381 0.225395 -0.172141 -0.147595 -0.073818 0.214622 0.039163 0.179877 -0.017935 -0.076427 0.068746 0.108172 0.032668 0.071070 0.004725 0.002574 -0.045217 0.138264 -0.097973 0.092523 -0.013395 0.286230 0.177736 0.097162 -0.102476 0.011480 -0.049589 0.048128 -0.065890 0.023023 -0.037156 0.009596 -0.051954 0.219095 0.051866 0.144364 0.134159 -0.027106 -0.120715 0.031027 -0.099278 0.206822 0.035798 -0.025809 -0.110565 0.029270 -0.121654 -0.063802 0.510641 -0.062130 0.026944 -0.155970 0.165895 0.312284 0.025189 0.009652 0.033666 -0.193171 0.101335 0.188492 0.051276 -0.168879 -0.149726 0.011953 0.054949 -0.029172 0.106427 0.146413 0.045675 0.065917 0.261426 -0.005318 -0.042203 -0.028804 -0.053294 0.026949 -0.113735 0.064726 -0.019483 0.067014 -0.049394 0.219955 0.151394 -0.061432 0.015900 -0.120914 0.032190 0.001134 0.007855 0.127737 0.107212 -0.035250 0.082142 0.043733 -0.091890 -0.011311 0.144034 -0.047216 0.007813 -0.117343 0.008138 -0.012151 -0.052286 -0.038919 -0.051944 -0.144982 -0.127758 -0.085359 0.125933 0.101774 -0.049209 -0.009147 0.119131 0.007656 0.053350 -0.392247 0.077029 0.126590 0.031006 -0.008279 -0.019027 -0.034663 -0.074213 0.063161 -0.063452 -0.004061 -0.004543 -0.161714 0.175330 0.047424 -0.066222 -0.010538 0.256485 0.021910 -0.226036 -0.001853 0.044567 0.347206 0.048770 -0.048623 0.003344 0.008052 -0.554687 0.179543 -0.091036 -0.078653 -0.073082 0.053366 0.009433 -0.018082 0.130954 -0.025440 -0.072196 -0.037530 0.397481 0.015828 -0.356982 -0.058444 0.097441 0.034508 -0.099255
can -0.098251 0.069869 -0.021790 -0.109805 -0.037195 -0.078215 0.082851 0.109740 -0.000426 -0.020053 -0.064739 -0.129121 -0.089054 0.052458 0.064757 -0.052915 -0.033897 0.044098 -0.099782 0.003476 -0.058061 0.118996 -0.038953 -0.094912 0.067701 0.075636 0.014707 -0.083909 -0.009031 0.106947 -0.146367 -0.027991 -0.084994 0.194855 0.035572 0.080614 -0.009051 0.044862 0.013969 0.109598 -0.084908 0.838239 -0.020449 0.258704 0.055281 -0.004905 -0.156703 0.192211 0.057765 0.303465 0.038627 0.429519 0.772071 0.022886 -0.140807 0.072146 -0.037438 -0.002550 -0.130007 -0.024109 -0.080361 -0.136692 0.072490 -0.435115 0.067943 0.113462 0.024747 0.079807 -0.186314 -0.130792 0.723477 -0.003497 0.001308 0.108576 0.001142 -0.239488 -0.322697 0.068052 0.086225 0.058023 0.230376 0.092966 0.052200 0.036023 -0.001681 0.046917 0.125691 0.118989 -0.127279 0.060268 0.054283 0.113951 0.144887 -0.019410 0.003802 -0.087766 -0.517071 -0.000953 0.025341 -0.017977 -0.057102 0.022999 -0.070428 0.002588 -0.054773 -0.174778 0.046089 0.049230 -0.031882 0.102155 -0.012437 -0.213570 0.039222 0.031970 0.353361 -0.210720 0.210256 0.050064 0.202921 -0.033674 -0.153649 0.125259 -0.092447 0.065032 -0.191142 0.086539 0.044692 -0.114582 0.201543 -0.120961 -0.063967 -0.005956 -0.114515 0.198149 -0.007368 0.124259 -0.240866 -0.068805 0.132167 0.708556 -0.050928 -0.140888 0.069069 0.380395 0.095344 -0.072728 0.187184 -0.017790 0.082438 -0.121209 -0.082304 0.007549 0.046490 0.101116 -0.034502 0.130553 -0.260995 0.135458 0.050934 0.061050 -0.470618 0.144415 0.007403 -0.036691 0.174213 0.047952 -0.004613 0.045341 -0.071766 -0.333399 0.054697 -0.020211 -0.171587 0.049458 0.072738 0.042997 -0.058963 -0.138943 -0.046365 -0.229354 0.162456 -0.144082 -0.098804 -0.139776 0.050553 -0.024443 -0.001520 0.096918 -0.015334 -0.045302 -0.048361 -0.022577 -0.042292 -0.095085 -0.044168 -0.104096 -0.181767 0.032859 0.062432 -0.015760 0.060248 -0.055982 0.007475 0.129113 -0.023625 0.013027 -0.054450 0.043470 -0.047067 0.055998 -0.005071 0.265500 0.080706 0.005938 0.129971 0.114372 0.065596 0.149533 0.063542 -0.018824 -0.031447 -0.136344 0.005571 -0.121500 0.402287 0.050297 -0.108116 0.040657 0.070403 0.036440 -0.026225 0.279423 0.097373 -0.005512 0.027437 -0.359645 0.088728 -0.056006 -0.145207 0.124827 -0.121213 0.084796 0.068936 -0.099230 -0.006073 -0.173562 -0.036622 0.075649 -0.025297 -0.022246 0.072923 0.145332 0.045008 0.036989 0.122488 -0.111149 -0.134735 0.218545 -0.014461 -0.109910 0.078377 -0.080025 0.050706 0.030926 -0.232264 0.227797 -0.108465 -0.223927 0.135119 0.023948 -0.040871 -0.304660 0.151072 0.057270 -0.041938 0.036894 0.093293 -0.040857 -0.050511 0.045843 -0.206481 -0.000946 -0.122343 -0.085318 0.195461 0.083784 -0.029644 -0.142935 -0.081678 -0.048719 -0.160118 0.023842 0.043035 -0.122861 -0.057279 -0.152186 0.039518 0.182551 0.196685 -0.067002
