[CLS] 0.031773 -0.006023 -0.024867 0.027001 -0.001274 -0.052429 -0.068354 -0.021799 -0.005848 0.024055 0.019930 0.005154 -0.015146 -0.037185 -0.053318 0.008954 0.001760 -0.042109 0.039377 -0.042895 -0.012973 -0.041054 -0.006957 0.012479 -0.008787 0.108466 0.008435 -0.279861 -0.016187 0.048629 -0.057657 -0.032449 0.039201 -0.005914 0.059283 0.063370 -0.054501 0.022436 0.015058 0.033047 0.045388 0.025908 0.012008 0.021463 -0.010772 0.023784 -0.037118 0.045228 0.008795 -0.010405 -0.018428 -0.050773 0.002355 0.002842 0.025992 -0.019119 0.014403 -0.006688 0.027595 -0.003826 0.031004 0.000721 0.086104 -0.025841 -0.014442 -0.011307 -0.002490 -0.003317 0.040716 0.029292 -0.099885 -0.027403 0.024707 -0.016215 0.004091 0.053939 -0.046776 -0.003618 -0.003701 -0.009537 -0.037315 -0.051978 -0.012602 0.005767 -0.060052 -0.009799 0.122416 -0.023175 0.120557 0.098888 0.000040 -0.000241 -0.040660 0.021737 0.003615 0.026038 -0.017872 -0.007391 -0.015622 0.039659 0.028669 -0.004990 -0.033539 -0.069697 0.086052 0.004690 0.007443 -0.041750 -0.034353 0.003913 -0.024115 -0.015255 0.003347 0.012019 0.019734 -0.032647 -0.041454 -0.020539 0.051285 -0.002857 0.062099 -0.114831 -0.001393 0.018607 -0.008717 -0.001582 -0.013358 -0.038857 0.038762 -0.020319 0.021156 -0.272289 0.074202 0.002563 0.042818 -0.007845 0.009012 0.034554 0.038904 0.002469 -0.055822 -0.010028 0.061356 0.011133 -0.009286 -0.014353 -0.068809 -0.031033 0.033902 -0.035450 -0.007584 -0.032676 -0.010685 0.015157 0.007884 0.058706 0.001237 -0.062032 0.002003 -0.057414 0.049641 -0.014628 0.013464 0.019758 0.040233 -0.000543 -0.055022 -0.043989 -0.044591 -0.034077 -0.008625 -0.007797 -0.006223 0.033390 -0.065972 -0.000214 -0.000834 0.011993 -0.009160 -0.028163 0.008809 0.058850 -0.049818 0.010354 -0.001677 0.033455 0.029324 0.084729 -0.076522 -0.031697 0.031769 0.063788 0.026447 -0.002197 0.006156 0.028445 0.029636 0.015832 0.042576 -0.024326 0.078081 -0.021985 0.040191 -0.023501 -0.010236 -0.031332 -0.007882 0.011580 -0.042785 -0.004066 0.106263 0.013817 0.228503 0.004604 -0.006073 0.026119 -0.006569 0.006476 -0.001521 -0.023831 -0.007645 -0.038517 -0.006058 -0.006253 -0.011462 -0.071313 0.020645 0.024584 -0.042204 0.024240 -0.004566 -0.025194 -0.010469 0.041275 0.048224 -0.049333 -0.014500 0.006513 0.164339 -0.017676 -0.010070 -0.064737 -0.011654 0.002919 0.025040 -0.041483 0.003498 0.022848 0.005833 -0.015035 0.009560 0.011320 0.012370 0.049396 -0.004521 -0.022969 -0.002781 0.006123 0.022845 0.065966 -0.088654 0.024775 -0.032163 0.002939 -0.058625 -0.009389 -0.023790 -0.001185 0.028171 -0.012436 0.020387 -0.025892 0.005835 0.026068 -0.015244 0.065073 0.071248 0.032158 -0.029942 -0.020524 0.070955 0.025386 -0.005351 -0.041060 -0.032153 -0.067587 -0.018333 -0.019189 0.025421 0.049648 0.026678 0.094577 -0.024757 -0.030902 0.099040 0.007755 -0.026199 0.067657 -0.037606 -0.008781
[SEP] 0.031773 -0.006023 -0.024867 0.027001 -0.001274 -0.052429 -0.068354 -0.021799 -0.005848 0.024055 0.019930 0.005154 -0.015146 -0.037185 -0.053318 0.008954 0.001760 -0.042109 0.039377 -0.042895 -0.012973 -0.041054 -0.006957 0.012479 -0.008787 0.108466 0.008435 -0.279861 -0.016187 0.048629 -0.057657 -0.032449 0.039201 -0.005914 0.059283 0.063370 -0.054501 0.022436 0.015058 0.033047 0.045388 0.025908 0.012008 0.021463 -0.010772 0.023784 -0.037118 0.045228 0.008795 -0.010405 -0.018428 -0.050773 0.002355 0.002842 0.025992 -0.019119 0.014403 -0.006688 0.027595 -0.003826 0.031004 0.000721 0.086104 -0.025841 -0.014442 -0.011307 -0.002490 -0.003317 0.040716 0.029292 -0.099885 -0.027403 0.024707 -0.016215 0.004091 0.053939 -0.046776 -0.003618 -0.003701 -0.009537 -0.037315 -0.051978 -0.012602 0.005767 -0.060052 -0.009799 0.122416 -0.023175 0.120557 0.098888 0.000040 -0.000241 -0.040660 0.021737 0.003615 0.026038 -0.017872 -0.007391 -0.015622 0.039659 0.028669 -0.004990 -0.033539 -0.069697 0.086052 0.004690 0.007443 -0.041750 -0.034353 0.003913 -0.024115 -0.015255 0.003347 0.012019 0.019734 -0.032647 -0.041454 -0.020539 0.051285 -0.002857 0.062099 -0.114831 -0.001393 0.018607 -0.008717 -0.001582 -0.013358 -0.038857 0.038762 -0.020319 0.021156 -0.272289 0.074202 0.002563 0.042818 -0.007845 0.009012 0.034554 0.038904 0.002469 -0.055822 -0.010028 0.061356 0.011133 -0.009286 -0.014353 -0.068809 -0.031033 0.033902 -0.035450 -0.007584 -0.032676 -0.010685 0.015157 0.007884 0.058706 0.001237 -0.062032 0.002003 -0.057414 0.049641 -0.014628 0.013464 0.019758 0.040233 -0.000543 -0.055022 -0.043989 -0.044591 -0.034077 -0.008625 -0.007797 -0.006223 0.033390 -0.065972 -0.000214 -0.000834 0.011993 -0.009160 -0.028163 0.008809 0.058850 -0.049818 0.010354 -0.001677 0.033455 0.029324 0.084729 -0.076522 -0.031697 0.031769 0.063788 0.026447 -0.002197 0.006156 0.028445 0.029636 0.015832 0.042576 -0.024326 0.078081 -0.021985 0.040191 -0.023501 -0.010236 -0.031332 -0.007882 0.011580 -0.042785 -0.004066 0.106263 0.013817 0.228503 0.004604 -0.006073 0.026119 -0.006569 0.006476 -0.001521 -0.023831 -0.007645 -0.038517 -0.006058 -0.006253 -0.011462 -0.071313 0.020645 0.024584 -0.042204 0.024240 -0.004566 -0.025194 -0.010469 0.041275 0.048224 -0.049333 -0.014500 0.006513 0.164339 -0.017676 -0.010070 -0.064737 -0.011654 0.002919 0.025040 -0.041483 0.003498 0.022848 0.005833 -0.015035 0.009560 0.011320 0.012370 0.049396 -0.004521 -0.022969 -0.002781 0.006123 0.022845 0.065966 -0.088654 0.024775 -0.032163 0.002939 -0.058625 -0.009389 -0.023790 -0.001185 0.028171 -0.012436 0.020387 -0.025892 0.005835 0.026068 -0.015244 0.065073 0.071248 0.032158 -0.029942 -0.020524 0.070955 0.025386 -0.005351 -0.041060 -0.032153 -0.067587 -0.018333 -0.019189 0.025421 0.049648 0.026678 0.094577 -0.024757 -0.030902 0.099040 0.007755 -0.026199 0.067657 -0.037606 -0.008781
[UNK] 0.031773 -0.006023 -0.024867 0.027001 -0.001274 -0.052429 -0.068354 -0.021799 -0.005848 0.024055 0.019930 0.005154 -0.015146 -0.037185 -0.053318 0.008954 0.001760 -0.042109 0.039377 -0.042895 -0.012973 -0.041054 -0.006957 0.012479 -0.008787 0.108466 0.008435 -0.279861 -0.016187 0.048629 -0.057657 -0.032449 0.039201 -0.005914 0.059283 0.063370 -0.054501 0.022436 0.015058 0.033047 0.045388 0.025908 0.012008 0.021463 -0.010772 0.023784 -0.037118 0.045228 0.008795 -0.010405 -0.018428 -0.050773 0.002355 0.002842 0.025992 -0.019119 0.014403 -0.006688 0.027595 -0.003826 0.031004 0.000721 0.086104 -0.025841 -0.014442 -0.011307 -0.002490 -0.003317 0.040716 0.029292 -0.099885 -0.027403 0.024707 -0.016215 0.004091 0.053939 -0.046776 -0.003618 -0.003701 -0.009537 -0.037315 -0.051978 -0.012602 0.005767 -0.060052 -0.009799 0.122416 -0.023175 0.120557 0.098888 0.000040 -0.000241 -0.040660 0.021737 0.003615 0.026038 -0.017872 -0.007391 -0.015622 0.039659 0.028669 -0.004990 -0.033539 -0.069697 0.086052 0.004690 0.007443 -0.041750 -0.034353 0.003913 -0.024115 -0.015255 0.003347 0.012019 0.019734 -0.032647 -0.041454 -0.020539 0.051285 -0.002857 0.062099 -0.114831 -0.001393 0.018607 -0.008717 -0.001582 -0.013358 -0.038857 0.038762 -0.020319 0.021156 -0.272289 0.074202 0.002563 0.042818 -0.007845 0.009012 0.034554 0.038904 0.002469 -0.055822 -0.010028 0.061356 0.011133 -0.009286 -0.014353 -0.068809 -0.031033 0.033902 -0.035450 -0.007584 -0.032676 -0.010685 0.015157 0.007884 0.058706 0.001237 -0.062032 0.002003 -0.057414 0.049641 -0.014628 0.013464 0.019758 0.040233 -0.000543 -0.055022 -0.043989 -0.044591 -0.034077 -0.008625 -0.007797 -0.006223 0.033390 -0.065972 -0.000214 -0.000834 0.011993 -0.009160 -0.028163 0.008809 0.058850 -0.049818 0.010354 -0.001677 0.033455 0.029324 0.084729 -0.076522 -0.031697 0.031769 0.063788 0.026447 -0.002197 0.006156 0.028445 0.029636 0.015832 0.042576 -0.024326 0.078081 -0.021985 0.040191 -0.023501 -0.010236 -0.031332 -0.007882 0.011580 -0.042785 -0.004066 0.106263 0.013817 0.228503 0.004604 -0.006073 0.026119 -0.006569 0.006476 -0.001521 -0.023831 -0.007645 -0.038517 -0.006058 -0.006253 -0.011462 -0.071313 0.020645 0.024584 -0.042204 0.024240 -0.004566 -0.025194 -0.010469 0.041275 0.048224 -0.049333 -0.014500 0.006513 0.164339 -0.017676 -0.010070 -0.064737 -0.011654 0.002919 0.025040 -0.041483 0.003498 0.022848 0.005833 -0.015035 0.009560 0.011320 0.012370 0.049396 -0.004521 -0.022969 -0.002781 0.006123 0.022845 0.065966 -0.088654 0.024775 -0.032163 0.002939 -0.058625 -0.009389 -0.023790 -0.001185 0.028171 -0.012436 0.020387 -0.025892 0.005835 0.026068 -0.015244 0.065073 0.071248 0.032158 -0.029942 -0.020524 0.070955 0.025386 -0.005351 -0.041060 -0.032153 -0.067587 -0.018333 -0.019189 0.025421 0.049648 0.026678 0.094577 -0.024757 -0.030902 0.099040 0.007755 -0.026199 0.067657 -0.037606 -0.008781
[PAD] 0.031773 -0.006023 -0.024867 0.027001 -0.001274 -0.052429 -0.068354 -0.021799 -0.005848 0.024055 0.019930 0.005154 -0.015146 -0.037185 -0.053318 0.008954 0.001760 -0.042109 0.039377 -0.042895 -0.012973 -0.041054 -0.006957 0.012479 -0.008787 0.108466 0.008435 -0.279861 -0.016187 0.048629 -0.057657 -0.032449 0.039201 -0.005914 0.059283 0.063370 -0.054501 0.022436 0.015058 0.033047 0.045388 0.025908 0.012008 0.021463 -0.010772 0.023784 -0.037118 0.045228 0.008795 -0.010405 -0.018428 -0.050773 0.002355 0.002842 0.025992 -0.019119 0.014403 -0.006688 0.027595 -0.003826 0.031004 0.000721 0.086104 -0.025841 -0.014442 -0.011307 -0.002490 -0.003317 0.040716 0.029292 -0.099885 -0.027403 0.024707 -0.016215 0.004091 0.053939 -0.046776 -0.003618 -0.003701 -0.009537 -0.037315 -0.051978 -0.012602 0.005767 -0.060052 -0.009799 0.122416 -0.023175 0.120557 0.098888 0.000040 -0.000241 -0.040660 0.021737 0.003615 0.026038 -0.017872 -0.007391 -0.015622 0.039659 0.028669 -0.004990 -0.033539 -0.069697 0.086052 0.004690 0.007443 -0.041750 -0.034353 0.003913 -0.024115 -0.015255 0.003347 0.012019 0.019734 -0.032647 -0.041454 -0.020539 0.051285 -0.002857 0.062099 -0.114831 -0.001393 0.018607 -0.008717 -0.001582 -0.013358 -0.038857 0.038762 -0.020319 0.021156 -0.272289 0.074202 0.002563 0.042818 -0.007845 0.009012 0.034554 0.038904 0.002469 -0.055822 -0.010028 0.061356 0.011133 -0.009286 -0.014353 -0.068809 -0.031033 0.033902 -0.035450 -0.007584 -0.032676 -0.010685 0.015157 0.007884 0.058706 0.001237 -0.062032 0.002003 -0.057414 0.049641 -0.014628 0.013464 0.019758 0.040233 -0.000543 -0.055022 -0.043989 -0.044591 -0.034077 -0.008625 -0.007797 -0.006223 0.033390 -0.065972 -0.000214 -0.000834 0.011993 -0.009160 -0.028163 0.008809 0.058850 -0.049818 0.010354 -0.001677 0.033455 0.029324 0.084729 -0.076522 -0.031697 0.031769 0.063788 0.026447 -0.002197 0.006156 0.028445 0.029636 0.015832 0.042576 -0.024326 0.078081 -0.021985 0.040191 -0.023501 -0.010236 -0.031332 -0.007882 0.011580 -0.042785 -0.004066 0.106263 0.013817 0.228503 0.004604 -0.006073 0.026119 -0.006569 0.006476 -0.001521 -0.023831 -0.007645 -0.038517 -0.006058 -0.006253 -0.011462 -0.071313 0.020645 0.024584 -0.042204 0.024240 -0.004566 -0.025194 -0.010469 0.041275 0.048224 -0.049333 -0.014500 0.006513 0.164339 -0.017676 -0.010070 -0.064737 -0.011654 0.002919 0.025040 -0.041483 0.003498 0.022848 0.005833 -0.015035 0.009560 0.011320 0.012370 0.049396 -0.004521 -0.022969 -0.002781 0.006123 0.022845 0.065966 -0.088654 0.024775 -0.032163 0.002939 -0.058625 -0.009389 -0.023790 -0.001185 0.028171 -0.012436 0.020387 -0.025892 0.005835 0.026068 -0.015244 0.065073 0.071248 0.032158 -0.029942 -0.020524 0.070955 0.025386 -0.005351 -0.041060 -0.032153 -0.067587 -0.018333 -0.019189 0.025421 0.049648 0.026678 0.094577 -0.024757 -0.030902 0.099040 0.007755 -0.026199 0.067657 -0.037606 -0.008781
[MASK] 0.031773 -0.006023 -0.024867 0.027001 -0.001274 -0.052429 -0.068354 -0.021799 -0.005848 0.024055 0.019930 0.005154 -0.015146 -0.037185 -0.053318 0.008954 0.001760 -0.042109 0.039377 -0.042895 -0.012973 -0.041054 -0.006957 0.012479 -0.008787 0.108466 0.008435 -0.279861 -0.016187 0.048629 -0.057657 -0.032449 0.039201 -0.005914 0.059283 0.063370 -0.054501 0.022436 0.015058 0.033047 0.045388 0.025908 0.012008 0.021463 -0.010772 0.023784 -0.037118 0.045228 0.008795 -0.010405 -0.018428 -0.050773 0.002355 0.002842 0.025992 -0.019119 0.014403 -0.006688 0.027595 -0.003826 0.031004 0.000721 0.086104 -0.025841 -0.014442 -0.011307 -0.002490 -0.003317 0.040716 0.029292 -0.099885 -0.027403 0.024707 -0.016215 0.004091 0.053939 -0.046776 -0.003618 -0.003701 -0.009537 -0.037315 -0.051978 -0.012602 0.005767 -0.060052 -0.009799 0.122416 -0.023175 0.120557 0.098888 0.000040 -0.000241 -0.040660 0.021737 0.003615 0.026038 -0.017872 -0.007391 -0.015622 0.039659 0.028669 -0.004990 -0.033539 -0.069697 0.086052 0.004690 0.007443 -0.041750 -0.034353 0.003913 -0.024115 -0.015255 0.003347 0.012019 0.019734 -0.032647 -0.041454 -0.020539 0.051285 -0.002857 0.062099 -0.114831 -0.001393 0.018607 -0.008717 -0.001582 -0.013358 -0.038857 0.038762 -0.020319 0.021156 -0.272289 0.074202 0.002563 0.042818 -0.007845 0.009012 0.034554 0.038904 0.002469 -0.055822 -0.010028 0.061356 0.011133 -0.009286 -0.014353 -0.068809 -0.031033 0.033902 -0.035450 -0.007584 -0.032676 -0.010685 0.015157 0.007884 0.058706 0.001237 -0.062032 0.002003 -0.057414 0.049641 -0.014628 0.013464 0.019758 0.040233 -0.000543 -0.055022 -0.043989 -0.044591 -0.034077 -0.008625 -0.007797 -0.006223 0.033390 -0.065972 -0.000214 -0.000834 0.011993 -0.009160 -0.028163 0.008809 0.058850 -0.049818 0.010354 -0.001677 0.033455 0.029324 0.084729 -0.076522 -0.031697 0.031769 0.063788 0.026447 -0.002197 0.006156 0.028445 0.029636 0.015832 0.042576 -0.024326 0.078081 -0.021985 0.040191 -0.023501 -0.010236 -0.031332 -0.007882 0.011580 -0.042785 -0.004066 0.106263 0.013817 0.228503 0.004604 -0.006073 0.026119 -0.006569 0.006476 -0.001521 -0.023831 -0.007645 -0.038517 -0.006058 -0.006253 -0.011462 -0.071313 0.020645 0.024584 -0.042204 0.024240 -0.004566 -0.025194 -0.010469 0.041275 0.048224 -0.049333 -0.014500 0.006513 0.164339 -0.017676 -0.010070 -0.064737 -0.011654 0.002919 0.025040 -0.041483 0.003498 0.022848 0.005833 -0.015035 0.009560 0.011320 0.012370 0.049396 -0.004521 -0.022969 -0.002781 0.006123 0.022845 0.065966 -0.088654 0.024775 -0.032163 0.002939 -0.058625 -0.009389 -0.023790 -0.001185 0.028171 -0.012436 0.020387 -0.025892 0.005835 0.026068 -0.015244 0.065073 0.071248 0.032158 -0.029942 -0.020524 0.070955 0.025386 -0.005351 -0.041060 -0.032153 -0.067587 -0.018333 -0.019189 0.025421 0.049648 0.026678 0.094577 -0.024757 -0.030902 0.099040 0.007755 -0.026199 0.067657 -0.037606 -0.008781
, -0.028200 -0.055700 -0.045100 -0.043400 0.071200 -0.085500 -0.108500 -0.056100 -0.452300 -0.020200 0.097500 0.104700 0.196200 -0.069300 0.021300 -0.023500 0.133600 -0.042000 -0.056400 -0.079800 0.042400 -0.040900 -0.053600 -0.025200 0.013500 0.006400 0.123500 0.046100 0.012000 -0.037200 0.065000 0.004100 -0.107400 -0.026300 0.113300 -0.002900 0.067100 0.106500 0.023400 -0.016000 0.007000 0.435500 -0.075200 -0.432800 0.045700 0.060400 -0.074000 -0.005500 -0.008900 -0.292600 -0.054500 -0.151900 0.099000 -0.019300 -0.005000 0.051100 0.040400 0.102300 -0.012800 0.048800 -0.156700 -0.075900 -0.019000 0.144200 0.004700 -0.018600 0.014000 -0.038500 -0.085300 0.157200 0.177000 0.008400 -0.025000 -0.114500 -0.066300 -0.124400 -0.397700 -0.012400 -0.458600 -0.022000 0.574600 0.021800 -0.075400 0.009900 0.039700 -0.015400 0.042400 -0.015000 -0.001600 0.030500 0.010100 0.226600 0.139400 0.018900 0.006900 0.039400 0.035500 -0.011100 -0.068700 -0.007800 0.022400 0.081700 -0.194900 0.000100 0.404700 -0.023700 -0.065600 -0.068400 0.023300 0.043800 0.120300 -0.027600 0.041600 0.011400 -0.452900 0.153800 0.132300 -0.018600 -0.091400 -0.031200 0.105100 0.021200 0.079800 -0.010400 -0.020600 -0.002500 0.004300 -0.037800 0.268900 0.074700 -0.041800 -0.004800 -0.038700 0.043200 0.170400 0.061400 0.090500 -0.043600 -0.014100 -0.031500 0.027600 0.015100 -0.010300 -0.026600 -0.051200 -0.040800 -0.065100 0.066200 -0.093600 0.137100 0.045800 -0.136600 -0.007500 -0.010400 -0.073200 0.120500 0.103500 0.010600 -0.031700 -0.031600 0.663900 -0.002200 -0.134300 0.014400 -0.033800 0.003400 -0.042900 -0.082100 0.003700 0.102900 -0.020400 -0.026900 0.005200 -0.103400 0.106800 0.012100 0.098000 -0.045800 0.019900 -0.013200 0.193600 -0.021300 0.020900 -0.002500 0.041600 -0.033700 0.051600 -0.101400 0.020300 0.019800 -0.030500 -0.031300 0.054300 -0.010600 0.144100 -0.017800 -0.062700 0.047500 0.035200 -0.025400 -0.094900 0.040100 0.031700 0.005500 -0.053600 0.019100 -0.051100 -0.040900 -0.003000 0.158200 0.010800 0.523700 0.043600 0.030600 -0.039200 0.017700 0.006900 0.060500 0.120600 -0.021600 -0.063300 -0.296500 0.052100 -0.015000 -0.220700 -0.064200 -0.090600 -0.012100 0.056900 0.094400 -0.065200 -0.010800 -0.047700 0.002300 0.007700 -0.154700 0.046300 0.069800 -0.037600 -0.029100 0.003300 -0.010200 -0.074300 0.008500 0.080500 -0.029100 -0.067400 -0.058600 -0.065300 0.028300 -0.025500 0.086900 -0.086800 0.009000 0.324500 -0.057300 -0.028900 0.047000 -0.011700 0.017400 0.013200 -0.022600 -0.066400 0.018800 0.026300 0.011100 -0.004900 -0.065600 0.029500 0.043500 0.029000 0.116300 0.044800 -0.113900 -0.055300 -0.052800 0.174500 -0.014600 -0.130800 -0.060700 -0.013400 0.078100 0.037800 0.022800 -0.072800 -0.005900 0.015800 -0.014100 -0.000200 0.019300 -0.014800 -0.046300 0.044400 0.303400 0.102000 -0.087100 0.031700 -0.037000 -0.072500 -0.004200
the 0.023100 0.017000 0.015700 -0.077300 0.108800 0.003100 -0.148700 -0.267200 -0.035700 -0.048700 0.080700 0.153200 -0.073900 -0.029100 -0.044500 -0.001400 0.101400 0.018600 -0.025300 0.020000 -0.002600 -0.017900 0.000500 0.005400 -0.013400 0.023300 -0.075500 -0.015600 0.041500 -0.498500 0.041000 -0.061600 0.004700 0.032500 -0.016200 -0.017200 0.098800 0.076600 -0.079600 -0.034500 0.012400 -0.100700 -0.029200 -0.076200 -0.126100 -0.053100 0.042400 0.014400 -0.068300 0.285900 0.039900 0.020100 0.324000 -0.065600 -0.049700 0.009000 0.090200 -0.013800 -0.041200 -0.029700 0.313900 -0.142800 0.016600 -0.021900 -0.057500 0.135900 -0.165500 0.001900 0.032300 -0.001300 -0.303300 -0.009100 0.146200 0.186000 -0.052400 0.188600 -0.737200 -0.024800 -0.020500 0.002200 0.598800 -0.035900 -0.026900 -0.048300 0.010900 -0.004400 0.059200 0.017400 0.001000 -0.001200 -0.025100 0.462000 -0.044300 -0.035000 0.011500 0.149600 0.312500 -0.009100 0.251700 0.065400 0.023700 -0.043200 0.095200 0.065000 -0.293200 0.063000 0.023600 0.034000 -0.001200 0.088900 -0.000600 -0.173600 0.037400 0.031300 -0.618400 0.028200 -0.383600 0.058900 0.244300 0.060200 0.005700 -0.003800 0.135200 0.005300 0.019300 -0.021300 0.024800 0.021400 0.233400 -0.043800 0.052700 0.026200 0.065500 -0.085900 0.264200 -0.039300 -0.016300 0.068100 -0.017500 -0.115800 0.095000 0.047500 0.006900 0.516400 -0.002600 -0.025500 -0.080100 -0.026200 0.111300 0.079800 -0.001500 0.025200 -0.037900 -0.026000 -0.028200 -0.042000 0.048200 -0.017500 0.028200 0.040000 0.399800 -0.105400 0.075500 0.102700 -0.019900 0.038100 -0.033300 -0.034200 0.026700 0.086500 0.002400 -0.009100 0.016300 -0.028700 0.036400 -0.020200 -0.036700 -0.035600 -0.061400 -0.055100 0.264900 -0.037100 0.020700 0.036400 0.051200 -0.084300 -0.013800 0.071000 0.084300 0.029100 -0.010000 0.039800 -0.064600 -0.059500 -0.025800 -0.028200 0.031100 0.014700 -0.044900 0.027600 -0.116800 0.021900 -0.023100 -0.016200 -0.028600 0.012800 -0.025900 0.015300 0.104200 -0.120700 -0.013500 0.540500 -0.036200 0.047600 -0.018000 -0.073500 0.003400 -0.002600 -0.005700 0.038000 -0.040100 -0.101600 0.034400 0.040200 0.051300 -0.081500 0.039000 0.007600 0.017500 0.003000 -0.070700 0.015000 -0.117400 0.026600 -0.079500 0.198800 0.097800 -0.058700 -0.053300 0.027300 0.044200 -0.046300 -0.070800 0.017600 -0.099400 0.084600 0.362000 -0.020700 0.025600 -0.014500 0.030900 0.008200 0.004200 -0.031400 0.119600 -0.034600 0.038600 -0.036800 -0.033300 -0.003200 -0.004800 -0.000600 0.050900 -0.023200 0.118300 -0.131400 0.014900 0.076200 -0.016100 0.016000 0.039000 -0.192200 0.003100 -0.066600 0.059300 -0.062100 0.042100 0.032800 -0.090100 -0.015900 0.101500 0.616400 -0.065000 0.124100 0.005900 0.065300 -0.038600 0.016600 0.040300 0.016900 -0.000800 0.005200 -0.036300 -0.250800 0.125200 -0.100800 -0.030800 0.074400 -0.111800 0.096300
. -0.084900 -0.058200 -0.032100 0.048300 -0.018500 -0.083600 0.035500 -0.004900 0.040800 0.062000 -0.069100 0.196400 0.026200 -0.112900 0.003700 -0.041500 0.082100 -0.058700 -0.061900 -0.005000 -0.019400 -0.055700 0.003300 0.025900 -0.020000 0.045700 -0.003200 -0.054900 -0.076300 0.098200 -0.016100 -0.012300 -0.080100 -0.047700 0.055900 0.004100 -0.044000 0.044700 -0.072500 0.133700 0.003100 0.022600 -0.023800 -0.523100 -0.096100 -0.044700 0.085300 0.040000 -0.029800 -0.212500 -0.031700 0.125500 0.105900 -0.033600 -0.034300 0.106300 0.005000 0.263000 0.002400 -0.090200 -0.046400 0.156600 0.002300 -0.013400 -0.043000 -0.137200 0.027700 0.062900 0.029300 0.223400 -0.441200 -0.022700 -0.012400 0.172500 -0.107700 -0.001300 -0.913300 0.091800 -0.073100 -0.019200 0.390500 -0.015100 -0.025000 0.034300 -0.058000 -0.040000 0.074900 0.004300 -0.039600 -0.048500 0.025900 0.212800 0.011300 0.007100 -0.014500 0.015900 0.194300 0.006000 -0.005600 -0.093600 -0.017500 0.045300 0.185100 0.096500 0.072600 0.010100 0.061000 0.074100 -0.003100 0.237400 0.021900 -0.355000 0.024100 -0.025100 -0.698800 -0.065900 0.161300 0.022900 -0.104100 -0.043900 -0.128200 -0.063700 0.029100 0.008400 0.072500 0.002300 0.034800 0.052000 0.323100 0.083100 -0.081200 -0.058500 0.025900 -0.083900 -0.158100 0.022900 -0.105400 -0.044700 0.000700 0.158000 -0.025000 -0.052000 0.021200 0.287200 0.025400 -0.089100 0.158800 -0.005800 0.014500 0.065100 -0.011200 -0.023400 0.018500 -0.020100 -0.114100 -0.092800 -0.153400 0.096200 0.028300 -0.014500 0.738600 -0.055000 -0.120900 -0.123500 -0.013300 -0.038200 -0.006900 -0.145900 -0.086200 -0.062200 -0.036400 -0.057800 0.121900 -0.013400 0.120000 -0.018900 0.019500 0.086100 0.072000 0.044200 -0.119700 -0.034200 0.020700 -0.003400 0.028900 0.054700 0.088400 0.041700 0.031800 0.093000 -0.061800 -0.035000 0.044000 -0.152800 0.011900 0.004900 -0.083600 0.005100 0.002500 -0.002000 -0.098400 -0.010700 0.016500 0.064500 0.053700 0.049000 -0.034700 -0.164800 0.024600 0.120900 -0.043200 0.522400 0.088600 0.053100 0.010100 -0.046300 0.036600 0.025300 0.106100 -0.094000 0.032800 -0.422200 0.046400 -0.044500 -0.095900 -0.034500 0.048400 -0.010100 0.069400 0.010500 -0.063200 0.023300 0.004000 0.048700 0.005900 0.148300 -0.000500 0.016100 -0.022600 -0.022700 0.003700 -0.074400 -0.013200 -0.067400 -0.043700 -0.003200 -0.835000 0.041600 -0.022200 -0.043000 0.072100 -0.038500 -0.077900 0.080600 -0.055300 0.072900 -0.059000 -0.016000 -0.127100 0.044700 -0.041800 -0.045500 -0.005500 0.056200 0.099200 0.089500 -0.057900 -0.054300 -0.080900 0.119700 0.006600 0.103800 -0.031500 -0.030500 -0.060700 -0.092000 0.060100 -0.128500 -0.050500 -0.042000 0.103300 -0.481800 -0.003300 -0.010200 0.005000 0.056500 -0.016000 0.002300 -0.092800 -0.131800 0.013300 0.034400 0.018600 -0.499500 -0.013000 0.063300 -0.033000 0.003200 -0.023700 -0.036600
and -0.108100 0.019100 0.035400 0.012700 0.066400 -0.012600 -0.188200 0.063100 -0.230600 0.009500 0.091700 0.151300 0.055800 -0.064300 -0.028800 -0.044700 0.160300 0.061300 0.034900 -0.057800 0.000300 -0.139900 0.016300 -0.041900 -0.048700 0.005700 0.001700 -0.026800 -0.017000 0.104500 0.081500 -0.006000 0.063500 -0.171000 0.027600 -0.023000 0.082400 0.030400 -0.159500 0.085100 -0.055600 0.032900 -0.092100 0.019600 -0.040400 0.036100 -0.084300 0.101400 -0.039300 -0.180500 -0.007300 0.224700 -0.062100 -0.057500 -0.031600 0.019800 0.060200 0.131200 -0.127800 0.017700 -0.060000 -0.290400 -0.046500 -0.107800 -0.070100 -0.049700 -0.110200 0.015600 -0.059500 0.076200 0.263800 0.035300 0.074500 0.036100 -0.056100 -0.117900 -0.475100 0.045800 -0.067200 -0.002200 0.926400 0.010100 -0.108500 0.066900 -0.041700 -0.042800 0.039100 -0.058100 0.010700 -0.087300 -0.001600 0.571100 0.034500 0.093000 -0.064700 -0.082000 0.058700 -0.130700 0.048000 0.022600 0.011500 0.029600 -0.167500 0.039900 0.251100 0.042300 0.129900 -0.033600 -0.097700 0.014600 0.352700 0.012200 0.103100 -0.065700 -0.370400 0.044500 0.124200 -0.003100 0.025500 -0.010900 0.157500 0.028800 0.254900 -0.028000 0.046200 -0.028200 -0.015400 0.040500 0.319100 0.011300 -0.013600 0.018200 -0.038500 -0.049900 -0.081000 -0.013400 -0.141300 0.056600 -0.042300 -0.060900 0.106300 0.038600 -0.037500 0.271400 -0.066500 -0.021900 0.057900 0.055000 0.077200 0.202400 -0.036500 -0.076400 0.031800 0.000400 -0.042400 -0.057900 0.042800 0.021100 -0.006100 0.024300 0.570200 0.079800 -0.050200 -0.019500 0.024200 -0.033900 -0.044100 -0.109500 0.042600 -0.023400 -0.005700 -0.020900 -0.090300 -0.065400 0.155900 0.005100 0.003700 -0.000800 -0.005000 0.050800 0.010500 0.025100 0.027000 0.003900 0.062100 0.051900 -0.015600 -0.128500 -0.056400 -0.026300 0.040100 0.037200 -0.104000 -0.067400 0.086600 -0.003300 -0.007600 0.006400 -0.011400 -0.023900 0.013500 0.080100 0.017100 0.042500 -0.049900 0.061500 0.035500 -0.083300 0.037800 0.028800 -0.039200 0.567900 -0.012000 0.069900 -0.089300 -0.010500 0.021900 -0.013600 0.106300 -0.001400 -0.006200 -0.061700 0.035700 0.003000 -0.041400 -0.063400 0.070100 0.050100 0.024100 0.037900 -0.023400 -0.011600 0.039100 -0.016900 -0.001900 0.073100 0.059700 0.019100 -0.026200 -0.025600 0.063100 -0.026100 0.018500 0.010000 0.112600 -0.048700 0.154500 0.043800 0.014700 -0.027800 -0.049300 -0.086600 -0.028100 -0.095500 0.087900 0.019400 -0.032300 -0.012600 -0.081000 0.008800 0.000200 0.005900 0.085800 0.002400 0.040100 -0.020500 0.030400 0.067800 0.056600 0.009700 0.003900 -0.096800 0.007900 -0.383800 -0.064200 -0.041700 -0.066600 0.033700 0.005300 -0.026300 -0.031000 0.200200 -0.009600 0.079600 0.074300 0.070900 -0.007700 -0.016900 -0.008300 -0.032200 0.060800 0.022700 -0.030600 0.394500 0.020000 -0.061300 -0.061100 0.110400 0.047500 -0.059900
to -0.017500 -0.218900 0.035300 0.034500 0.091300 0.026900 -0.167000 -0.275900 0.428300 0.034900 0.013200 0.107800 -0.055800 -0.021500 -0.038900 0.037900 -0.118000 0.016400 0.063100 0.045900 0.033100 -0.017600 0.001000 0.017600 0.035100 -0.054500 0.043000 -0.030000 0.035800 0.258800 0.057600 -0.085400 0.063200 0.025500 0.000800 0.015200 -0.084300 -0.024900 0.065100 -0.096100 -0.010700 0.164900 0.000300 -0.287500 -0.038800 -0.021200 -0.097300 0.030100 -0.047400 0.917300 -0.002400 0.442200 0.136700 -0.017700 -0.059100 -0.006900 0.069200 -0.395600 -0.048600 0.025100 0.137600 0.181600 -0.016400 -0.210300 0.015600 -0.044900 -0.100400 0.039900 -0.084700 -0.056500 -0.269700 0.005100 -0.044100 0.186200 -0.014300 -0.111400 -0.703600 0.016200 0.195500 -0.022500 0.676100 0.029500 -0.003900 -0.045000 -0.038300 0.025800 0.046400 -0.024300 0.024300 0.003700 0.003100 0.653100 0.033000 0.009200 0.002600 0.035100 -0.374900 -0.040200 -0.259600 0.032600 0.005500 -0.003900 0.175100 0.042000 0.143800 -0.010900 0.023600 -0.008400 -0.018800 0.128700 0.062400 0.115200 0.024400 0.020700 -0.383700 0.202800 0.127200 0.017900 0.102000 0.043300 -0.065000 0.028100 0.115100 -0.007400 0.017400 -0.025200 0.053300 0.065900 0.292800 -0.021100 -0.025200 -0.000400 -0.046200 -0.061500 0.343000 -0.070500 -0.093800 0.050900 0.007600 -0.279900 0.119100 0.060600 -0.008900 0.106400 -0.082900 -0.004400 -0.101800 -0.010000 0.076500 0.104600 0.029600 -0.014400 -0.024100 0.020300 -0.017700 -0.034700 0.024400 0.004400 0.006000 0.012600 0.466700 0.158600 -0.037600 -0.056600 -0.038700 0.010800 -0.008300 -0.049800 0.012100 -0.045800 0.043000 0.002700 -0.092200 0.015900 0.077000 -0.063800 0.043500 -0.015200 0.001800 -0.002400 -0.250900 -0.019700 0.009700 0.021400 0.060300 -0.010500 -0.094000 -0.406800 -0.288400 0.044500 0.002000 0.012600 -0.074400 -0.067800 0.048300 -0.091900 0.043100 -0.040100 0.031300 -0.020200 0.029700 0.001000 0.022400 0.057500 0.034900 -0.010300 0.001500 0.012200 0.041500 -0.255900 0.013200 0.500500 -0.007400 0.041600 -0.083900 0.008600 -0.015500 -0.008900 -0.007600 0.029500 -0.027700 -0.094200 0.023600 0.015300 0.079800 -0.047500 -0.043100 0.036900 0.039600 0.014600 0.079000 0.071600 0.033400 -0.046200 0.012100 0.062000 0.096000 -0.033700 -0.061700 0.041600 -0.023600 0.005400 -0.103100 -0.033100 -0.380500 -0.075000 0.405600 0.020900 0.010600 -0.034400 0.016200 -0.161600 0.035600 -0.010800 0.122000 0.048400 0.035300 0.046200 -0.005300 0.014500 0.061500 0.007100 -0.024100 -0.032700 0.007100 -0.129000 0.020200 0.034500 0.027500 -0.019300 -0.003300 -0.410400 0.050500 -0.169900 -0.039800 -0.009900 -0.329600 -0.040200 0.134400 0.001000 0.033600 0.141200 0.002300 -0.055600 0.034800 -0.062500 -0.022800 -0.001500 0.073200 0.036200 0.064200 0.013600 0.036700 0.173500 0.021700 0.059100 0.016600 -0.284600 0.050900 0.022900
of 0.009500 0.037900 -0.031300 -0.104100 -0.004500 -0.027100 -0.200400 -0.125100 0.034100 -0.001900 -0.003900 0.119500 -0.028700 -0.059000 0.005800 0.019000 0.226100 -0.035500 -0.033700 -0.029300 -0.037800 -0.003900 -0.028000 -0.011300 -0.052900 0.010100 -0.104300 0.006200 0.029000 -0.543100 0.058100 0.023900 0.134900 -0.226300 -0.001400 -0.045700 0.009500 0.057300 0.020700 -0.033200 0.038200 -0.433400 -0.049700 0.187400 -0.065700 -0.010900 -0.030500 0.011700 0.003900 0.545300 -0.007700 -0.229100 0.142600 -0.083700 0.012400 -0.011600 0.004700 0.226200 -0.085300 -0.002500 -0.045100 0.092700 0.037800 0.153500 -0.039000 0.031200 -0.032800 -0.072800 0.048000 0.038800 0.093900 -0.021500 0.032300 0.039700 -0.002800 0.498400 -0.590100 0.011600 0.126600 -0.053900 0.996800 0.001000 -0.037600 -0.042300 -0.014000 -0.051800 0.031900 0.067300 -0.008000 -0.069600 -0.025500 0.020300 0.037600 0.001100 0.021000 -0.130000 0.521200 -0.078000 0.175000 0.048500 0.051300 0.011100 0.219800 -0.021500 -0.154300 0.050200 0.075900 -0.043900 0.039600 0.054100 -0.041400 0.128800 -0.036600 -0.049400 -0.423000 -0.083300 -0.134300 0.102100 0.268600 0.022800 -0.007800 -0.005600 0.036700 -0.017500 0.006000 -0.015500 0.048300 0.089300 0.590600 -0.034500 0.024500 0.016000 0.117500 -0.152400 0.197800 -0.049000 0.066500 0.059600 -0.051800 -0.058400 -0.064400 -0.002800 -0.009500 0.471200 -0.002100 -0.031600 0.025200 0.028300 -0.110500 0.166200 -0.060000 -0.077600 0.083800 -0.036100 0.006900 0.002700 -0.134100 -0.021000 -0.003700 0.010200 0.470300 -0.082400 -0.016200 -0.036600 -0.026400 0.031700 -0.087900 -0.046800 -0.014400 0.128700 0.019900 0.000000 0.129300 0.026700 0.160700 0.041800 0.020600 0.019300 -0.035900 -0.029400 -0.118700 0.022800 0.039600 -0.027700 -0.017200 -0.065100 -0.107500 0.105600 0.042300 0.073500 0.107900 0.116700 -0.210200 -0.046900 0.011900 -0.026000 -0.037400 0.019900 0.011000 0.017800 0.052700 0.025300 -0.053500 -0.005900 -0.032800 0.020100 -0.052400 0.113300 0.022900 0.011000 0.000200 0.477100 -0.026500 -0.016000 -0.052600 -0.001800 -0.031900 -0.000400 -0.022000 -0.021700 -0.005500 -0.008800 0.010300 -0.028500 0.344000 -0.016300 0.184700 0.034500 -0.032800 -0.030300 -0.030600 -0.095600 -0.271300 -0.015200 -0.015400 -0.006600 0.000300 -0.013900 -0.046400 -0.019400 0.060900 -0.121700 0.008700 -0.051800 0.479500 0.099200 0.270000 -0.013700 -0.022800 -0.037500 0.010400 -0.065100 0.005000 0.003100 0.250000 -0.048200 0.035400 0.010100 0.003900 -0.002500 0.032700 -0.079900 0.096200 0.015900 0.112500 -0.098600 -0.001000 0.069800 0.291900 0.043600 -0.019600 0.026000 -0.033300 -0.323600 0.000500 -0.040100 0.263500 0.016200 0.077600 0.005600 -0.084300 0.659700 0.012400 -0.037200 -0.019200 -0.070900 0.014900 -0.117500 -0.045000 -0.025100 0.006700 0.022400 0.030000 -0.243300 -0.015500 0.041600 -0.006300 -0.035200 0.027000 0.024600
a 0.006400 0.033300 0.022500 -0.113900 0.016600 -0.008800 -0.067300 0.060100 -0.050500 0.038800 -0.048000 0.132600 0.001400 -0.020600 -0.030100 0.018400 -0.319500 -0.007700 -0.101100 0.008700 -0.005000 -0.036900 -0.019000 0.006600 0.021200 -0.013100 0.085700 0.070700 0.020900 0.060200 0.006100 0.010200 0.166900 -0.285200 0.068900 -0.048900 -0.094800 0.060700 0.171700 -0.207700 -0.028400 -0.186400 0.073400 -0.264200 -0.050900 0.018400 0.112000 -0.020000 -0.013200 -0.194600 0.027000 -0.190900 0.212400 -0.003800 -0.009300 -0.008800 0.012900 -0.305000 0.066300 -0.068200 -0.069900 -0.063200 0.010600 -0.276800 -0.008800 -0.090800 -0.121000 0.015100 -0.043300 -0.160800 -0.085100 -0.010300 0.026900 0.305900 -0.019900 0.011300 -0.854900 0.000100 0.661100 -0.121400 0.729400 0.005000 0.011900 -0.093800 -0.132500 -0.022100 0.035500 0.026400 0.024200 -0.006500 0.007400 0.319500 0.026000 0.007100 -0.008300 0.047800 -0.036800 0.055600 -0.094800 0.026300 0.007300 -0.039800 -0.091200 -0.049700 -0.233800 -0.018300 -0.014600 0.016600 -0.011400 0.129200 0.245300 0.497900 -0.041600 0.008700 -0.520200 -0.172000 0.072000 0.062300 0.262900 0.019500 -0.063200 0.002900 -0.224800 0.005900 0.004800 -0.014100 -0.014200 0.138500 0.154900 -0.031400 0.045800 -0.025800 -0.024700 0.049800 0.271700 -0.033000 0.154700 0.116300 -0.012600 -0.037600 0.001600 0.005100 0.100200 -0.294500 -0.051900 -0.058700 -0.176200 -0.016200 0.011100 -0.164100 -0.036500 -0.042600 0.066300 -0.032900 -0.035000 0.020700 -0.108500 0.016600 -0.002100 -0.097300 0.475800 0.055100 0.011400 0.078400 -0.026200 0.035000 -0.034500 -0.016100 0.025700 0.035500 0.065600 0.031200 -0.043400 0.066900 0.004300 0.081400 0.018800 -0.020800 0.073100 0.007100 -0.215200 -0.032300 -0.028600 -0.028000 0.035800 0.013600 -0.101700 0.673000 -0.068600 0.064600 -0.043200 0.090600 0.014700 -0.003700 -0.030600 0.003500 0.065800 0.058900 0.076900 0.052500 0.058900 0.060800 0.014200 0.020600 -0.032200 -0.028500 0.015700 0.069400 -0.022100 0.390500 0.016500 0.507900 -0.015300 0.051100 -0.080400 0.020100 0.019200 0.038000 -0.028200 0.094000 -0.087800 0.071100 0.051100 -0.031900 0.177300 -0.015300 0.016200 -0.009500 0.015000 0.003100 -0.042800 -0.044300 -0.124200 -0.002200 -0.041000 0.098100 0.100000 -0.002400 -0.062500 -0.001000 0.056800 0.007100 -0.140200 0.012600 -0.533200 -0.077600 0.293900 -0.031700 0.059700 -0.028200 0.014600 -0.007000 0.150400 0.054400 0.198200 -0.050800 0.013700 -0.059700 0.011400 -0.017400 0.083700 -0.030400 0.037300 -0.004900 -0.012600 -0.249500 -0.056700 0.002600 0.105700 0.013300 -0.035100 0.169700 -0.010100 -0.114800 -0.011700 -0.003600 0.604300 0.032300 0.048500 0.013300 -0.061500 0.109300 0.083700 -0.166000 0.037900 -0.032200 0.045000 -0.061900 0.022800 -0.027200 0.006100 -0.002500 0.093500 -0.065400 0.026800 -0.024200 0.030200 -0.082500 0.051900 -0.079600
in -0.003700 0.151000 0.056800 -0.028800 -0.002300 0.033200 -0.027300 0.305400 0.355700 -0.025700 -0.091900 0.140500 0.102800 -0.062600 -0.022100 -0.067800 -0.086900 -0.004100 0.110300 0.024800 -0.046700 -0.062800 -0.031400 -0.027600 -0.002900 0.030200 -0.010700 0.027500 0.027600 -0.052900 0.000100 -0.009900 -0.191900 -0.237800 0.007800 -0.022100 0.092900 -0.126700 0.094700 -0.184800 0.031700 -0.399700 -0.021900 -0.674800 -0.014600 -0.009300 0.051100 0.070200 -0.022700 0.309400 0.001700 -0.137900 -0.152500 -0.047000 -0.022800 0.023300 -0.023800 -0.174400 -0.041700 0.052500 -0.083000 0.041500 0.022200 -0.063800 0.022600 0.067500 0.061300 0.003300 -0.049200 0.090200 -0.147500 0.007900 -0.044500 -0.024300 0.016500 -0.529200 -0.544600 0.027700 -0.410300 0.024500 0.855700 0.028100 -0.054300 -0.045200 -0.016500 -0.012800 0.054300 -0.010500 0.015800 -0.005900 0.006500 0.378000 -0.019500 0.047400 -0.003900 0.163200 0.137900 0.413200 0.150000 -0.070300 0.043500 0.064200 0.022700 0.067400 -0.343500 0.026100 0.015500 0.006000 0.028200 0.037400 0.148000 -0.084000 0.041600 0.037500 -0.280800 -0.104400 -0.112500 0.015300 -0.005900 -0.007000 0.121200 0.017800 -0.148200 -0.036900 -0.006500 -0.006000 -0.030500 0.272000 0.407300 -0.019400 -0.130500 0.032200 -0.011700 -0.120800 -0.015900 0.117700 -0.068000 0.056900 0.015400 -0.169600 -0.104500 0.003800 -0.008000 0.387700 -0.072900 -0.005200 -0.088500 0.017900 0.111700 -0.035900 0.129500 -0.040500 0.029600 -0.018200 -0.022800 0.008200 0.281100 -0.015100 0.010400 0.049700 0.500000 0.017500 -0.010600 -0.010000 -0.047500 -0.009300 -0.037500 -0.053500 0.049800 -0.054200 0.019000 0.008600 0.177000 0.022200 0.033500 -0.065000 0.010800 0.027500 0.042500 -0.009600 0.098400 0.032300 -0.062400 0.027200 0.017300 0.009900 -0.106900 0.623300 0.150400 -0.022400 0.013400 -0.113800 0.094300 -0.007800 -0.094300 -0.028500 -0.084700 -0.020500 0.005400 -0.058100 0.005900 -0.011800 -0.089900 0.103300 0.009600 0.019500 -0.059000 -0.018600 -0.005600 0.036900 0.010500 0.610600 -0.029200 -0.016900 -0.000800 -0.091800 -0.029300 0.122200 0.037500 0.034900 0.049400 -0.167500 -0.005600 0.005000 -0.028200 -0.009100 -0.086300 0.107700 0.031100 -0.037900 -0.014700 -0.031600 -0.165500 0.012400 0.003700 -0.059500 0.087400 -0.021000 0.044400 0.000800 -0.014400 0.029100 0.015800 -0.014300 0.250100 0.092500 0.309500 -0.015500 0.000700 0.011100 0.034200 -0.148300 0.010300 0.008400 0.368300 -0.012000 0.020100 0.047800 -0.086100 0.011200 -0.007500 -0.020800 -0.006700 -0.020500 0.091100 -0.008800 -0.046300 0.008000 0.088200 0.061500 -0.003800 -0.094400 0.006800 -0.018600 0.042700 0.016600 -0.071400 -0.023100 -0.126700 -0.030300 0.017100 0.519800 -0.038800 0.034300 0.001700 -0.036100 -0.002500 0.075200 0.120300 -0.000600 0.002500 0.028300 0.018200 -0.085100 0.134100 0.034800 -0.019900 -0.061800 0.158500 -0.046600
is -0.220500 0.143400 0.038000 -0.010300 0.033500 -0.028100 -0.005800 -0.139200 -0.024600 -0.037700 -0.162300 0.105000 -0.065600 -0.057600 -0.101100 0.022700 0.044300 0.119500 0.065700 0.078100 -0.097100 0.024700 0.009600 -0.133100 0.059500 -0.022900 0.024600 0.003600 -0.006800 -0.151200 -0.110300 0.003600 -0.170300 -0.273500 0.093100 -0.028600 -0.056100 0.016200 0.148200 -0.038100 0.015900 -0.391300 0.016200 -0.044500 -0.072500 0.005700 -0.031500 -0.032800 0.007200 -0.224500 -0.080400 -0.449300 0.775400 -0.055700 -0.161000 0.041600 -0.028400 -0.074700 -0.058600 -0.041400 0.051900 0.537200 0.067800 -0.048200 -0.032500 0.063800 -0.064300 0.052600 -0.005100 -0.028700 0.096600 0.101000 0.134800 0.360900 -0.006100 0.112700 -0.096900 0.062200 0.291900 -0.061500 0.756300 0.058200 -0.012400 -0.119600 0.075200 -0.009000 0.070300 0.064200 -0.116500 0.019800 -0.002800 -0.019000 0.069200 0.051500 0.071000 0.077100 -0.500600 -0.015400 -0.076600 0.038300 -0.025000 -0.036700 0.141100 0.075100 -0.064400 -0.138600 0.029400 -0.118400 -0.066300 0.240200 -0.040100 0.024400 0.065000 -0.032900 -0.249600 -0.039200 -0.062900 0.032200 0.176700 0.015700 -0.170600 -0.000500 -0.217200 0.012900 -0.045700 0.030800 0.012800 0.114900 0.216800 -0.187200 0.013800 -0.028200 -0.023200 0.125700 -0.422200 -0.083800 0.011700 0.022000 0.177000 0.483700 0.149800 -0.079800 0.003200 -0.162200 0.153600 -0.083700 -0.073100 -0.095200 -0.028500 -0.016900 0.058900 0.015100 0.123800 0.007200 -0.043500 -0.025600 -0.223300 0.010800 0.122000 -0.114100 0.999700 -0.102600 0.015500 -0.011100 0.099100 -0.041400 -0.013000 -0.089200 -0.006000 -0.093100 0.000700 0.084500 0.046200 0.014400 0.162200 0.128600 -0.097600 -0.116400 0.071400 -0.111300 0.696500 -0.058000 -0.022200 -0.017100 0.093500 -0.079900 0.143300 -0.313500 -0.109100 0.014200 -0.047700 0.098300 0.133700 -0.012600 -0.004000 -0.012000 -0.062200 0.095300 0.158500 0.069300 0.024100 -0.088400 0.064400 0.126500 -0.061600 0.058800 -0.015500 0.059900 0.170900 0.226800 -0.001700 0.650700 0.026000 0.049200 0.033200 -0.172100 0.011000 0.046700 0.131100 0.024500 0.014900 0.155100 -0.010500 -0.035700 -0.077400 -0.001000 -0.013800 0.077900 -0.156400 0.088800 -0.070800 -0.057300 0.032300 -0.030700 -0.042900 0.069100 0.147000 -0.086000 -0.093900 0.041200 -0.063500 -0.101700 -0.025300 -0.081400 -0.420800 -0.057000 0.140800 0.089000 0.139300 -0.048700 0.025900 0.026400 -0.034800 -0.001600 0.298700 -0.010200 0.099700 -0.047700 0.016900 -0.018900 0.063500 -0.033500 0.003700 -0.039000 -0.081200 0.099800 -0.155600 0.084000 -0.099700 -0.010800 0.027800 -0.263100 0.078800 0.174100 -0.069800 -0.084600 0.157400 -0.131200 0.113600 0.091800 0.003500 0.111900 -0.072600 0.001700 0.056100 0.131800 0.082700 0.025400 -0.077400 -0.088300 -0.003900 0.055700 0.026600 0.231000 -0.009300 -0.389800 0.030000 -0.156000 0.181400 0.007200
for -0.002400 -0.036400 0.020800 0.021000 0.045800 0.007900 0.032100 0.417200 0.187300 -0.011300 0.088900 0.144900 -0.206000 -0.019100 0.042200 0.022000 -0.067400 -0.044800 -0.066300 0.063200 -0.050000 0.077300 0.052800 -0.018600 0.040400 0.030500 -0.035000 -0.025800 0.055600 0.361700 -0.001600 0.009500 -0.210900 -0.357200 -0.017600 -0.030400 -0.027700 -0.099800 -0.077800 -0.143600 -0.040500 0.047300 -0.070800 -0.182300 -0.092200 0.039100 0.022100 -0.040000 -0.023100 0.326400 0.035300 -0.166200 -0.108600 0.064100 -0.071300 -0.021700 0.131000 0.460900 -0.063100 0.014400 0.072800 -0.265200 -0.054200 -0.223400 0.039500 -0.051300 -0.120000 -0.016500 -0.142500 0.024200 -0.432200 0.002700 -0.011900 0.223300 -0.005800 0.552900 -0.341200 0.208600 0.122800 0.031700 0.937800 0.015200 -0.002900 0.001100 0.085700 0.001000 0.048600 0.074800 -0.006900 -0.021000 -0.048100 0.069000 -0.100900 0.114900 -0.020000 -0.147600 0.169300 -0.060900 -0.123600 -0.056100 0.026400 0.025400 0.022900 -0.033900 -0.167600 0.043300 -0.024000 0.047000 -0.032900 0.047600 0.121900 0.005600 0.112800 -0.018000 -0.547000 0.184900 0.195800 0.081300 0.198600 0.075400 -0.092300 0.105800 0.032800 -0.002400 -0.025900 -0.027100 -0.028300 0.132300 0.446000 0.013400 0.022200 -0.012200 0.055200 0.086900 0.032700 -0.066400 -0.535100 0.069800 0.027600 -0.057200 0.084400 0.077700 -0.019400 -0.231700 -0.053500 0.037200 -0.124300 0.054100 -0.023400 0.156500 0.090600 0.047100 0.030000 -0.085700 -0.020300 -0.093000 -0.366500 0.008900 0.040400 0.044000 0.592000 0.014600 -0.113400 0.001700 -0.016000 -0.003500 -0.020200 -0.011200 0.081400 0.013600 0.042300 -0.060800 -0.025200 0.060800 0.013500 -0.069000 0.000500 -0.011700 0.013200 0.080700 -0.113700 -0.032300 0.013100 -0.007600 0.019800 0.032000 -0.048900 0.048200 -0.208900 -0.049200 -0.000200 -0.020900 0.110700 0.032300 -0.080300 -0.062500 0.131200 0.067400 0.085700 -0.017500 0.192900 0.009300 0.031100 -0.031200 -0.030800 0.104500 0.032100 -0.009100 0.008400 0.172700 0.037900 0.562800 -0.011700 0.096700 -0.076900 0.116900 -0.067700 -0.009200 -0.041500 0.104700 0.027200 0.028900 0.003300 -0.029100 -0.524100 -0.038600 0.053600 0.048100 0.061100 -0.096300 -0.012700 0.060700 0.353600 -0.045000 -0.037600 0.122800 0.021800 0.029800 -0.002300 0.053300 0.027100 -0.049600 -0.101300 0.091300 -0.222900 -0.014000 0.419300 -0.030800 0.070400 -0.044800 0.019400 -0.057700 0.002400 -0.054200 -0.052100 0.019000 0.073800 0.044400 -0.091700 -0.019500 -0.051700 -0.047500 -0.012700 0.065800 0.087200 0.008000 0.022200 -0.094300 0.081100 -0.038200 0.008100 0.203900 -0.082400 -0.145100 0.010900 0.002100 -0.199800 0.004300 0.105000 -0.005100 0.074000 0.544100 -0.111100 0.090800 -0.073800 -0.056600 -0.064900 0.035500 0.051100 0.012600 0.033700 -0.027500 -0.004600 -0.134400 -0.005200 -0.017800 -0.047300 -0.097400 -0.150500 -0.075200
that -0.013300 -0.096100 -0.001300 -0.018200 -0.040700 0.048700 -0.194900 0.126700 -0.344100 0.027300 -0.067100 0.130000 -0.015900 -0.060300 0.012900 0.001500 -0.015600 -0.025100 -0.010100 0.086300 -0.075600 0.066800 0.007900 0.023300 -0.041500 -0.009600 0.068700 0.002400 0.021500 -0.248700 0.051800 0.043900 0.031400 -0.226100 -0.067200 -0.116900 -0.076500 0.088900 0.114900 0.167000 0.093400 0.252300 0.029900 0.253300 -0.018500 -0.009400 0.023100 0.002400 0.041200 0.200600 -0.057700 -0.391300 0.160700 -0.022400 0.054100 0.024300 -0.034600 -0.061700 -0.012500 0.063700 0.011200 -0.007000 -0.012600 -0.069600 -0.033400 0.062400 0.031900 0.025400 -0.077800 -0.167800 -0.161600 -0.054200 -0.152000 0.211100 0.014700 -0.179500 -0.566400 0.076000 0.230800 -0.006000 0.445400 0.059400 0.066300 0.015000 -0.091700 0.060700 0.015300 0.030100 0.023300 -0.015000 -0.020500 0.672100 0.088300 -0.041000 0.039300 0.027500 -0.024500 0.001000 -0.092500 0.022500 0.001400 -0.029100 0.071000 0.021800 0.034700 -0.009600 -0.052500 0.021600 -0.028600 0.152000 -0.019200 -0.221200 0.013200 0.066600 -0.593600 0.035700 -0.153600 -0.013300 0.040300 0.048000 -0.053700 -0.054500 -0.180100 -0.003500 0.041500 -0.044100 0.043500 0.062300 0.187400 -0.002000 -0.005700 -0.019800 0.028800 -0.034700 -0.071900 0.033200 -0.146300 -0.009000 0.049000 -0.392500 -0.038500 -0.005900 0.038000 0.422000 -0.001800 -0.033900 -0.027700 -0.039600 -0.034000 -0.131200 -0.026000 -0.043600 0.029200 -0.016900 -0.006300 -0.022900 0.133800 -0.028600 0.092000 -0.043100 0.403800 0.051000 -0.067200 0.046800 0.004800 -0.010800 0.030800 -0.037000 0.036500 0.022400 0.065800 -0.013500 0.065600 -0.096000 0.073600 -0.083100 -0.007900 -0.060100 0.055100 -0.015200 0.299300 -0.058700 0.005300 0.050000 -0.033900 -0.075900 0.161200 -0.200600 -0.050900 0.033100 -0.023700 -0.110400 -0.131000 -0.082500 -0.002000 0.006700 -0.063700 -0.026400 0.025500 0.058900 -0.007900 -0.027400 -0.009900 0.093800 0.099800 0.024600 -0.020200 -0.079000 0.111300 0.089300 0.030100 0.489800 0.083900 -0.056900 -0.015900 -0.073100 0.032100 0.119800 0.003200 0.006600 -0.067400 0.061400 0.055700 0.034600 -0.007100 -0.024400 -0.016400 0.009400 -0.088300 0.161700 -0.111500 -0.000500 0.106200 0.024700 -0.017300 0.062200 0.031900 -0.045500 -0.102900 0.054000 -0.010900 -0.043700 -0.129600 0.056200 -0.227800 -0.083300 0.031200 0.013000 0.025500 0.021400 0.087900 -0.127100 0.108100 0.043100 0.137700 -0.007400 0.103100 0.042300 -0.018700 0.016700 0.039800 -0.046100 0.064300 -0.106000 0.024200 -0.032800 0.003600 0.054000 -0.044100 0.011300 0.010100 -0.272200 0.088600 0.058000 0.011800 -0.068000 0.309100 0.008400 0.097100 -0.027500 -0.111400 -0.186000 0.021400 0.002500 0.034300 -0.122400 -0.007100 -0.010400 0.063100 0.048400 -0.021500 0.088600 0.091500 0.009800 -0.091800 0.039100 -0.010000 -0.082000 -0.131400 0.037400
it -0.012200 -0.122100 -0.012300 -0.068700 0.001000 0.056100 0.017400 0.274400 -0.198700 -0.021800 0.122600 0.126400 0.087800 -0.032300 -0.070500 0.011800 -0.103600 -0.045600 0.011700 0.078200 -0.014400 -0.081100 -0.003000 0.103500 -0.065400 -0.026000 -0.016300 0.088700 0.018800 0.216700 -0.007800 0.037800 0.096400 -0.323700 0.019300 -0.046400 -0.129100 0.114000 0.137900 0.086800 0.025900 0.086200 0.051900 -0.058800 -0.061000 -0.006600 -0.078300 -0.009200 0.031500 0.048500 0.018800 -0.241900 0.390600 -0.022500 -0.020700 0.035900 0.035300 -0.038500 -0.110500 -0.014300 0.096700 -0.011800 -0.010000 -0.249200 -0.046800 -0.095500 0.022600 0.002200 -0.069900 -0.019100 -0.217900 0.141000 0.114100 0.328400 -0.093200 -0.261000 -0.518500 -0.034500 0.021900 -0.069200 0.178700 0.000800 0.040600 0.035000 -0.030700 0.066500 0.026300 0.055000 0.057300 -0.018100 0.015400 0.448800 0.033700 0.012200 -0.092700 0.022900 -0.181900 -0.304100 -0.045600 -0.020000 0.032500 -0.101300 0.236900 0.035500 0.036000 0.024900 -0.052800 -0.089800 -0.023100 0.037700 0.184000 0.043000 -0.070300 0.028700 -0.510300 0.029900 0.073600 0.188600 -0.049100 0.063900 -0.175600 -0.089300 -0.229300 -0.008000 -0.019600 -0.094300 -0.001200 0.023600 -0.162400 -0.002200 0.021800 0.031400 -0.014000 0.070100 -0.188700 0.082800 -0.055100 0.024000 -0.060600 -0.388800 0.153400 0.099300 -0.032700 0.240500 -0.031700 -0.055200 -0.070900 -0.078100 0.184100 0.021600 0.065700 0.032400 -0.032100 0.027100 0.032300 -0.045400 -0.182700 -0.022300 0.038200 -0.137900 0.643800 -0.194900 -0.039800 0.026500 -0.050300 -0.006500 0.017200 -0.074900 -0.056400 -0.004000 0.004100 0.021300 0.084600 0.038200 -0.071500 0.001000 -0.055700 -0.025200 0.041300 -0.054300 0.478600 -0.065500 0.233900 -0.077700 -0.050300 -0.056200 0.148700 -0.442900 0.279500 0.025100 -0.096700 0.034600 0.236200 -0.030800 0.081500 0.025800 0.114300 0.031800 -0.088900 -0.037800 -0.043000 -0.033800 0.037500 -0.109600 -0.056200 0.000800 -0.026900 -0.031300 0.069000 0.019900 0.108100 0.577900 0.018100 -0.012200 0.033500 -0.105700 0.009700 0.024900 0.034700 0.088400 -0.105200 0.003100 0.036600 0.043600 0.064500 -0.105300 -0.093900 0.020300 0.039800 0.064700 -0.057200 -0.003400 0.268700 0.073800 -0.107700 -0.043600 0.057400 -0.003000 -0.053800 0.046800 -0.036000 0.097600 -0.094700 0.027100 -0.193500 0.043400 0.068900 0.026400 -0.072600 0.040200 0.079500 -0.102900 0.071300 0.041800 0.261600 0.059600 -0.043800 -0.036600 0.039900 0.028800 0.099700 -0.048200 0.007200 -0.111600 -0.021300 -0.041400 -0.016800 0.015800 -0.088700 0.001900 -0.031100 -0.292000 -0.043100 -0.018800 0.008900 -0.055900 0.210000 -0.134500 0.154300 0.050900 0.061100 -0.249800 0.101800 -0.079400 -0.017900 -0.087000 -0.022500 0.040100 -0.017700 0.003200 -0.068800 0.060400 0.004600 -0.046800 0.044500 0.071700 0.047600 -0.184300 -0.210000 0.014200
on -0.006200 -0.363300 0.025400 -0.167800 0.059200 0.000100 -0.349200 -0.362400 0.012900 0.022900 0.119100 0.134000 0.125400 -0.026100 -0.002600 0.074600 -0.030600 0.005600 -0.034900 0.037800 -0.044500 -0.036900 -0.048100 0.007800 -0.028200 0.012900 -0.055300 -0.023300 0.078700 0.254900 -0.029100 0.090400 0.098300 0.117400 0.006800 0.009300 -0.046200 0.061300 0.063200 0.071000 0.014600 -0.349100 -0.036700 -0.425500 -0.002200 0.001100 0.116200 -0.021500 0.004100 -0.146600 0.004700 0.255800 -0.332200 -0.032900 -0.042000 -0.066700 0.004200 -0.420800 0.080000 -0.053400 0.555700 -0.508000 -0.002100 -0.107300 -0.040400 0.137300 -0.282900 -0.023600 -0.213300 0.004200 -0.367400 0.042100 0.214300 0.050500 -0.022200 -0.036900 -0.587400 -0.165900 -0.346800 -0.032100 0.929500 0.001300 -0.056300 -0.020300 -0.040400 0.053900 0.051000 -0.006900 0.019800 0.154400 -0.045800 0.250300 0.043000 0.063200 -0.003500 0.016900 -0.046800 -0.013700 0.212800 0.108900 0.002500 0.027900 -0.128900 0.002700 -0.087500 0.014900 0.082400 0.009400 0.023900 -0.139200 -0.499900 -0.060100 -0.061900 0.057000 -0.515300 -0.003700 -0.019100 -0.003500 0.140100 -0.062600 0.372300 0.068800 0.336800 0.024400 -0.033100 -0.004800 -0.024300 0.068600 0.323800 0.035600 -0.089600 -0.001800 0.011800 0.187700 0.139400 -0.122300 0.164200 0.081400 0.027100 -0.221300 0.079100 0.044400 0.075600 0.430400 -0.051700 0.030800 -0.216900 0.059700 -0.149500 -0.075300 -0.028300 0.075000 -0.018000 0.120000 0.074400 -0.058200 -0.117300 0.001700 -0.025700 0.024900 0.461000 0.124000 -0.038000 -0.013900 -0.028000 0.046400 0.047900 -0.055900 0.001700 -0.110100 0.082500 -0.035600 -0.195800 0.098800 -0.074200 0.082600 -0.066800 0.026800 -0.009900 -0.051400 0.158500 0.006000 0.050000 -0.001400 0.007100 0.019000 0.227300 -0.151700 -0.255700 -0.026900 0.047100 -0.012900 0.100000 0.014100 -0.137000 -0.057400 -0.045500 -0.074200 -0.054100 -0.007500 0.165300 -0.078400 -0.045800 -0.189300 0.040400 0.030300 -0.010400 0.035100 -0.170700 0.124800 0.004500 0.464100 -0.069000 -0.107700 -0.014600 -0.009100 0.019700 -0.022400 -0.067600 0.122000 0.077100 -0.019700 0.001500 0.050700 -0.184500 0.000300 0.009400 0.072600 -0.058600 -0.201300 -0.036300 0.081000 0.331200 0.058000 -0.067400 -0.080400 -0.057600 -0.014700 0.041700 -0.071100 -0.018600 -0.110800 -0.006700 0.073200 0.164300 -0.001800 0.527200 0.046500 0.054800 0.040600 0.053200 -0.188600 -0.131800 -0.046600 0.012900 0.044200 -0.088800 -0.116700 0.093200 0.118100 -0.044500 0.026200 -0.005400 -0.030700 -0.016900 0.187600 0.006400 -0.098900 0.495100 0.006200 -0.015300 0.027800 0.034500 -0.040100 -0.039900 0.029200 0.243400 0.066600 0.114600 0.026700 0.009500 -0.013800 0.022500 -0.105700 0.251500 0.092000 0.088200 0.033700 0.053100 0.126400 0.027100 -0.020300 0.011500 -0.501700 0.170800 0.007100 0.019600 -0.278400 -0.109900 0.015200
with -0.044600 0.189200 0.181200 0.096900 0.118800 -0.023300 -0.240400 0.164200 -0.159200 -0.020000 -0.108300 0.126100 -0.048100 -0.066000 -0.049000 -0.031000 -0.330100 0.033700 0.041600 0.011600 -0.014000 -0.067200 0.003500 0.013400 0.005000 -0.003400 -0.003500 0.011800 -0.023600 0.298500 -0.023000 -0.033600 0.197800 -0.059000 -0.015400 -0.030700 0.023100 -0.011700 0.027200 -0.050700 -0.057900 -0.203500 0.164900 -0.197600 -0.033400 0.004800 0.000700 0.121000 -0.064500 0.204100 -0.067400 -0.029700 -0.095500 -0.057400 -0.025300 0.000300 -0.010400 -0.019900 0.019100 0.003100 -0.138900 -0.647200 0.025200 -0.069800 -0.057100 -0.080800 -0.087800 0.012400 0.029100 -0.045000 -0.357100 -0.006400 -0.066000 0.117500 0.072600 -0.037400 -0.388700 -0.089900 0.206300 -0.013400 0.970800 -0.056000 -0.072200 0.003100 -0.042200 0.087900 0.035600 -0.005400 -0.067700 0.089400 -0.054100 0.450600 0.051200 0.163000 -0.052200 -0.251300 0.130100 0.377300 -0.310900 0.012100 -0.039500 -0.056500 -0.277400 -0.051300 0.210200 0.055600 0.092800 -0.025000 -0.038900 0.007200 0.273300 0.129800 0.004700 0.056400 -0.409900 -0.082800 -0.440800 -0.011600 0.115600 -0.005600 -0.046000 -0.077400 0.247800 -0.061200 -0.009500 0.016300 -0.018700 -0.165100 0.529700 0.024500 -0.015100 0.007500 0.105300 -0.221700 -0.142300 -0.016700 0.047500 0.086400 -0.025900 -0.029600 0.101400 0.095900 -0.023100 0.260500 -0.063900 0.064400 -0.051500 0.011600 0.074900 -0.072900 0.032900 -0.009300 0.028100 0.037000 -0.018200 -0.050700 -0.049400 0.049200 -0.007900 -0.000600 0.562700 0.218700 0.158500 0.055300 -0.023000 -0.060700 -0.013100 -0.040300 0.028600 -0.090100 -0.006800 -0.061600 -0.108200 -0.039200 -0.093900 0.118700 0.040000 0.083100 -0.104200 0.064300 -0.266200 0.016500 0.093100 -0.026400 0.016900 0.065000 -0.187200 0.383700 -0.027600 -0.001300 -0.023800 0.075600 0.090200 -0.005100 0.025900 -0.059400 -0.047900 0.002800 0.037700 0.104000 -0.216600 0.004300 0.074900 0.074600 -0.035400 0.059300 0.065500 -0.064500 -0.097500 0.082600 0.003000 0.495600 0.040000 0.032600 -0.050600 -0.024800 -0.020800 0.108200 0.032800 0.017200 0.130200 0.125500 -0.061800 -0.022600 0.004500 0.053500 0.037300 0.043100 0.030900 0.041400 0.025300 -0.051700 0.047000 -0.141400 -0.031000 0.144000 -0.020400 0.026000 0.050600 -0.058000 -0.012200 0.095400 0.083700 0.102100 0.083000 -0.011500 0.350800 0.063000 0.049800 -0.047500 0.076000 -0.295800 -0.085700 0.069600 0.151000 -0.022100 0.126600 -0.146400 -0.089600 0.057400 0.051200 0.064400 0.004500 -0.080000 0.106700 -0.130800 0.037600 -0.059200 0.071100 -0.011900 -0.032200 -0.184700 -0.033100 -0.124600 -0.026700 -0.045000 0.005200 0.053200 0.021300 -0.031600 -0.159800 0.100700 0.087900 -0.086900 0.079300 0.128400 0.001500 0.061900 0.241600 -0.012300 0.040300 -0.006200 -0.002600 0.168400 -0.084900 -0.049800 0.044600 0.220200 0.228700 -0.061300
) -0.212300 -0.006800 0.030500 0.129200 0.124900 -0.250100 0.164600 -0.164800 -0.136500 0.043400 0.023600 0.055200 0.159800 -0.128400 -0.129600 -0.157900 -0.019800 -0.075200 0.042400 -0.013600 0.070600 -0.131000 -0.156100 -0.126200 0.025100 0.083300 -0.022300 0.092700 -0.110000 0.051800 -0.057500 0.115700 -0.313500 0.060700 -0.212400 -0.059800 0.158100 -0.120500 0.043600 -0.246800 -0.204000 0.283700 0.082300 -0.421700 0.128200 -0.098400 -0.070100 0.108600 0.084600 0.015900 -0.128300 0.199500 0.046400 -0.157400 -0.053200 -0.116000 -0.062000 0.282700 0.006400 0.014600 -0.167000 0.249900 -0.053700 -0.243300 0.128900 -0.072600 0.140000 -0.174800 -0.053500 0.178700 -0.169100 0.053300 0.223000 -0.233200 -0.078300 0.207600 -0.545100 0.157600 -0.041900 0.049600 0.442100 0.081700 -0.082400 0.048700 0.116200 -0.043000 -0.008800 -0.100300 0.010400 0.008900 0.070200 0.266000 -0.059300 -0.072500 0.136600 -0.092300 -0.038100 0.065700 0.029100 0.058500 -0.081800 0.260600 -0.069500 0.018800 0.135400 0.112400 -0.030200 0.057200 -0.126600 0.041500 -0.088700 0.069200 -0.030800 0.033800 -0.427200 -0.105300 0.131600 0.082900 -0.199900 -0.072200 0.022800 -0.074000 -0.054500 -0.131000 -0.021100 0.245900 0.073100 -0.026400 0.333600 -0.059600 0.057000 0.080700 0.009500 -0.087200 -0.329400 0.047000 0.275600 0.073300 0.065800 -0.041600 0.020900 -0.141000 -0.007300 -0.204000 0.007300 -0.031300 0.111600 -0.057600 -0.060900 0.103600 -0.166700 -0.004700 -0.125100 -0.011400 -0.007700 -0.074400 -0.035800 0.102600 0.172500 0.025600 0.708500 -0.212600 0.006400 0.179200 -0.101600 0.209900 -0.151800 -0.182100 0.070100 0.078600 -0.111600 0.115300 -0.002700 0.014500 -0.001300 0.122600 -0.091200 -0.014100 0.102600 -0.160800 0.039100 0.109300 0.128300 0.021000 0.036500 -0.005800 -0.072500 -0.003000 0.211000 0.127000 0.000100 -0.071400 0.106300 -0.118500 0.164800 0.090700 -0.004300 0.161000 0.044000 -0.015500 -0.095900 0.096600 -0.023100 -0.021700 0.116500 -0.006500 -0.093800 -0.073200 0.005100 0.025800 0.073100 0.435800 -0.101400 0.106800 0.136700 0.242200 -0.132800 -0.059700 0.096000 0.012200 -0.086900 -0.320600 -0.049100 0.025500 -0.125600 -0.050400 0.004400 0.044200 -0.183400 -0.156000 -0.005000 0.022700 -0.122800 -0.068400 0.032900 -0.160100 -0.044300 0.000200 0.021700 -0.048500 0.100200 0.000600 -0.079500 0.105800 -0.017800 0.046800 -0.361200 0.020300 0.079100 -0.006100 -0.025400 0.015400 -0.080500 -0.092000 0.076300 0.022300 -0.191600 -0.063100 -0.035900 0.100300 -0.183200 -0.253800 -0.074000 0.000800 0.089900 -0.129800 -0.129500 0.273700 0.122700 -0.126200 -0.011100 0.216500 -0.171600 0.031500 0.044600 -0.014200 0.125500 -0.072200 0.014300 -0.137000 0.033500 -0.435200 -0.106400 0.009800 -0.064800 -0.005600 -0.091100 -0.011100 -0.124000 0.050600 0.046900 -0.091500 -0.082600 0.005400 -0.069000 -0.104600 -0.023000 0.101700 -0.018300 0.139300
( -0.206100 0.091700 0.024300 0.071800 0.112700 -0.236900 0.231800 -0.042100 -0.129800 0.038000 0.007500 0.115700 0.174400 -0.122200 -0.123000 -0.141100 -0.121900 -0.061500 0.078800 -0.021000 0.053400 -0.103000 -0.167200 -0.131800 0.017700 0.088100 -0.053600 0.054300 -0.073000 -0.002300 -0.051000 0.101600 -0.265200 0.111400 -0.198800 -0.079500 0.130100 -0.106100 0.059500 -0.301300 -0.178700 0.243200 0.101200 -0.121800 0.120600 -0.102100 -0.044800 0.119000 0.069300 -0.042200 -0.099800 0.146300 -0.016800 -0.189900 -0.044600 -0.106000 -0.071400 0.254100 0.002200 0.039600 -0.204000 0.244300 -0.033400 -0.355800 0.149300 -0.027800 0.110300 -0.167600 -0.049300 0.197200 -0.072400 0.061900 0.167700 -0.259300 -0.041600 0.278200 -0.517400 0.213200 -0.349000 -0.035800 0.631900 0.038100 -0.080000 0.080500 0.102500 -0.023700 -0.012800 -0.094200 0.039300 0.022800 0.059600 0.249700 -0.031800 -0.062400 0.140700 -0.088500 0.059500 0.037000 0.045800 0.051300 -0.062700 0.240800 -0.122400 -0.015300 0.133700 0.127600 0.004800 0.057700 -0.108900 0.013200 -0.148800 -0.097500 -0.029300 0.023900 -0.239600 -0.005300 0.022800 0.076800 -0.117700 -0.077400 0.030900 -0.046300 0.012100 -0.136300 -0.016500 0.233300 0.055200 -0.041700 0.475400 -0.060900 0.070100 0.091600 -0.008900 -0.103200 -0.298500 0.055100 0.332700 0.064200 0.074700 -0.008800 0.067500 -0.136000 -0.030900 -0.188000 0.013500 -0.018200 0.065200 -0.029000 -0.069500 0.029500 -0.144900 -0.019400 -0.117600 0.008500 -0.003700 -0.070300 -0.009000 0.079200 0.176800 0.025200 0.681400 -0.196600 -0.019900 0.165200 -0.129100 0.189900 -0.131000 -0.141000 0.072100 0.060800 -0.101700 0.138800 0.006900 0.017800 -0.007000 0.126400 -0.116800 0.015400 0.094300 -0.152300 -0.019300 0.101300 0.129800 -0.011200 0.032800 -0.033900 -0.100200 -0.097300 0.180200 0.147400 0.017600 -0.071800 0.081000 -0.120100 0.176200 0.085400 0.049300 0.135300 0.040100 -0.023400 -0.123000 0.117900 -0.048100 -0.041600 0.133900 -0.018600 -0.094500 -0.048500 -0.015000 0.005900 0.084800 0.536900 -0.097100 0.097800 0.134800 0.258300 -0.131100 -0.016800 0.084300 0.069900 -0.083300 -0.214300 -0.065900 0.077200 -0.085400 -0.050300 0.015200 0.070900 -0.231600 -0.208000 0.026800 0.015700 -0.064700 -0.052900 0.033700 -0.074400 -0.036300 0.004600 0.002800 -0.060300 0.111100 -0.072600 -0.070100 0.131300 0.070700 0.030900 -0.055100 0.033400 0.070700 0.012000 0.015700 0.027500 -0.088900 -0.082900 0.117800 0.014500 -0.179200 -0.050100 -0.027900 0.131300 -0.174100 -0.226000 -0.087800 -0.020500 0.109700 -0.151900 -0.128100 0.335200 0.116200 -0.129900 -0.026300 0.192000 -0.148200 0.082000 0.055200 -0.008400 0.122400 -0.013200 0.046800 -0.146000 -0.017600 -0.289300 -0.104800 0.013800 -0.021400 -0.033200 -0.084700 -0.010300 -0.114700 0.048300 0.011100 -0.075800 -0.069000 0.216500 -0.092200 -0.119100 -0.018500 0.052900 0.056900 0.155300
you -0.085800 -0.089100 0.362100 0.135400 0.032800 -0.040100 -0.110900 0.152700 0.057900 -0.066000 0.146000 0.163100 0.019000 -0.136500 -0.030600 -0.149000 -0.070300 -0.115500 -0.063300 0.054100 0.199600 0.013600 -0.196700 0.076700 0.105600 -0.193300 0.213600 0.112900 0.003500 0.113700 -0.146200 -0.007300 0.166700 -0.032400 -0.015100 -0.257800 0.135500 0.044700 0.025400 0.063600 0.004600 0.605800 0.059300 0.261700 -0.070300 0.179400 0.016200 0.068700 -0.014300 0.439100 0.110200 -0.472500 0.639000 0.120500 -0.042400 0.046400 -0.026400 -0.083400 -0.079600 0.067100 -0.055700 -0.262500 -0.010500 -0.244400 0.091000 0.164900 0.019200 -0.151400 0.025700 -0.245900 -0.162300 0.035200 0.093800 0.308200 0.080900 -0.262600 -0.759200 -0.089500 0.186700 -0.054800 0.471500 0.026400 -0.035800 -0.115900 -0.121300 -0.051900 0.091800 0.015600 -0.060800 -0.045200 0.100000 0.184700 0.116100 -0.039100 0.089300 -0.121100 -0.239900 -0.048600 0.005300 0.059500 -0.084600 -0.168900 -0.002300 -0.103900 0.122400 -0.282600 -0.028800 -0.219000 0.013800 0.033000 0.091800 -0.339200 0.081900 0.119600 -0.306400 -0.140900 0.146200 -0.111000 0.120500 -0.053600 0.082400 -0.147100 -0.313600 0.176000 -0.195900 0.046900 -0.047100 -0.091000 -0.383000 -0.012400 -0.067500 -0.047700 0.154600 0.085000 0.206000 0.081600 -0.261000 0.152900 0.161100 -0.694500 -0.252900 0.204200 0.090300 0.202000 -0.069600 0.011800 -0.015300 0.188600 0.080400 -0.010600 -0.026100 -0.004700 0.107300 -0.141300 0.021300 0.109700 -0.159700 -0.108600 0.133300 -0.056300 0.573100 0.021000 0.047300 -0.022400 0.198700 -0.171200 -0.003600 -0.182700 0.110700 -0.255800 0.026600 0.202000 -0.033600 -0.091700 -0.090700 -0.053500 0.015800 -0.088900 0.011000 0.109300 0.301800 -0.210300 -0.022600 -0.043200 0.085200 -0.135100 0.078600 -0.184700 -0.212200 -0.153700 0.186900 -0.058600 -0.091100 -0.107500 0.075400 0.021400 0.028400 -0.017200 -0.125500 -0.231600 -0.045500 -0.064400 0.153000 -0.111400 -0.004000 -0.028000 0.012000 -0.104900 -0.059100 -0.113700 0.100600 0.479400 0.044900 0.102700 0.072900 -0.225200 -0.166700 0.143600 0.059600 -0.039200 -0.145400 0.137400 0.030900 -0.157800 -0.024200 -0.087600 -0.065300 0.060100 0.037500 0.013600 0.019600 0.014300 -0.050600 0.067200 -0.064900 0.093300 -0.021700 -0.191300 0.077200 -0.019600 0.114700 0.055600 -0.145300 0.038100 -0.118800 -0.104700 0.118400 0.044300 0.039400 0.096600 -0.071300 0.031800 0.086300 -0.066500 -0.173700 -0.064200 0.157400 0.063500 0.048000 0.102600 -0.006500 0.045200 0.081400 -0.161600 0.053500 0.050200 -0.034100 -0.170000 0.071500 -0.020000 0.145700 -0.036800 -0.180900 0.162700 0.028700 -0.169200 0.115400 -0.039800 -0.005800 0.319600 0.008900 -0.196700 0.009000 0.018700 -0.059600 -0.009900 0.005300 -0.007800 0.090300 0.103800 -0.070500 0.113700 0.177100 0.120500 -0.063000 -0.261500 0.081300 -0.042500 -0.067100 0.028000
was 0.160700 -0.077800 -0.007800 -0.003600 -0.019800 0.131500 -0.021300 -0.154900 -0.009300 0.028900 -0.193700 0.151200 -0.021100 -0.090000 -0.161400 -0.036400 -0.039700 -0.172700 0.103300 0.122400 0.037600 0.067300 0.026900 0.116400 -0.206200 0.046300 -0.001000 0.126700 0.095500 0.054700 0.218200 0.076100 -0.137200 -0.118800 0.028300 -0.066000 -0.091400 0.076400 0.072800 -0.094900 -0.012700 -0.212600 0.020700 -0.027200 -0.042700 -0.072100 0.165200 -0.097200 -0.003000 -0.375600 -0.090100 -0.529400 0.960000 -0.115000 0.237900 -0.093700 -0.055600 -0.272100 0.063000 -0.088100 0.082200 0.368000 -0.139000 0.043000 -0.100900 -0.073100 -0.045100 -0.044800 0.030300 0.021200 0.036800 -0.136700 -0.031700 0.263600 -0.173500 0.029800 0.006300 0.043500 0.265500 -0.080200 0.770700 0.048800 0.020100 -0.100100 -0.059800 -0.033000 -0.075300 -0.235400 0.076000 0.012300 -0.189500 -0.093700 0.011600 0.082600 0.007100 0.113200 -0.503400 -0.039200 0.027600 0.025800 0.018700 0.007100 0.038100 0.140200 -0.036900 0.482800 0.019200 0.076800 -0.052900 0.217900 -0.100100 0.098200 -0.052900 -0.004100 -0.248200 -0.266000 -0.047100 0.098600 -0.131000 0.064800 0.034000 -0.026300 -0.196400 -0.167300 0.294500 -0.266000 0.034600 0.117800 0.143800 0.157500 0.099500 0.174600 0.072400 -0.093200 -0.413400 0.024400 -0.041400 0.134900 -0.486500 0.589200 0.010100 0.073400 -0.037100 -0.038800 -0.234900 -0.001700 -0.166600 0.042500 0.032500 0.148600 0.101500 -0.053100 -0.107300 0.151800 -0.113100 -0.200100 -0.041600 0.095000 -0.169000 -0.003000 0.954700 -0.154100 -0.063300 0.110300 -0.343900 -0.018600 -0.060900 -0.071800 -0.063400 0.044500 0.006300 -0.033500 0.001600 0.047900 0.061200 0.045900 0.141500 0.323200 0.039900 0.103900 0.716500 -0.072400 0.121800 0.231900 -0.025500 0.104800 0.232800 -0.298600 0.018900 0.146300 -0.116100 -0.061500 0.199000 -0.013800 -0.090600 0.006300 0.231100 -0.011200 0.010500 0.262100 0.032000 0.229700 -0.096800 0.181700 -0.041200 0.016900 -0.052400 -0.003500 -0.086000 0.263200 0.028900 0.743500 -0.125600 0.044400 -0.134200 -0.218100 -0.071400 -0.036700 -0.135500 0.036800 0.015600 0.137200 0.069100 0.139100 -0.064900 -0.054700 0.043100 0.056800 -0.024300 0.044000 -0.022300 -0.092900 -0.321300 -0.044200 -0.016300 -0.021800 0.100600 -0.081700 -0.051200 0.025300 -0.110500 0.065600 0.004600 0.137100 -0.539500 -0.032200 0.100500 -0.011800 0.016500 0.013600 0.028000 0.051400 0.049500 -0.067900 0.103000 0.099000 0.026200 -0.137300 -0.021800 0.076400 0.070400 0.010800 -0.019800 -0.060100 0.237900 0.098700 0.134500 0.174000 -0.180200 -0.025600 0.040300 -0.165100 0.023700 -0.014200 0.008600 -0.032200 0.021300 -0.222200 0.097600 -0.099800 0.158100 0.163200 -0.010200 -0.012600 0.188200 0.024200 0.009000 0.090200 -0.058300 0.043300 0.080300 0.223800 -0.040700 0.289100 -0.053500 -0.460700 -0.063900 -0.103200 0.057200 -0.006300
are -0.106300 0.066900 0.063800 0.328900 0.013800 -0.033700 -0.195900 -0.426000 0.724900 -0.050400 -0.068800 0.075300 -0.078700 -0.042400 0.033800 -0.004000 0.250900 0.078000 0.117500 0.035100 -0.239700 -0.039300 0.023500 -0.076600 0.002000 -0.051300 -0.124600 0.096100 -0.064600 -0.126600 -0.128400 0.026100 -0.024500 -0.148600 0.012900 -0.010200 0.098300 -0.120800 0.074600 0.104100 -0.094200 0.224200 -0.154300 -0.031200 0.075200 0.028500 -0.040900 0.043600 0.055200 -0.231000 -0.034000 -0.791100 0.862200 0.051900 -0.203500 0.041300 -0.070600 0.526700 -0.184600 0.139200 -0.139900 0.106700 0.017600 0.016700 -0.052200 0.265600 -0.030300 -0.057600 -0.017100 -0.094000 0.179700 0.033400 -0.063600 0.242600 0.038000 -0.417800 0.491400 -0.048100 0.369500 0.052700 0.681800 0.112900 0.033900 -0.085600 0.089400 -0.010800 0.093200 0.079700 -0.183800 -0.004500 0.065800 -0.151500 0.078200 -0.007700 0.187100 -0.160800 -0.509300 0.049700 -0.051600 0.104700 -0.041000 0.008600 -0.066900 -0.025100 0.041800 -0.206100 0.085900 -0.056300 -0.069600 0.050500 -0.009900 -0.111300 0.025700 0.064600 -0.814800 -0.039500 -0.058800 -0.073400 0.045900 -0.144300 0.033000 -0.060800 0.269400 0.045900 -0.190900 0.079200 0.041500 -0.204600 0.313200 -0.197400 -0.016300 -0.036600 0.037300 0.002700 -0.678900 -0.141700 -0.264800 -0.043800 0.265900 0.455800 -0.116100 -0.077500 0.002900 0.142700 0.051600 -0.121700 -0.001300 0.087000 -0.053100 -0.077500 -0.158400 0.040700 0.095000 -0.048200 0.073200 0.005200 0.184400 0.074400 0.114100 -0.069000 0.914300 0.104600 -0.014000 -0.165500 0.196200 -0.011300 -0.066100 -0.076400 0.103900 -0.257600 0.024000 0.107400 -0.107300 -0.158200 0.253700 0.020200 -0.176400 -0.183800 -0.053500 -0.033100 0.593900 -0.006800 -0.081600 -0.078400 0.155800 -0.076400 -0.059100 -0.207700 -0.361300 -0.046300 0.130300 0.012500 -0.099700 -0.042400 0.019600 0.036400 -0.082800 0.055300 0.065000 0.004500 0.110500 -0.069800 -0.019200 -0.066100 -0.049400 0.073900 -0.079000 -0.026300 -0.031500 -0.332500 0.048900 0.869500 0.089200 -0.056500 0.075400 -0.029500 0.021900 0.044900 0.075000 0.068200 -0.153300 0.206800 0.000700 -0.033700 -0.109300 0.056100 0.028800 0.098700 -0.133800 -0.039100 -0.076600 0.068700 -0.042200 0.025200 -0.027800 0.244800 0.175300 -0.013200 -0.063500 -0.027800 -0.015800 -0.067900 -0.211600 -0.166300 0.135800 0.038300 0.275500 0.087400 -0.031300 0.002700 -0.008200 -0.205700 -0.015400 -0.049100 -0.221900 -0.129300 0.056000 0.016500 -0.055700 0.002600 -0.096700 0.026500 -0.033200 0.040700 -0.046900 0.235900 -0.016000 0.145900 -0.165300 -0.035400 0.092300 0.489000 0.156000 -0.089800 -0.043000 -0.084900 -0.129200 0.032300 -0.048300 0.172100 -0.123400 0.265100 -0.250500 -0.005200 -0.039500 0.197600 -0.004300 0.000100 -0.103000 -0.155100 -0.082800 0.065600 0.130900 0.373900 -0.055100 -0.413300 -0.016900 -0.182900 0.135200 0.042000
this -0.170500 -0.116600 0.113200 -0.008300 0.043800 0.068800 0.137900 0.371700 -0.148400 -0.074200 -0.049700 0.028900 -0.096700 -0.062300 0.040600 0.122700 0.003600 0.046900 -0.049000 0.051100 -0.046700 -0.045700 0.064800 -0.033300 -0.101800 -0.071800 -0.004600 0.007600 0.088200 -0.110800 0.058500 -0.012200 0.041700 -0.306500 0.019100 -0.085200 -0.064200 -0.088300 0.176400 0.088400 0.047900 0.013000 0.072900 -0.177800 -0.057800 -0.013300 0.050000 0.102600 0.074700 0.057400 -0.007800 -0.083400 0.534100 0.040000 -0.113200 -0.143400 -0.011600 -0.368500 -0.054200 0.011900 0.113300 0.036900 0.052500 0.165200 -0.079000 0.144300 0.125300 -0.092200 -0.003800 -0.091000 -0.388800 0.019300 0.133400 0.257500 -0.007800 0.090500 -0.639300 -0.154000 0.237300 0.073600 0.421400 -0.022300 0.009600 0.073300 -0.104300 0.047200 0.021400 0.093200 0.046800 -0.113800 -0.060700 0.330900 0.030100 0.025200 0.010400 0.102800 0.135800 -0.004000 -0.101300 0.021400 0.038300 -0.029800 0.128800 -0.114400 0.020800 0.038900 0.083000 -0.068600 0.063500 -0.122900 -0.199200 -0.131700 0.043500 -0.039000 -0.695400 -0.076200 -0.268800 0.045900 0.164200 -0.024700 -0.301700 0.008600 -0.415700 -0.065500 -0.055500 -0.044200 -0.001100 0.035400 0.055100 0.009200 -0.033200 0.118100 0.162300 0.047600 0.164400 -0.065800 -0.128200 -0.038700 0.073400 -0.279100 0.025900 0.158500 -0.018100 0.367500 0.068200 0.001500 -0.171800 -0.021600 0.025200 0.002100 0.004500 0.070400 0.065000 -0.034900 0.005800 -0.101300 0.029400 -0.052400 0.022200 -0.016200 0.331200 -0.083300 0.015600 -0.053800 0.027900 -0.009200 -0.069700 -0.099000 0.029700 0.022300 -0.094300 -0.059400 -0.012200 -0.015100 -0.075600 -0.059300 -0.113300 0.029700 0.060300 0.002200 0.203900 0.019800 0.032900 0.055800 0.036900 -0.090500 0.160700 0.013100 -0.018900 0.017700 -0.036700 0.034400 0.015900 -0.023200 -0.013500 -0.118300 0.037100 -0.040800 -0.030600 -0.031100 0.155800 -0.035500 -0.036900 -0.081300 -0.050000 -0.008700 -0.039800 0.149600 -0.021200 0.218900 0.032900 0.450600 0.100200 0.068700 -0.044500 -0.113100 0.015900 -0.016900 -0.003500 0.069800 -0.033200 0.075000 -0.013800 0.049600 0.008000 0.041100 0.039000 0.049600 0.028500 0.002100 -0.134500 0.089900 -0.079400 0.023400 -0.026500 0.166400 0.059100 -0.036200 0.066200 -0.114000 -0.090000 0.020100 -0.068800 -0.102100 -0.432600 0.085700 0.282400 0.044000 -0.025100 -0.128400 0.087700 0.085500 0.106500 -0.027300 0.378000 -0.051300 0.026900 0.054300 0.113900 0.101000 0.013500 0.012100 -0.017800 -0.069800 0.052400 0.080900 0.100100 -0.111100 -0.021500 -0.005700 -0.014000 -0.188300 0.057900 0.160800 -0.036300 -0.092300 0.024000 0.011700 0.176800 0.057300 -0.078600 -0.081500 0.012400 -0.038000 -0.152000 -0.164400 -0.086200 0.012000 0.126900 -0.020400 -0.026000 0.056400 0.039700 -0.465400 -0.150400 0.106800 0.051500 0.057300 0.131700 0.048500
have -0.099000 -0.087200 0.090500 0.055900 0.123200 0.045300 -0.159600 0.102000 -0.152500 0.064500 -0.031200 0.136400 0.005900 -0.060600 0.143600 -0.031900 -0.326100 0.105100 -0.020000 0.132100 -0.163000 -0.042600 -0.063800 0.055500 -0.059700 -0.053400 -0.012700 0.019200 -0.025800 0.119700 -0.097300 -0.076400 0.238800 -0.229900 0.007000 -0.060500 -0.001800 -0.004300 -0.015200 -0.002700 -0.014000 0.500000 0.043000 0.029700 0.052700 0.064200 -0.008700 0.093100 0.097300 0.544100 -0.102100 -0.236200 0.550100 -0.050900 -0.133700 0.009300 -0.066200 -0.191700 -0.065400 0.120400 -0.330100 -0.354900 -0.056400 0.054300 -0.036700 0.129400 0.034100 0.008100 0.036200 -0.001400 0.473700 0.120600 -0.147400 0.337600 0.016100 -0.192000 0.040200 -0.170700 0.420900 0.055900 0.569600 0.061100 0.092800 -0.028100 -0.006000 -0.021500 0.064600 0.051700 -0.066400 -0.116000 0.019700 0.130300 -0.001900 -0.096100 0.050400 -0.025600 -0.563700 0.271200 -0.209900 -0.060600 0.032500 -0.001100 0.162500 -0.038900 -0.186200 -0.078400 0.002200 -0.001200 -0.057800 0.170300 -0.054200 0.240000 0.046900 0.112200 -0.688300 0.262100 0.123500 0.012300 -0.005400 -0.017000 -0.063900 0.006300 0.460300 0.031200 -0.087000 0.024800 0.055800 -0.089800 0.431400 -0.125700 -0.080400 -0.002100 -0.022700 -0.131400 0.198500 -0.030200 -0.132800 0.035500 0.184300 0.021900 -0.078000 0.032200 -0.034700 0.282300 -0.036500 -0.141700 -0.037300 0.068400 -0.052500 0.158400 -0.074200 0.070700 0.097800 -0.081300 0.063500 -0.085400 0.035800 0.067100 0.072200 -0.021700 0.726300 0.125800 -0.008200 -0.193900 0.015600 -0.004400 -0.008300 -0.077800 0.046900 -0.062500 0.013000 0.058600 0.027500 0.009700 -0.054100 -0.054400 0.029300 -0.064500 -0.115000 -0.025000 0.289800 -0.032000 0.057700 -0.063600 0.047200 -0.159500 -0.094800 0.439100 -0.151500 -0.009200 0.026400 0.071300 0.125700 -0.065400 0.035500 0.037300 -0.164000 -0.023600 0.046100 0.099400 -0.064600 -0.036600 0.033000 -0.117000 -0.005100 0.080800 -0.057400 -0.061300 -0.022700 -0.023500 0.046600 0.590000 0.025700 0.050700 0.047600 -0.145500 0.020100 0.060700 0.046600 0.098700 -0.009000 0.235700 0.023300 0.002700 -0.162300 0.098100 -0.021600 0.084200 0.137700 0.031700 -0.055200 0.065100 -0.054600 -0.076200 -0.109700 0.329500 0.097600 -0.055600 -0.072100 -0.060200 0.017100 0.066200 -0.127700 -0.041600 -0.054500 0.019000 0.013900 0.114700 0.011500 0.072200 0.078000 0.022400 -0.071000 -0.057200 -0.462500 0.081000 -0.046500 0.038100 -0.063700 0.012600 -0.033500 -0.009200 -0.014700 -0.066300 -0.014900 0.113200 0.026000 0.177800 -0.011800 -0.070100 -0.119500 0.284900 0.097900 -0.131700 0.034700 -0.023400 0.214600 0.052700 -0.055000 0.120600 -0.007800 -0.679400 0.103000 -0.058900 -0.058800 -0.050200 -0.029400 0.023600 0.038200 0.140400 -0.156000 0.117600 0.115100 0.063200 -0.121600 -0.236600 -0.017800 -0.206400 0.032200 -0.015600
! -0.119700 -0.278600 0.039900 0.153100 -0.111800 0.124100 0.132400 0.057700 0.173100 -0.091400 0.146200 0.314000 -0.036800 -0.013900 -0.070600 -0.055100 -0.019500 -0.096900 0.068300 0.020000 0.025900 -0.031400 0.031600 -0.064000 0.051900 -0.012000 0.025000 -0.131000 -0.106600 0.289600 -0.086500 0.029600 0.015100 -0.143400 0.004100 -0.015000 0.002900 0.007900 -0.160300 0.317900 -0.092900 -0.001800 0.124700 -0.282000 -0.017000 0.131000 0.101800 0.122600 0.016300 -0.196100 -0.236600 0.151300 0.275000 0.200300 0.117200 -0.165800 0.119100 0.297900 -0.133500 -0.060800 -0.065900 0.243300 -0.166400 0.080000 -0.006400 -0.095800 0.210200 -0.126600 -0.116100 -0.097500 -0.408900 0.059100 0.052800 0.338800 -0.026500 0.056800 -0.729200 -0.054000 -0.101600 0.026300 0.384100 -0.034700 0.077000 0.015200 -0.000700 -0.042000 -0.043900 -0.084500 0.045900 -0.108700 -0.020200 0.261200 0.022400 -0.168000 0.078500 -0.080100 -0.035400 0.035300 -0.256900 -0.016100 -0.009200 0.143400 0.140400 -0.183300 0.158300 -0.102400 0.084200 -0.150500 -0.211700 -0.050800 -0.057600 -0.291300 0.149300 -0.148500 -0.682400 -0.128900 0.133000 -0.024600 -0.090500 -0.140400 0.007900 0.033700 -0.224700 0.075200 -0.115800 -0.027500 -0.034600 -0.020000 0.258900 0.063800 -0.126300 0.152200 0.018600 0.039300 -0.165600 -0.076400 0.069300 -0.005000 0.139300 0.085100 -0.184000 0.197100 -0.129000 -0.072500 -0.100000 0.175900 0.236200 0.111600 0.109700 -0.058800 -0.207400 0.136600 -0.020600 -0.066700 -0.033800 -0.045000 -0.116000 -0.030800 -0.039000 0.069700 0.679000 -0.029300 0.061000 -0.088700 0.046100 -0.111000 0.187400 -0.090400 -0.058600 -0.082500 0.002500 -0.001800 0.109500 0.033300 -0.048100 0.056100 0.008400 -0.004800 0.010000 -0.073400 0.014800 0.069400 0.112500 0.085100 0.098100 -0.008400 0.102100 0.048500 -0.004300 0.024100 0.041700 0.040300 0.154700 -0.158900 0.026000 0.067600 -0.067100 0.165000 -0.004000 -0.038700 -0.068100 -0.030400 0.098600 -0.071400 0.026500 0.024600 0.059300 -0.217700 -0.020600 0.062900 0.140200 0.428400 -0.162500 0.140500 -0.209100 -0.224900 -0.091000 -0.099100 -0.092600 -0.004500 -0.138600 -0.037700 -0.092300 -0.174600 0.050800 -0.040700 0.095700 -0.079600 0.166600 -0.062600 -0.080300 0.163600 -0.012400 -0.130200 0.097300 0.002500 -0.146800 0.139400 0.215900 0.044400 -0.122500 0.150800 0.194900 -0.152400 0.040100 0.080100 -0.316600 0.027400 -0.039500 0.200700 0.009600 -0.017100 0.022500 0.032900 -0.223200 0.077100 0.061300 -0.012500 -0.098500 0.086400 0.127200 -0.031800 0.084400 -0.097800 -0.073300 0.169200 0.066700 -0.300900 -0.207600 0.116100 -0.018700 -0.109400 -0.283200 0.194800 -0.107700 0.050500 0.128300 0.034200 -0.119700 0.197000 0.151800 -0.454800 -0.235100 -0.049800 -0.180700 -0.129100 0.006300 0.079900 -0.140900 -0.059500 -0.094900 0.039300 -0.079400 -0.328800 -0.098000 0.039500 -0.050700 0.017300 -0.174200 -0.102900
but -0.099700 -0.109300 -0.050200 -0.045600 -0.065000 0.048000 -0.086800 0.123100 -0.253300 0.001900 0.009900 0.142100 0.396500 -0.034600 -0.056100 -0.021900 0.006500 -0.026100 -0.037900 0.144900 -0.092400 -0.016100 -0.035200 -0.037100 -0.078600 0.057000 0.019500 0.068900 -0.031700 -0.067500 -0.089000 0.085900 -0.113000 -0.392600 0.046900 -0.060200 0.047200 -0.007800 -0.021400 0.154100 0.040100 0.412100 0.037100 -0.169900 0.217200 -0.109600 -0.070300 0.057900 0.013000 -0.082600 0.002600 -0.255700 -0.055400 0.008700 -0.046900 0.008300 0.054700 0.018800 0.152400 0.064400 -0.143000 -0.013800 -0.037000 -0.216000 -0.071900 0.048800 -0.038000 0.062400 -0.083300 0.129300 -0.037600 0.027900 -0.144600 0.356400 -0.133600 -0.145200 -0.289800 -0.105900 -0.016000 -0.216100 0.819600 0.061800 0.021500 0.009500 -0.008900 0.066700 0.026600 -0.034200 0.061500 0.008100 0.002200 0.591300 0.095700 0.045500 0.029900 -0.063300 0.124200 -0.085900 -0.126900 -0.131700 0.020100 0.043300 0.057800 -0.059800 0.082100 0.053000 -0.036100 0.039900 -0.026200 0.052100 0.082900 -0.229400 -0.100200 0.021400 -0.174000 0.098200 0.164800 0.075800 -0.013400 -0.002800 -0.330400 0.020800 0.036600 -0.037000 -0.047300 0.012900 -0.006300 -0.009900 0.338700 0.021800 -0.090300 -0.006200 -0.065800 -0.023200 0.009500 -0.013500 -0.072100 0.005000 0.031600 -0.478500 -0.000400 -0.025100 0.028400 0.379100 -0.013300 0.036300 -0.033300 0.039800 -0.034500 -0.071300 0.015800 0.062300 -0.039100 -0.077000 -0.000400 -0.097200 0.100500 0.055700 0.030800 -0.016100 0.667300 0.028000 -0.098100 -0.024700 -0.094200 -0.028900 -0.066500 -0.043000 -0.062600 -0.108700 -0.012500 0.037400 -0.031800 0.062500 -0.066100 0.084500 -0.004600 0.087300 -0.006900 -0.047800 0.297800 -0.074000 0.085100 -0.107200 0.014500 -0.059100 0.047800 -0.260500 0.046600 -0.039600 -0.000200 -0.040100 0.093100 -0.068500 0.047500 0.081400 -0.010400 -0.094400 0.040700 0.026300 -0.249400 -0.015600 -0.035700 -0.027000 0.000100 0.023500 -0.043500 -0.004000 0.074300 0.152200 0.060400 0.457700 -0.018900 -0.045100 -0.020200 -0.094000 -0.041800 -0.099900 -0.008700 0.140800 -0.228000 0.244500 0.039300 0.059300 -0.147000 0.105000 0.000800 0.015300 -0.031900 0.029500 0.044000 -0.060400 0.152600 -0.028200 -0.112200 -0.029500 0.071600 0.024700 -0.131500 -0.114300 -0.036300 -0.073900 -0.106100 0.077700 -0.257600 0.067200 -0.087600 0.101800 -0.080100 -0.029000 0.115500 0.003100 -0.027100 -0.020500 0.226900 0.074300 -0.119700 -0.066300 0.065600 0.003900 -0.007800 -0.054800 -0.184300 0.003300 0.038900 0.090400 0.080200 0.210800 -0.087600 -0.047100 -0.017300 -0.049300 0.101600 -0.026300 -0.007500 -0.061400 0.204000 -0.016900 0.159400 -0.053200 0.046100 -0.017600 -0.002900 -0.017700 -0.043600 -0.138300 0.008300 -0.072700 -0.025400 -0.055500 0.045200 -0.006900 0.017400 0.299500 0.067600 0.105700 -0.060400 -0.077200 -0.092400 -0.024300
by -0.075800 -0.125500 -0.066000 0.133700 -0.100200 -0.041900 0.128500 -0.464800 -0.617500 -0.000400 -0.081600 0.135800 0.093200 -0.099100 -0.085400 0.062200 -0.511100 0.013200 0.094800 -0.013700 0.003600 -0.142700 0.006000 0.002300 -0.188800 -0.015300 -0.080100 0.057400 -0.008100 0.192600 -0.002400 -0.028300 0.310000 0.428100 -0.072000 0.008500 -0.138100 0.013800 0.028000 -0.409100 -0.047500 -0.131800 -0.049800 -0.151500 -0.151400 -0.097100 -0.018900 -0.025700 -0.067500 0.063000 0.083000 -0.359500 -0.372700 -0.082500 0.034300 0.002900 0.045700 0.169300 0.093500 -0.033000 0.187300 -0.349600 -0.003200 -0.189100 -0.061000 -0.038700 0.165700 -0.107400 -0.069300 0.053700 -0.477000 0.021300 0.039100 -0.422000 -0.115500 0.217500 -0.044300 -0.201900 -0.123400 -0.034700 1.042300 0.015200 -0.042400 -0.071800 0.136100 -0.080300 0.059200 0.024400 -0.028500 -0.009000 0.050600 0.537000 -0.043300 0.084000 0.029200 0.234400 0.040600 0.031100 -0.328500 0.045800 -0.009000 -0.095900 0.183100 0.206900 0.152800 0.009700 0.109200 0.038700 0.120300 0.053000 -0.233800 -0.086700 -0.072700 0.012400 -0.664600 -0.169500 -0.282600 0.025200 0.105400 0.031200 0.075700 0.035100 -0.137200 -0.020300 -0.076200 -0.086500 -0.044100 0.177600 0.213000 -0.149900 0.061200 -0.025700 0.115600 0.045500 -0.145500 -0.012000 0.045200 -0.072400 0.039600 0.098700 -0.083100 0.050200 -0.049100 0.204400 -0.029600 0.028100 -0.118400 -0.054700 -0.072100 0.032400 -0.050500 -0.027300 -0.012800 0.108800 -0.044100 0.098400 0.055800 -0.078400 -0.011200 -0.047900 0.717300 -0.000200 -0.156200 -0.042500 -0.037800 0.032900 -0.078300 -0.095300 0.056500 0.043500 -0.091000 -0.011300 -0.009200 0.061600 0.337500 -0.047000 0.023200 -0.079200 0.175600 -0.068500 0.076800 0.036700 -0.007600 0.020200 0.100100 -0.055300 0.028400 0.093800 -0.031800 0.076500 0.057700 -0.026200 -0.138800 -0.013700 -0.223600 -0.104800 0.235600 0.030800 0.023800 -0.145700 -0.003100 -0.005100 0.021400 0.158400 -0.027400 -0.051600 -0.114500 0.137900 -0.089800 -0.077100 0.055500 0.459200 -0.049900 -0.066200 -0.004600 0.061800 -0.003000 0.029300 0.063000 0.021500 -0.137700 0.146600 -0.119300 0.075700 0.164500 -0.022800 -0.109000 0.141400 -0.082900 -0.013100 -0.002200 0.014300 -0.183600 0.029100 -0.019100 -0.178100 0.031700 -0.022800 -0.110400 0.046300 -0.128800 0.068100 -0.007200 -0.055100 -0.001100 -0.041300 0.191400 0.004000 0.054800 -0.011300 -0.022400 0.158100 0.053800 -0.075400 -0.504600 -0.092700 -0.101900 -0.028000 0.050600 -0.037700 0.145600 0.025700 0.002600 -0.007300 -0.036600 0.157800 -0.032000 0.098800 0.057400 0.025400 -0.042300 0.459800 0.084600 0.405200 0.047000 0.026800 -0.471100 0.066800 -0.024000 0.057400 -0.011200 0.526600 -0.116300 -0.217900 0.025300 -0.211300 -0.022000 0.030700 -0.028400 -0.120100 -0.042000 0.012000 -0.008700 0.381700 -0.046500 -0.049400 0.052700 0.376800 0.181400 0.025100
? 0.336400 -0.019500 0.235500 -0.067400 -0.151600 0.109900 0.144700 0.065400 0.146200 0.010200 0.080200 0.336000 -0.059600 -0.007100 0.220800 -0.053300 0.061300 -0.013500 0.116800 0.277100 -0.161900 0.119200 0.024000 0.345900 -0.008900 -0.009100 -0.083800 0.095700 -0.081000 0.212700 -0.087900 -0.050700 -0.142000 -0.044400 -0.247900 -0.019200 -0.173900 -0.137500 0.023900 0.279800 -0.053600 0.097400 -0.029500 -0.355500 0.027100 0.167500 0.127400 -0.045100 0.265900 -0.211500 -0.066300 0.169800 0.161700 0.232600 0.023600 -0.237100 -0.292800 0.263700 -0.172900 0.007200 -0.185300 0.248800 -0.063700 -0.205400 -0.100100 0.151500 0.012900 -0.313800 0.193400 0.005800 -0.323800 0.201500 0.024100 0.205400 0.082900 0.090100 -0.692200 0.126000 -0.310300 0.069600 0.367800 -0.145300 -0.127300 -0.142300 -0.003700 -0.089600 -0.407600 0.120800 -0.139500 -0.098200 0.165100 0.310800 -0.065700 -0.197200 0.029400 -0.103000 0.015000 -0.055300 0.019100 -0.047100 -0.072600 -0.142100 0.184100 -0.025000 -0.033400 -0.009900 0.005300 -0.124600 0.084800 -0.034000 -0.100600 -0.345700 0.145100 0.106700 -0.617300 -0.084900 0.079900 -0.067400 -0.160300 0.003400 0.020500 -0.128100 -0.120700 0.147000 -0.663400 0.248700 0.086900 -0.072200 0.305400 -0.258500 -0.171200 0.147600 -0.087700 0.115300 -0.145200 -0.117600 -0.162900 0.132400 -0.277800 0.127700 -0.060500 -0.075800 0.004500 0.087100 0.351700 -0.156400 0.077100 0.093300 -0.008300 -0.015100 -0.285900 0.223900 0.131400 -0.132800 0.147100 0.043100 -0.252400 0.019200 0.182800 0.013600 0.662300 -0.051000 0.102700 0.004100 0.213100 -0.087100 0.067000 0.182300 0.019800 -0.145700 -0.025500 0.427500 -0.057700 -0.039600 -0.148800 -0.032600 0.173900 -0.000700 0.110300 -0.038600 0.007800 -0.095300 0.005400 0.079100 -0.047400 -0.056900 0.123800 0.057200 -0.111700 0.103300 -0.138400 0.009300 0.105000 0.034700 -0.030100 0.009600 0.008200 0.087700 -0.065600 0.121800 -0.074800 -0.282500 0.170900 0.088800 0.143800 -0.146200 0.020600 0.040900 0.019700 0.034900 -0.064000 0.391200 -0.112500 0.072800 -0.121700 -0.230900 -0.257000 0.137600 -0.214200 0.157500 0.022200 -0.014200 0.101200 0.009000 0.139000 0.217200 -0.064900 0.079400 0.041900 0.048200 -0.024300 -0.030900 -0.026600 -0.007500 -0.103500 -0.000100 -0.138600 -0.087200 0.093000 0.135700 -0.045200 0.148200 -0.041600 0.070600 0.076100 0.013000 -0.340400 -0.145900 0.032800 0.116600 0.096900 0.231300 0.044700 0.070400 -0.044200 0.137100 0.112300 -0.024400 0.246000 -0.197800 -0.020200 0.114300 -0.091000 -0.141400 -0.058300 0.072200 -0.081100 -0.090900 -0.095200 0.046100 -0.036000 -0.034900 -0.110500 0.229800 -0.002200 0.121000 0.026400 -0.001700 -0.046900 0.095500 0.100900 -0.474500 -0.003900 -0.178400 -0.024800 0.035500 -0.044100 0.270800 -0.088100 0.235800 -0.077900 0.092800 0.063900 -0.296300 -0.232100 -0.204100 0.090500 -0.077300 -0.082700 -0.008300
my -0.281200 -0.005300 -0.047200 -0.097100 0.021700 0.095900 0.267600 -0.332800 0.173400 0.120700 0.062600 0.338600 0.089300 -0.064000 0.237200 -0.223600 -0.002600 -0.103200 -0.013900 0.135600 -0.058000 0.059800 -0.174600 0.075900 -0.078500 -0.030600 0.187200 0.007100 -0.090800 -0.016000 -0.128800 0.041500 -0.108300 -0.396000 0.134600 -0.129100 0.133800 -0.053300 -0.044200 -0.186700 0.029000 -0.186200 0.164500 0.342200 -0.029300 -0.076900 0.087200 -0.057500 0.214400 0.062400 -0.056800 0.073200 0.694500 -0.149000 -0.238300 -0.267900 -0.060400 -0.424100 -0.090200 0.028100 -0.026500 -0.301800 -0.074000 0.057800 0.129600 -0.040300 0.134100 -0.251300 -0.103800 0.014200 -0.177000 0.052400 -0.089400 0.209600 0.078900 0.449100 -0.665900 0.038700 0.082200 -0.112600 0.613200 0.122600 0.064700 -0.030500 -0.069200 -0.004700 -0.176100 -0.056900 0.062000 0.100200 -0.211800 0.258100 0.101900 -0.030200 0.018100 -0.095300 0.343800 -0.058600 -0.187600 0.045800 0.113500 0.053700 -0.163300 -0.103900 -0.235100 0.320100 0.125700 -0.140600 -0.103500 0.006500 0.205100 0.152500 0.338500 0.009200 -0.719200 -0.144800 -0.012800 0.025400 -0.205200 0.019400 0.021100 0.043900 0.383200 -0.098300 0.135100 -0.189900 -0.085100 -0.121400 -0.059800 0.164700 -0.084400 0.340200 0.007600 0.146800 0.239700 -0.001600 -0.049500 0.113500 0.068500 -0.374900 -0.113400 0.162800 -0.003600 0.229700 -0.400100 -0.034700 -0.139100 -0.070400 0.093700 -0.115200 0.036700 0.010800 -0.185600 -0.005100 0.098200 -0.008300 0.031900 0.110400 -0.100500 -0.001500 0.143500 0.055700 0.115500 0.115500 -0.140800 0.129600 0.231000 -0.003700 0.001800 -0.108700 -0.123400 0.161600 -0.061300 -0.029500 -0.222400 -0.040100 -0.026200 0.340300 -0.096400 0.067100 0.503900 0.050600 0.213600 -0.061200 -0.127900 -0.133700 -0.110000 -0.029300 -0.086500 0.037400 0.097200 0.029200 -0.025500 -0.047700 -0.042700 -0.079700 -0.068700 -0.060700 -0.021600 0.048400 0.138000 0.053200 0.099400 -0.069300 -0.047400 0.027500 -0.148400 -0.111500 0.018000 -0.405900 0.211400 0.455000 0.009600 0.231900 0.024400 -0.210100 0.112000 -0.038600 0.059000 0.193500 -0.056800 0.234200 -0.070800 0.184000 0.129800 0.193800 0.210300 -0.050500 0.127400 0.056300 0.026500 -0.038200 0.130500 -0.211300 -0.019500 0.317700 -0.163100 -0.018400 0.015800 0.030900 0.020200 0.107000 0.110500 0.102500 -0.025300 -0.054000 0.325300 0.119300 0.117300 -0.021800 0.189200 -0.108400 -0.051800 0.080500 0.171600 0.263700 -0.004000 -0.000700 -0.107000 -0.049200 0.065200 -0.080800 -0.153000 -0.008000 -0.066300 -0.048400 0.155800 0.053200 0.269700 -0.069800 -0.474900 -0.129500 0.175500 0.107000 -0.068900 0.156400 -0.284100 0.123500 -0.197400 -0.024500 -0.005600 0.123300 0.157900 0.165200 0.023300 -0.029300 0.057400 0.036100 0.002500 0.107400 -0.214800 0.166100 0.099200 -0.478600 -0.035600 -0.402800 0.026200 0.266600 0.167200 -0.124300
one -0.055200 -0.053500 -0.036800 -0.285100 -0.038100 -0.048600 0.238300 -0.120000 0.262000 -0.057500 0.022800 0.081900 0.050200 -0.033300 -0.009000 -0.058900 0.266700 -0.016800 -0.113400 0.063300 -0.066900 -0.022100 -0.048000 0.018300 -0.077300 0.003200 0.003300 0.043800 -0.158400 -0.220400 -0.061500 -0.015800 -0.301800 -0.015300 -0.120000 0.008900 -0.028800 0.128500 -0.178900 -0.094700 -0.037400 0.094400 -0.031700 0.146000 0.104000 -0.065500 -0.033300 0.140500 0.020700 0.097500 -0.016400 -0.336700 0.228200 -0.091100 0.024800 0.028100 -0.056300 -0.209200 -0.076900 -0.085500 0.144300 -0.147900 -0.013200 -0.175100 0.034200 -0.000700 0.027500 -0.014100 0.071700 0.045800 -0.057900 -0.093300 -0.079600 0.184700 -0.017200 0.240500 -0.379400 -0.068500 0.110300 -0.102000 0.259900 -0.076200 -0.029300 -0.073500 0.009900 -0.011500 0.011700 0.026600 -0.060300 0.015600 0.006300 0.359100 0.051700 -0.010600 -0.065400 -0.008300 0.057900 0.218400 -0.109800 0.032500 0.038100 0.033900 0.261500 0.011900 0.103700 0.014800 0.106400 -0.108700 -0.072000 0.163600 0.183100 0.226400 0.074200 0.041400 -0.597600 0.203100 -0.368400 0.042900 0.302600 -0.006400 0.051500 -0.058600 0.014400 -0.037600 -0.021100 -0.090400 0.036700 0.047700 0.176100 -0.002800 -0.005900 0.034000 0.035500 0.122700 0.048300 -0.112300 -0.292800 0.141400 0.045100 -0.249500 -0.001600 -0.039700 -0.014600 0.232400 -0.034100 0.025100 -0.030600 0.026100 0.004600 -0.170100 -0.081300 -0.048500 0.027500 -0.022600 0.100200 -0.020200 0.013300 -0.108100 0.015700 0.000800 0.394400 0.109500 0.060000 0.038200 -0.065600 0.037900 -0.054200 -0.047600 0.004200 0.033500 -0.039900 0.004200 0.264800 -0.006000 0.002400 0.050500 0.067800 0.005800 -0.053500 -0.001900 0.210000 -0.046200 0.105500 -0.065600 0.103300 -0.093600 -0.105800 0.121600 0.107400 0.098600 -0.010300 -0.026100 -0.116700 -0.012200 0.110000 0.026000 -0.078000 0.077200 0.012900 0.035200 -0.050800 -0.028500 -0.010800 0.016900 0.031900 0.033600 -0.052900 0.020900 -0.034100 0.212400 0.066700 0.578800 -0.030600 0.030900 -0.046900 -0.181900 0.026600 -0.078100 -0.050100 0.037400 -0.048200 0.170900 0.010600 0.033100 0.473300 -0.055500 0.090400 0.009500 -0.110600 0.149000 0.058100 0.006100 0.148800 -0.056500 -0.028500 0.011200 0.026200 -0.034100 -0.014800 0.015200 0.052800 -0.136200 0.162400 -0.119200 -0.402400 0.080300 0.161900 0.007700 -0.086000 0.020700 0.019900 0.165700 -0.022700 -0.136400 0.338600 -0.050300 -0.056500 0.021000 -0.034200 -0.033200 0.063200 -0.097000 -0.008000 0.051600 0.056700 -0.095100 0.033900 0.030300 0.078500 -0.035400 -0.008200 0.203600 0.003900 -0.111400 -0.005900 -0.043300 0.560300 -0.070700 -0.044800 0.072200 -0.206200 0.095500 0.030500 -0.121400 -0.119500 -0.139200 0.051000 0.047900 0.171500 0.046100 0.042500 0.066000 0.047800 -0.185900 -0.129500 0.000100 0.011100 -0.206200 0.086100 0.124400
so -0.100400 -0.146200 -0.108000 0.043300 -0.019100 0.050400 -0.030300 0.202400 0.011400 -0.082000 0.174500 0.157600 0.088200 -0.001300 -0.018900 -0.043600 -0.004100 -0.047500 0.026100 0.089400 -0.087300 0.010300 -0.063700 0.041500 -0.015500 -0.149300 0.132500 0.066900 -0.007800 0.111400 -0.106900 -0.114200 -0.040900 -0.295800 -0.037700 -0.058400 0.009000 0.033800 -0.010700 0.053400 -0.033900 0.402000 -0.003500 -0.315500 0.059300 -0.079600 0.080100 0.083000 -0.016200 -0.408700 -0.256600 -0.125700 0.011300 0.032800 -0.004100 0.021600 -0.002700 -0.066600 -0.159700 -0.070200 0.028000 -0.062800 -0.113500 -0.319300 -0.047500 0.094800 0.011900 0.009700 0.001600 -0.070600 0.097200 0.015800 0.039700 0.281400 -0.105500 -0.374200 -0.354300 -0.052700 0.085200 0.061800 0.555900 0.056800 0.013200 0.061200 -0.064300 0.073400 0.052000 -0.030300 -0.053900 -0.029000 0.019100 0.565200 -0.030900 0.034300 -0.009300 -0.088300 0.036000 -0.111500 -0.091200 0.084100 -0.026900 0.001200 0.058800 -0.049000 0.127500 0.022800 -0.033400 -0.035200 -0.155900 0.009000 0.134100 -0.075000 0.078500 0.088600 -0.345400 0.030500 0.159300 0.038400 0.108800 -0.008000 -0.235900 -0.014700 0.001700 -0.003600 -0.011900 -0.004500 0.017400 -0.010900 0.272600 -0.012200 0.008900 0.059000 -0.020200 0.140300 -0.071700 -0.016900 -0.117800 -0.091500 0.021300 -0.260300 -0.027200 0.087600 -0.018200 0.373500 -0.091200 -0.023600 -0.043600 -0.114800 -0.023200 -0.139300 -0.013400 0.021400 0.028300 -0.076900 -0.039400 -0.116800 0.038900 -0.014200 0.099400 -0.032900 0.633600 -0.003700 -0.001400 -0.026100 0.021500 -0.021700 0.110100 0.000300 -0.000200 0.039700 0.089700 0.015400 0.075400 0.035500 -0.077400 -0.053200 0.049300 0.024300 -0.028000 -0.022600 0.213100 -0.040500 0.130400 -0.009900 0.021300 -0.165300 0.172700 -0.520200 -0.122100 0.002100 -0.000300 -0.068900 0.094100 -0.095600 0.077400 -0.015000 -0.015400 -0.014400 -0.017300 0.017200 0.040800 0.017500 -0.021400 -0.122300 -0.022000 -0.013800 -0.002100 -0.061200 -0.072100 -0.077100 0.112600 0.523800 -0.002800 0.049700 -0.051100 -0.121900 -0.060100 -0.070600 -0.000300 0.039900 0.048400 0.059800 0.034600 0.024600 0.000600 0.014200 0.013000 0.018800 0.069900 0.080300 -0.073800 0.084400 0.169500 -0.046500 0.049000 -0.014800 0.055100 -0.135000 -0.021700 0.000400 -0.064100 0.082400 0.009900 -0.147300 -0.391200 0.030300 -0.110500 -0.039800 -0.073500 -0.005500 0.105500 -0.084800 -0.025800 -0.102500 -0.068500 0.129700 -0.047000 0.011400 -0.023400 -0.051100 0.054200 -0.042300 -0.081900 -0.101400 -0.085200 0.106800 0.089500 0.035000 -0.068500 -0.058200 -0.132900 -0.083700 -0.039600 -0.068700 0.065400 -0.068200 0.184200 -0.054500 0.036700 0.066700 0.077300 -0.099600 0.010000 0.031900 -0.100900 0.053700 0.052000 0.083700 0.020400 -0.049200 -0.091000 0.077300 0.136500 0.411600 -0.100500 0.062400 0.009700 0.084800 -0.067500 -0.139200
has -0.239400 -0.137600 -0.043700 -0.143200 0.035600 -0.021100 -0.209300 -0.213500 -0.890200 0.015100 -0.139900 0.069500 -0.162000 -0.056000 -0.136200 0.078000 -0.169700 0.255300 0.005700 0.157200 -0.055700 -0.050200 0.041000 -0.162200 0.020300 -0.006700 0.017800 -0.014200 0.027300 0.118100 -0.063400 -0.007400 -0.227200 -0.357900 0.136600 0.187500 -0.094400 -0.086100 0.073500 0.057900 0.069300 -0.419700 -0.015300 0.382800 -0.029200 -0.028200 -0.025700 0.090000 0.027200 0.453000 0.028800 -0.222300 0.809100 -0.198100 -0.103100 0.034600 -0.060600 -0.467000 0.015100 0.002200 0.049200 -0.160600 -0.004800 0.064100 -0.100600 0.033200 -0.039200 0.190700 0.029700 0.140400 0.320800 0.114300 -0.075600 0.290000 0.033900 -0.110000 -0.195300 -0.026900 0.172600 0.027800 0.828300 0.067100 -0.004800 -0.066500 0.119200 0.064700 0.064800 0.226100 -0.020900 -0.155400 -0.036800 0.220000 -0.078200 0.109300 -0.093700 0.188000 -0.776500 0.132800 -0.072500 -0.148600 0.054400 -0.067200 0.212100 0.108300 -0.474700 -0.181600 0.041600 -0.100800 -0.040600 0.283300 -0.207300 0.257800 0.073800 0.003100 -0.134300 0.256200 0.097200 0.039600 0.128500 0.129100 -0.324000 0.057700 0.131600 -0.030000 0.073400 0.044300 -0.023100 0.035300 0.398800 -0.165000 0.028800 -0.113100 -0.063600 -0.184000 -0.413800 0.085500 -0.023800 0.001600 0.178400 0.448100 0.213000 -0.192000 -0.125800 0.027100 0.189400 0.013500 0.124200 -0.037900 -0.064500 0.042600 0.137900 0.027000 0.103200 0.010500 0.020700 -0.110600 0.123500 -0.063700 0.128300 -0.024900 0.878800 0.174900 0.115400 -0.111000 -0.000500 -0.055200 0.065200 -0.106300 0.038300 -0.032400 0.032500 -0.031500 0.224800 0.048100 0.152100 0.106700 -0.040300 -0.111700 0.037800 -0.137300 0.393700 0.003400 0.036900 -0.114000 0.030900 -0.169600 -0.029300 0.530400 -0.105700 0.077500 -0.180800 0.188500 0.341900 0.016900 0.015400 0.041400 -0.208500 0.096900 0.190600 0.127700 -0.152800 -0.147500 0.035200 0.058000 -0.027600 0.130400 0.132300 0.043000 0.077500 0.307700 0.028700 0.520000 -0.030800 -0.057900 0.026700 -0.212600 0.067700 0.001300 0.064600 0.002500 0.212400 0.317500 -0.038600 0.065500 -0.135100 0.078600 0.003200 0.046000 0.141500 0.123400 -0.051500 0.078100 0.028000 -0.106200 -0.040800 0.153100 -0.001200 -0.031700 -0.127600 -0.008600 -0.045000 -0.071300 -0.061400 -0.012500 -0.277600 -0.125400 -0.037300 0.153100 0.112200 -0.021600 0.050700 0.129700 -0.012400 0.057300 -0.438000 0.097700 0.117100 -0.020100 -0.001200 -0.035400 -0.026800 -0.086500 0.043300 -0.097900 -0.019000 0.002400 -0.166400 0.242200 0.017300 -0.086100 -0.018000 0.245700 0.031900 -0.292300 -0.011500 0.024000 0.438900 0.018700 -0.028300 0.020800 0.019500 -0.632900 0.199300 -0.111500 -0.076500 -0.083800 0.086900 0.031900 -0.029400 0.176100 -0.002700 -0.000300 -0.026000 0.493400 -0.045000 -0.536500 -0.056300 0.098200 -0.003800 -0.113200
can -0.172000 0.002600 -0.040900 -0.127000 -0.041100 -0.041700 0.041000 0.168500 0.020200 -0.037800 -0.014000 0.016300 -0.053100 0.061300 0.040900 -0.079100 -0.114900 0.056500 -0.098900 0.043700 -0.098700 0.130400 -0.032000 -0.099300 0.018100 0.087000 0.046200 -0.023800 -0.027300 0.192700 -0.198000 -0.044900 -0.102300 0.040100 0.031900 0.078700 -0.032000 0.021300 0.012800 0.207100 -0.091700 0.965200 0.004300 0.222900 0.077200 -0.029900 -0.105400 0.202100 0.093300 0.373300 -0.002800 0.267800 1.105800 0.013600 -0.162800 0.042700 -0.075200 -0.024200 -0.156400 -0.016900 -0.094000 -0.167900 0.028700 -0.557000 0.061000 0.111100 0.067200 0.063800 -0.195700 -0.185800 0.693100 0.014100 -0.003200 0.323500 -0.032000 -0.351700 -0.712900 0.049900 0.233500 0.048200 0.661800 0.107500 0.026300 0.039000 -0.076200 0.033600 0.173600 0.131100 -0.147000 0.045600 0.039400 0.296800 0.166200 -0.007400 -0.014500 -0.105900 -0.667500 -0.062800 0.009100 -0.041500 -0.072200 -0.012200 -0.019200 -0.049400 0.006300 -0.155600 0.047000 0.018700 -0.071100 0.140900 0.001900 -0.190500 0.061600 0.089900 -0.024500 -0.213700 0.230000 0.055400 0.222100 -0.020900 -0.186300 0.103200 -0.110600 0.059400 -0.212900 0.054400 0.010700 -0.128300 0.457200 -0.160800 -0.020000 -0.022800 -0.139400 0.216000 -0.046600 0.110500 -0.335200 -0.049200 0.181100 0.633300 -0.060700 -0.164500 0.091600 0.499000 0.069500 -0.106800 0.160800 -0.029300 0.095400 -0.145900 -0.042800 -0.000100 0.071700 0.092200 0.011900 0.076700 -0.269400 0.166200 0.081600 0.071500 0.073700 0.164300 0.002100 -0.020800 0.199200 0.038900 0.035300 0.042500 -0.051700 -0.361400 0.056300 0.011800 -0.165800 0.069200 0.050100 0.017300 -0.059500 -0.132600 -0.068700 -0.215600 0.296900 -0.152700 -0.002600 -0.161200 0.046300 -0.064000 0.026400 0.094400 -0.062300 -0.020500 -0.053400 0.000200 -0.038500 -0.091900 -0.031200 -0.124600 -0.222300 0.017800 0.051100 0.033000 0.036400 -0.064700 0.046200 0.058400 -0.035700 0.019700 -0.057800 0.019300 -0.040500 0.061700 0.067000 0.818900 0.091800 0.011400 0.118100 0.029400 0.065900 0.153900 0.038100 0.031900 -0.052400 0.054000 0.004500 -0.072300 0.444100 0.112100 -0.120400 0.070300 0.086300 0.062400 -0.037000 0.261800 0.140800 -0.031000 0.001900 -0.475500 0.138800 -0.092700 -0.126900 0.077600 -0.148900 0.069000 0.060900 -0.049900 -0.129900 -0.177600 0.044800 0.101300 -0.037500 0.008700 0.105000 0.180300 0.052500 0.019000 0.084500 -0.082000 -0.152500 0.199600 -0.007400 -0.094700 0.114900 -0.089400 0.055200 0.006800 -0.235100 0.275900 -0.090300 -0.174100 0.126200 0.005100 -0.064500 -0.366600 0.161600 0.046000 -0.041200 0.031500 0.160900 -0.052200 -0.057700 0.070200 -0.169200 -0.064600 -0.105800 -0.092900 0.188800 0.088500 -0.018500 -0.099700 -0.063400 -0.019700 -0.158200 0.082800 0.055100 -0.014700 -0.106000 -0.295700 0.033900 0.195800 0.130300 -0.097800
